svm_type c_svc
kernel_type rbf
gamma 0.0078125
nr_class 2
total_sv 118
rho -0.456033
label 1 2
probA -7.77522
probB 0.67759
nr_sv 59 59
SV
0.03125 1:-0.350787 2:0.157555 3:0.923106 4:0.245762 5:0.588995 6:0.769861 7:0.616123 8:-0.780062 9:0.109066 10:1.755288 11:1.340533 12:1.499815 13:0.436704 14:0.665915 15:-0.234069 16:0.568104 17:0.788968 18:0.264921 19:0.560207 20:0.784847 21:0.744007 22:0.242887 23:-0.622462 24:1.760659 25:0.548288 26:1.567874 27:0.486463 28:0.326118 29:-0.23474 30:0.568042 31:0.788813 32:0.264636 33:0.560813 34:0.78451 35:0.747765 36:0.244272 37:-0.617396 38:1.762145 39:0.547915 40:1.567795 41:0.485572 42:0.323975 43:-0.235408 44:0.567971 45:0.788665 46:0.264352 47:0.561415 48:0.784175 49:0.751545 50:0.245595 51:-0.612261 52:1.763616 53:0.547563 54:1.567715 55:0.484687 56:0.321857 57:-0.236074 58:0.56789 59:0.788524 60:0.264069 61:0.562013 62:0.783842 63:0.755346 64:0.246853 65:-0.607055 66:1.765072 67:0.547231 68:1.567632 69:0.483807 70:0.319762 71:-0.236736 72:0.5678 73:0.78839 74:0.263788 75:0.562607 76:0.783511 77:0.759167 78:0.248046 79:-0.60178 80:1.766514 81:0.546919 82:1.567548 83:0.482934 84:0.317691 85:-0.237396 86:0.5677 87:0.788264 88:0.263508 89:0.563196 90:0.783182 91:0.763009 92:0.249171 93:-0.596432 94:1.767941 95:0.546627 96:1.567461 97:0.482068 98:0.315644 99:-0.238054 100:0.567591 101:0.788144 102:0.263231 103:0.563781 104:0.782854 105:0.76687 106:0.250227 107:-0.591014 108:1.769354 109:0.546355 110:1.567372 111:0.481208 112:0.31362 113:-0.238708 114:0.567473 115:0.788031 116:0.262954 117:0.564362 118:0.782528 119:0.770748 120:0.251212 121:-0.585525 122:1.770753 123:0.546102 124:1.567281 125:0.480354 126:0.311621 127:-0.23936 128:0.567346 129:0.787924 130:0.262679 131:0.564939 132:0.782204 133:0.774645 134:0.252124 135:-0.579964 136:1.772138 137:0.545868 138:1.567188 139:0.479506 140:0.309647 141:-0.24001 142:0.56721 143:0.787825 144:0.262406 145:0.565512 146:0.781882 147:0.778558 148:0.252962 149:-0.574333 150:1.77351 151:0.545654 152:1.567093 153:0.478665 154:0.307697 155:-0.240657 156:0.567064 157:0.787733 158:0.262134 159:0.56608 160:0.781562 161:0.782487 162:0.253723 163:-0.568629 164:1.774868 165:0.545458 166:1.566995 167:0.477829 168:0.305771 169:-0.241302 170:0.566909 171:0.787647 172:0.261863 173:0.566645 174:0.781243 175:0.786432 176:0.254407 177:-0.562852 178:1.776212 179:0.545282 180:1.566895 181:0.477 182:0.30387 183:-0.241944 184:0.566744 185:0.787569 186:0.261595 187:0.567205 188:0.780927 189:0.79039 190:0.255011 191:-0.557003 192:1.777544 193:0.545123 194:1.566793 195:0.476177 196:0.301993 197:-0.242584 198:0.566571 199:0.787497 200:0.261327 201:0.567761 202:0.780612 203:0.794361 204:0.255533 205:-0.551083 206:1.778862 207:0.544983 208:1.56669 209:0.475361 210:0.300142 211:-0.243221 212:0.566388 213:0.787432 214:0.261061 215:0.568313 216:0.780299 217:0.798345 218:0.255972 219:-0.545091 220:1.780167 221:0.544862 222:1.566584 223:0.47455 224:0.298315 225:-0.243856 226:0.566195 227:0.787373 228:0.260797 229:0.568861 230:0.779988 231:0.802339 232:0.256325 233:-0.539027 234:1.78146 235:0.544758 236:1.566476 237:0.473746 238:0.296514 239:-0.244489 240:0.565994 241:0.787322 242:0.260535 243:0.569405 244:0.779679 245:0.806342 246:0.256592 247:-0.532891 248:1.78274 249:0.544672 250:1.566365 251:0.472948 252:0.294738 253:-0.24512 254:0.565784 255:0.787277 256:0.260274 257:0.569944 258:0.779372 259:0.810354 260:0.25677 261:-0.526683 262:1.784008 263:0.544603 264:1.566253 265:0.472156 266:0.292987 267:-0.245748 268:0.565564 269:0.787239 270:0.260014 271:0.57048 272:0.779067 273:0.814373 274:0.256857 275:-0.520404 276:1.785264 277:0.544553 278:1.566139 279:0.471371 280:0.291262 281:-0.246374 282:0.565335 283:0.787208 284:0.259756 285:0.571011 286:0.778764 287:0.818399 288:0.256851 289:-0.514053 290:1.786507 291:0.54452 292:1.566023 293:0.470591 294:0.289562 295:-0.246998 296:0.565096 297:0.787184 298:0.2595 299:0.571538 300:0.778463 301:0.822429 302:0.256752 303:-0.507631 304:1.787739 305:0.544504 306:1.565904 307:0.469818 308:0.287888 309:-0.24762 310:0.564849 311:0.787166 312:0.259245 313:0.572061 314:0.778163 315:0.826462 316:0.256556 317:-0.501139 318:1.788959 319:0.544504 320:1.565784 321:0.469051 322:0.286241 323:-0.248239 324:0.564592 325:0.787155 326:0.258992 327:0.57258 328:0.777866 329:0.830496 330:0.256263 331:-0.494576 332:1.790167 333:0.544523 334:1.565661 335:0.468291 336:0.284619 337:-0.248857 338:0.564326 339:0.787151 340:0.25874 341:0.573095 342:0.77757 343:0.834531 344:0.255869 345:-0.487944 346:1.791364 347:0.544558 348:1.565536 349:0.467536 350:0.283024 351:-0.249473 352:0.564051 353:0.787153 354:0.25849 355:0.573606 356:0.777277 357:0.838565 358:0.255375 359:-0.481241 360:1.792549 361:0.544609 362:1.56541 363:0.466788 364:0.281455 365:-0.250086 366:0.563766 367:0.787162 368:0.258242 369:0.574112 370:0.776985 371:0.842596 372:0.254777 373:-0.474469 374:1.793723 375:0.544677 376:1.565281 377:0.466045 378:0.279913 379:-0.250698 380:0.563473 381:0.787178 382:0.257995 383:0.574615 384:0.776696 385:0.846621 386:0.254074 387:-0.467632 388:1.794886 389:0.544761 390:1.56515 391:0.465309 392:0.278397 393:-0.251307 394:0.56317 395:0.7872 396:0.25775 397:0.575113 398:0.776409 399:0.85064 400:0.253265 401:-0.460725 402:1.796039 403:0.544862 404:1.565018 405:0.46458 406:0.276909 407:-0.251915 408:0.562858 409:0.78723 410:0.257506 411:0.575607 412:0.776123 413:0.854652 414:0.252348 415:-0.453752 416:1.79718 417:0.54498 418:1.564883 419:0.463856 420:0.275447 421:-0.25252 422:0.562536 423:0.787265 424:0.257264 425:0.576097 426:0.77584 427:0.858654 428:0.251321 429:-0.446711 430:1.798311 431:0.545113 432:1.564746 433:0.463139 434:0.274013 435:-0.253124 436:0.562205 437:0.787308 438:0.257023 439:0.576584 440:0.775558 441:0.862644 442:0.250182 443:-0.439607 444:1.799431 445:0.545262 446:1.564607 447:0.462427 448:0.272606 449:-0.253726 450:0.561865 451:0.787357 452:0.256784 453:0.577065 454:0.775279 455:0.86662 456:0.24893 457:-0.43244 458:1.800541 459:0.545428 460:1.564467 461:0.461722 462:0.271226 463:-0.254326 464:0.561516 465:0.787412 466:0.256547 467:0.577543 468:0.775001 469:0.87058 470:0.247564 471:-0.425208 472:1.80164 473:0.545609 474:1.564324 475:0.461023 476:0.269875 477:-0.254925 478:0.561157 479:0.787475 480:0.256312 481:0.578017 482:0.774726 483:0.874523 484:0.246081 485:-0.417916 486:1.802729 487:0.545806 488:1.564179 489:0.46033 490:0.268551 491:-0.255521 492:0.560788 493:0.787544 494:0.256078 495:0.578487 496:0.774453 497:0.878447 498:0.244481 499:-0.410561 500:1.803809 501:0.546018 502:1.564033 503:0.459643 504:0.267255 505:-0.256116 506:0.560411 507:0.787619 508:0.255845 509:0.578952 510:0.774182 511:0.882348 512:0.242762 513:-0.403148 514:1.804878 515:0.546247 516:1.563884 517:0.458962 518:0.265988 519:-0.256709 520:0.560024 521:0.787701 522:0.255615 523:0.579414 524:0.773913 525:0.886226 526:0.240922 527:-0.395678 528:1.805937 529:0.54649 530:1.563733 531:0.458287 532:0.264749 533:-0.257301 534:0.559628 535:0.78779 536:0.255385 537:0.579871 538:0.773646 539:0.890077 540:0.238961 541:-0.38815 542:1.806987 543:0.546749 544:1.563581 545:0.457619 546:0.263539 547:-0.257891 548:0.559222 549:0.787885 550:0.255158 551:0.580325 552:0.773381 553:0.893901 554:0.236877 555:-0.380567 556:1.808027 557:0.547024 558:1.563426 559:0.456957 560:0.262357 561:-0.258479 562:0.558807 563:0.787987 564:0.254932 565:0.580774 566:0.773118 567:0.897694 568:0.234669 569:-0.37293 570:1.809057 571:0.547314 572:1.56327 573:0.4563 574:0.261205 575:-0.259065 576:0.558382 577:0.788096 578:0.254708 579:0.581219 580:0.772857 581:0.901454 582:0.232336 583:-0.365242 584:1.810079 585:0.547619 586:1.563111 587:0.45565 588:0.260082 589:-0.25965 590:0.557948 591:0.788211 592:0.254485 593:0.58166 594:0.772599 595:0.905178 596:0.229876 597:-0.357504 598:1.81109 599:0.54794 600:1.562951 601:0.455006 602:0.258988 603:-0.260233 604:0.557504 605:0.788332 606:0.254264 607:0.582097 608:0.772342 609:0.908866 610:0.22729 611:-0.349717 612:1.812093 613:0.548275 614:1.562789 615:0.454368 616:0.257923 617:-0.260815 618:0.557051 619:0.78846 620:0.254045 621:0.58253 622:0.772088 623:0.912514 624:0.224575 625:-0.341883 626:1.813087 627:0.548626 628:1.562625 629:0.453736 630:0.256889 631:-0.261395 632:0.556588 633:0.788595 634:0.253827 635:0.582959 636:0.771836 637:0.916119 638:0.221732 639:-0.334007 640:1.814072 641:0.548992 642:1.562458 643:0.45311 644:0.255884 645:-0.261974 646:0.556115 647:0.788737 648:0.253611 649:0.583384 650:0.771586 651:0.91968 652:0.218759 653:-0.326087 654:1.815047 655:0.549372 656:1.56229 657:0.45249 658:0.254909 659:-0.262552 660:0.555633 661:0.788884 662:0.253397 663:0.583804 664:0.771338 665:0.923194 666:0.215656 667:-0.318127 668:1.816014 669:0.549768 670:1.562121 671:0.451876 672:0.253965 673:-0.263127 674:0.555141 675:0.789039 676:0.253185 677:0.584221 678:0.771092 679:0.926658 680:0.212423 681:-0.310131 682:1.816972 683:0.550179 684:1.561949 685:0.451268 686:0.253051 687:-0.263702 688:0.55464 689:0.7892 690:0.252974 691:0.584634 692:0.770849 693:0.930071 694:0.209058 695:-0.302098 696:1.817922 697:0.550605 698:1.561775 699:0.450666 700:0.252168 701:-0.264275 702:0.554129 703:0.789367 704:0.252764 705:0.585042 706:0.770607 707:0.933428 708:0.205562 709:-0.294033 710:1.818863 711:0.551045 712:1.5616 713:0.450071 714:0.251316 715:-0.264847 716:0.553608 717:0.789541 718:0.252557 719:0.585447 720:0.770368 721:0.936729 722:0.201935 723:-0.285938 724:1.819795 725:0.551501 726:1.561422 727:0.449481 728:0.250495 729:-0.265417 730:0.553077 731:0.789721 732:0.252351 733:0.585847 734:0.770131 735:0.939971 736:0.198176 737:-0.277813 738:1.82072 739:0.551972 740:1.561243 741:0.448897 742:0.249704 743:-0.265986 744:0.552536 745:0.789908 746:0.252146 747:0.586244 748:0.769896 749:0.943151 750:0.194285 751:-0.269666 752:1.821636 753:0.552457 754:1.561061 755:0.448319 756:0.248946 757:-0.266553 758:0.551986 759:0.790102 760:0.251944 761:0.586636 762:0.769664 763:0.946267 764:0.190262 765:-0.261496 766:1.822544 767:0.552957 768:1.560879 769:0.447748 770:0.248219 771:-0.26712 772:0.551426 773:0.790302 774:0.251743 775:0.587024 776:0.769433 777:0.949316 778:0.186108 779:-0.253305 780:1.823443 781:0.553472 782:1.560694 783:0.447182 784:0.247523 785:-0.267685 786:0.550855 787:0.790508 788:0.251543 789:0.587409 790:0.769205 791:0.952296 792:0.181823 793:-0.245099 794:1.824335 795:0.554002 796:1.560507 797:0.446622 798:0.24686 799:-0.268249 800:0.550275 801:0.790721 802:0.251346 803:0.587789 804:0.768979 805:0.955204 806:0.177408 807:-0.236879 808:1.825218 809:0.554547 810:1.560318 811:0.446068 812:0.246229 813:-0.268811 814:0.549685 815:0.790941 816:0.25115 817:0.588165 818:0.768756 819:0.958039 820:0.172862 821:-0.228646 822:1.826095 823:0.555107 824:1.560128 825:0.445521 826:0.245629 827:-0.269372 828:0.549084 829:0.791167 830:0.250956 831:0.588537 832:0.768534 833:0.960798 834:0.168188 835:-0.220409 836:1.826962 837:0.555682 838:1.559935 839:0.444978 840:0.245063 841:-0.269932 842:0.548474 843:0.791399 844:0.250763 845:0.588906 846:0.768315 847:0.963479 848:0.163385 849:-0.212166 850:1.827823 851:0.556271 852:1.559741 853:0.444443 854:0.244529 855:-0.270491 856:0.547853 857:0.791638 858:0.250573 859:0.589269 860:0.768098 861:0.966079 862:0.158454 863:-0.203922 864:1.828676 865:0.556876 866:1.559546 867:0.443913 868:0.244028 869:-0.271049 870:0.547222 871:0.791884 872:0.250383 873:0.589629 874:0.767884 875:0.968596 876:0.153398 877:-0.195681 878:1.829521 879:0.557496 880:1.559348 881:0.443389 882:0.243559 883:-0.271606 884:0.546581 885:0.792136 886:0.250196 887:0.589986 888:0.767671 889:0.971029 890:0.148216 891:-0.187444 892:1.830358 893:0.55813 894:1.559148 895:0.44287 896:0.243124 897:-0.272161 898:0.545929 899:0.792395 900:0.25001 901:0.590338 902:0.767461 903:0.973375 904:0.14291 905:-0.179217 906:1.831188 907:0.55878 908:1.558947 909:0.442358 910:0.242722 911:-0.272716 912:0.545268 913:0.79266 914:0.249826 915:0.590685 916:0.767253 917:0.975632 918:0.137482 919:-0.171001 920:1.832011 921:0.559444 922:1.558744 923:0.441852 924:0.242353 925:-0.273269 926:0.544595 927:0.792931 928:0.249644 929:0.591029 930:0.767048 931:0.977798 932:0.131933 933:-0.162802 934:1.832826 935:0.560124 936:1.558539 937:0.441351 938:0.242018 939:-0.273821 940:0.543913 941:0.793209 942:0.249464 943:0.591369 944:0.766844 945:0.979872 946:0.126266 947:-0.154623 948:1.833634 949:0.56082 950:1.558332 951:0.440856 952:0.241717 953:-0.274372 954:0.543219 955:0.793494 956:0.249285 957:0.591705 958:0.766643 959:0.981851 960:0.120481 961:-0.146466 962:1.834435 963:0.56153 964:1.558124 965:0.440368 966:0.241449 967:-0.274922 968:0.542516 969:0.793785 970:0.249108 971:0.592037 972:0.766445 973:0.983735 974:0.114581 975:-0.138336 976:1.835229 977:0.562255 978:1.557914 979:0.439885 980:0.241216 981:-0.275472 982:0.541801 983:0.794082 984:0.248932 985:0.592365 986:0.766248 987:0.985521 988:0.108568 989:-0.130233 990:1.836015 991:0.562996 992:1.557702 993:0.439408 994:0.241016 995:-0.27602 996:0.541076 997:0.794387 998:0.248759 999:0.592689 1000:0.766054 1001:0.987209 1002:0.102444 1003:-0.122165 1004:1.836795 1005:0.563753 1006:1.557488 1007:0.438937 1008:0.240851 1009:-0.276567 1010:0.54034 1011:0.794697 1012:0.248587 1013:0.593009 1014:0.765863 1015:0.988795 1016:0.096212 1017:-0.114134 1018:1.837568 1019:0.564524 1020:1.557272 1021:0.438471 1022:0.240719 1023:-0.277113 1024:0.539594 1025:0.795014 1026:0.248417 1027:0.593324 1028:0.765673 1029:0.990281 1030:0.089874 1031:-0.106143 1032:1.838333 1033:0.565312 1034:1.557055 1035:0.438012 1036:0.240623 1037:-0.277658 1038:0.538836 1039:0.795338 1040:0.248248 1041:0.593636 1042:0.765486 1043:0.991664 1044:0.083432 1045:-0.098196 1046:1.839092 1047:0.566115 1048:1.556836 1049:0.437558 1050:0.24056 1051:-0.278202 1052:0.538067 1053:0.795668 1054:0.248081 1055:0.593944 1056:0.765302 1057:0.992942 1058:0.076889 1059:-0.090297 1060:1.839844 1061:0.566934 1062:1.556615 1063:0.43711 1064:0.240533 1065:-0.278745 1066:0.537288 1067:0.796004 1068:0.247916 1069:0.594248 1070:0.765119 1071:0.994116 1072:0.070249 1073:-0.082447 1074:1.840589 1075:0.567768 1076:1.556393 1077:0.436668 1078:0.24054 1079:-0.279288 1080:0.536498 1081:0.796347 1082:0.247753 1083:0.594547 1084:0.764939 1085:0.995185 1086:0.063513 1087:-0.074653 1088:1.841327 1089:0.568619 1090:1.556169 1091:0.436232 1092:0.240581 1093:-0.279829 1094:0.535696 1095:0.796697 1096:0.247592 1097:0.594843 1098:0.764762 1099:0.996147 1100:0.056685 1101:-0.066917 1102:1.842059 1103:0.569485 1104:1.555943 1105:0.435801 1106:0.240658 1107:-0.28037 1108:0.534883 1109:0.797053 1110:0.247432 1111:0.595135 1112:0.764586 1113:0.997002 1114:0.049768 1115:-0.059239 1116:1.842784 1117:0.570368 1118:1.555715 1119:0.435377 1120:0.240769 1121:-0.28091 1122:0.534059 1123:0.797415 1124:0.247274 1125:0.595422 1126:0.764413 1127:0.99775 1128:0.042764 1129:-0.051628 1130:1.843502 1131:0.571267 1132:1.555486 1133:0.434958 1134:0.240916 1135:-0.281448 1136:0.533224 1137:0.797784 1138:0.247118 1139:0.595706 1140:0.764243 1141:0.99839 1142:0.035678 1143:-0.044085 1144:1.844213 1145:0.572182 1146:1.555255 1147:0.434545 1148:0.241097 1149:-0.281986 1150:0.532377 1151:0.798159 1152:0.246963 1153:0.595986 1154:0.764075 1155:0.998923 1156:0.028512 1157:-0.036609 1158:1.844918 1159:0.573114 1160:1.555022 1161:0.434137 1162:0.241314 1163:-0.282524 1164:0.531518 1165:0.798541 1166:0.24681 1167:0.596261 1168:0.763909 1169:0.999347 1170:0.02127 1171:-0.029209 1172:1.845617 1173:0.574062 1174:1.554788 1175:0.433736 1176:0.241566 1177:-0.28306 1178:0.530649 1179:0.79893 1180:0.246659 1181:0.596533 1182:0.763746 1183:0.999663 1184:0.013955 1185:-0.021886 1186:1.846309 1187:0.575027 1188:1.554551 1189:0.43334 1190:0.241852 1191:-0.283595 1192:0.529767 1193:0.799325 1194:0.24651 1195:0.596801 1196:0.763585 1197:0.999871 1198:0.00657 1199:-0.014643 1200:1.846994 1201:0.576009 1202:1.554314 1203:0.432949 1204:0.242174 1205:-0.28413 1206:0.528874 1207:0.799726 1208:0.246363 1209:0.597064 1210:0.763426 1211:0.999972 1212:-0.00088 1213:-0.007483 1214:1.847673 1215:0.577007 1216:1.554074 1217:0.432565 1218:0.242532 1219:-0.284664 1220:0.527969 1221:0.800134 1222:0.246217 1223:0.597324 1224:0.76327 1225:0.999965 1226:-0.008393 1227:-0.000408 1228:1.848346 1229:0.578023 1230:1.553833 1231:0.432186 1232:0.242924 1233:-0.285197 1234:0.527052 1235:0.800549 1236:0.246073 1237:0.59758 1238:0.763116 1239:0.999851 1240:-0.015964 1241:0.006577 1242:1.849012 1243:0.579057 1244:1.55359 1245:0.431813 1246:0.243352 1247:-0.28573 1248:0.526123 1249:0.80097 1250:0.245931 1251:0.597831 1252:0.762965 1253:0.999631 1254:-0.023591 1255:0.013473 1256:1.849672 1257:0.580107 1258:1.553346 1259:0.431445 1260:0.243815 1261:-0.286261 1262:0.525182 1263:0.801397 1264:0.24579 1265:0.598079 1266:0.762816 1267:0.999305 1268:-0.031269 1269:0.020276 1270:1.850325 1271:0.581176 1272:1.5531 1273:0.431084 1274:0.244313 1275:-0.286792 1276:0.524229 1277:0.801831 1278:0.245652 1279:0.598322 1280:0.76267 1281:0.998875 1282:-0.038995 1283:0.026981 1284:1.850972 1285:0.582262 1286:1.552852 1287:0.430727 1288:0.244847 1289:-0.287323 1290:0.523264 1291:0.802272 1292:0.245515 1293:0.598562 1294:0.762526 1295:0.998341 1296:-0.046765 1297:0.033589 1298:1.851613 1299:0.583365 1300:1.552602 1301:0.430377 1302:0.245416 1303:-0.287852 1304:0.522287 1305:0.802719 1306:0.24538 1307:0.598798 1308:0.762384 1309:0.997704 1310:-0.054576 1311:0.040097 1312:1.852247 1313:0.584487 1314:1.552351 1315:0.430032 1316:0.24602 1317:-0.288381 1318:0.521297 1319:0.803172 1320:0.245246 1321:0.599029 1322:0.762245 1323:0.996966 1324:-0.062424 1325:0.046502 1326:1.852875 1327:0.585628 1328:1.552099 1329:0.429693 1330:0.246659 1331:-0.288909 1332:0.520295 1333:0.803632 1334:0.245115 1335:0.599257 1336:0.762109 1337:0.996127 1338:-0.070305 1339:0.052802 1340:1.853496 1341:0.586786 1342:1.551844 1343:0.429359 1344:0.247333 1345:-0.289436 1346:0.51928 1347:0.804099 1348:0.244985 1349:0.599481 1350:0.761974 1351:0.995189 1352:-0.078216 1353:0.058997 1354:1.854112 1355:0.587964 1356:1.551588 1357:0.429032 1358:0.248042 1359:-0.289963 1360:0.518252 1361:0.804572 1362:0.244857 1363:0.5997 1364:0.761843 1365:0.994154 1366:-0.086153 1367:0.065083 1368:1.854721 1369:0.58916 1370:1.551331 1371:0.428709 1372:0.248787 1373:-0.290489 1374:0.517212 1375:0.805051 1376:0.244731 1377:0.599916 1378:0.761714 1379:0.993023 1380:-0.094113 1381:0.071058 1382:1.855323 1383:0.590376 1384:1.551072 1385:0.428392 1386:0.249566 1387:-0.291014 1388:0.516159 1389:0.805537 1390:0.244607 1391:0.600128 1392:0.761587 1393:0.991796 1394:-0.102091 1395:0.076924 1396:1.85592 1397:0.59161 1398:1.550811 1399:0.428081 1400:0.250381 1401:-0.291539 1402:0.515093 1403:0.80603 1404:0.244484 1405:0.600335 1406:0.761462 1407:0.990478 1408:-0.110085 1409:0.082677 1410:1.85651 1411:0.592865 1412:1.550548 1413:0.427776 1414:0.25123 1415:-0.292063 1416:0.514014 1417:0.806529 1418:0.244363 1419:0.600539 1420:0.761341 1421:0.989068 1422:-0.118091 1423:0.088314 1424:1.857094 1425:0.594139 1426:1.550284 1427:0.427475 1428:0.252114 1429:-0.292587 1430:0.512922 1431:0.807034 1432:0.244244 1433:0.600739 1434:0.761221 1435:0.987569 1436:-0.126105 1437:0.093837 1438:1.857671 1439:0.595433 1440:1.550019 1441:0.427181 1442:0.253033 1443:-0.293109 1444:0.511816 1445:0.807546 1446:0.244127 1447:0.600934 1448:0.761105 1449:0.985982 1450:-0.134124 1451:0.099244 1452:1.858242 1453:0.596747 1454:1.549751 1455:0.426892 1456:0.253987 1457:-0.293631 1458:0.510697 1459:0.808065 1460:0.244012 1461:0.601126 1462:0.76099 1463:0.98431 1464:-0.142146 1465:0.104535 1466:1.858807 1467:0.598082 1468:1.549482 1469:0.426609 1470:0.254975 1471:-0.294153 1472:0.509565 1473:0.80859 1474:0.243898 1475:0.601313 1476:0.760878 1477:0.982555 1478:-0.150165 1479:0.109706 1480:1.859365 1481:0.599438 1482:1.549212 1483:0.426331 1484:0.255998 1485:-0.294674 1486:0.508419 1487:0.809122 1488:0.243786 1489:0.601497 1490:0.760769 1491:0.980719 1492:-0.158181 1493:0.11476 1494:1.859918 1495:0.600814 1496:1.54894 1497:0.426058 1498:0.257055 1499:-0.295194 1500:0.507259 1501:0.80966 1502:0.243676 1503:0.601677 1504:0.760662 1505:0.978803 1506:-0.166188 1507:0.119694 1508:1.860464 1509:0.602212 1510:1.548667 1511:0.425792 1512:0.258147 1513:-0.295714 1514:0.506086 1515:0.810204 1516:0.243568 1517:0.601852 1518:0.760558 1519:0.97681 1520:-0.174185 1521:0.124509 1522:1.861002 1523:0.603632 1524:1.548392 1525:0.42553 1526:0.259272 1527:-0.296233 1528:0.504899 1529:0.810755 1530:0.243462 1531:0.602024 1532:0.760456 1533:0.974741 1534:-0.182169 1535:0.129204 1536:1.861536 1537:0.605073 1538:1.548115 1539:0.425275 1540:0.260432 1541:-0.296751 1542:0.503697 1543:0.811312 1544:0.243357 1545:0.602192 1546:0.760357 1547:0.972601 1548:-0.190135 1549:0.133778 1550:1.862062 1551:0.606537 1552:1.547837 1553:0.425024 1554:0.261626 1555:-0.297269 1556:0.502482 1557:0.811876 1558:0.243255 1559:0.602355 1560:0.76026 1561:0.970389 1562:-0.198083 1563:0.138234 1564:1.862582 1565:0.608023 1566:1.547557 1567:0.424779 1568:0.262854 1569:-0.297786 1570:0.501252 1571:0.812447 1572:0.243154 1573:0.602515 1574:0.760166 1575:0.968109 1576:-0.206008 1577:0.142568 1578:1.863095 1579:0.609532 1580:1.547276 1581:0.42454 1582:0.264116 1583:-0.298303 1584:0.500008 1585:0.813024 1586:0.243054 1587:0.60267 1588:0.760074 1589:0.965763 1590:-0.213908 1591:0.146783 1592:1.863602 1593:0.611064 1594:1.546993 1595:0.424306 1596:0.265411 1597:-0.298819 1598:0.498749 1599:0.813607 1600:0.242957 1601:0.602822 1602:0.759985 1603:0.963353 1604:-0.221781 1605:0.150876 1606:1.864102 1607:0.612619 1608:1.546708 1609:0.424077 1610:0.26674 1611:-0.299334 1612:0.497476 1613:0.814197 1614:0.242862 1615:0.60297 1616:0.759898 1617:0.960882 1618:-0.229624 1619:0.15485 1620:1.864595 1621:0.614198 1622:1.546422 1623:0.423854 1624:0.268102 1625:-0.299849 1626:0.496188 1627:0.814793 1628:0.242768 1629:0.603113 1630:0.759814 1631:0.958351 1632:-0.237435 1633:0.158706 1634:1.865082 1635:0.615802 1636:1.546135 1637:0.423637 1638:0.269498 1639:-0.300363 1640:0.494885 1641:0.815396 1642:0.242676 1643:0.603253 1644:0.759733 1645:0.955764 1646:-0.245211 1647:0.162442 1648:1.865562 1649:0.61743 1650:1.545846 1651:0.423425 1652:0.270927 1653:-0.300877 1654:0.493567 1655:0.816006 1656:0.242586 1657:0.603388 1658:0.759654 1659:0.953121 1660:-0.25295 1661:0.166059 1662:1.866036 1663:0.619083 1664:1.545556 1665:0.423218 1666:0.272389 1667:-0.30139 1668:0.492233 1669:0.816621 1670:0.242498 1671:0.60352 1672:0.759578 1673:0.950427 1674:-0.260651 1675:0.169559 1676:1.866502 1677:0.620761 1678:1.545264 1679:0.423016 1680:0.273884 1681:-0.301902 1682:0.490885 1683:0.817243 1684:0.242412 1685:0.603648 1686:0.759504 1687:0.947682 1688:-0.268311 1689:0.172942 1690:1.866961 1691:0.622465 1692:1.54497 1693:0.422821 1694:0.275412 
0.03125 1:-0.306908 2:0.523297 3:0.794964 4:0.07013 5:-0.415973 6:0.906669 7:0.380859 8:0.913115 9:0.145488 10:1.795217 11:0.531395 12:0.984228 13:0.677968 14:1.232655 15:-0.26731 16:0.552271 17:0.789647 18:0.08592 19:-0.611869 20:0.786278 21:0.315025 22:0.929225 23:0.193131 24:1.761977 25:0.523184 26:0.928145 27:0.767418 28:1.345992 29:-0.270716 30:0.55156 31:0.788983 32:0.068661 33:-0.619859 34:0.781704 35:0.312898 36:0.934391 37:0.170318 38:1.787975 39:0.540712 40:0.965392 41:0.767329 42:1.372291 43:-0.274331 44:0.550265 45:0.788639 46:0.056756 47:-0.620858 48:0.781866 49:0.312737 50:0.937475 51:0.152764 52:1.806898 53:0.554903 54:0.992484 55:0.764705 56:1.388615 57:-0.278168 58:0.548376 59:0.78861 60:0.048905 61:-0.615944 62:0.786271 63:0.314519 64:0.93892 65:0.139667 66:1.8198 67:0.565232 68:1.010954 69:0.7595 70:1.395527 71:-0.282246 72:0.54588 73:0.788893 74:0.044384 75:-0.605313 76:0.794749 77:0.31832 78:0.938953 79:0.130534 80:1.827483 81:0.571399 82:1.021897 83:0.751718 84:1.393296 85:-0.28658 86:0.542754 87:0.789487 88:0.04285 89:-0.58846 90:0.80739 91:0.324333 92:0.937631 93:0.125127 94:1.830472 95:0.573184 96:1.026094 97:0.741412 98:1.38189 99:-0.291191 100:0.538972 101:0.79039 102:0.044258 103:-0.564135 104:0.824496 105:0.332898 106:0.934847 107:0.123453 108:1.828997 109:0.570372 110:1.024102 111:0.728691 112:1.360973 113:-0.260301 114:0.556236 115:0.789205 116:0.115234 117:-0.610599 118:0.783511 119:0.32046 120:0.915438 121:0.243473 122:1.726823 123:0.506632 124:0.841353 125:0.758648 126:1.32158 127:-0.261955 128:0.554228 129:0.79007 130:0.115156 131:-0.600762 132:0.791091 133:0.319756 134:0.918075 135:0.234297 136:1.72397 137:0.503197 138:0.857944 139:0.762697 140:1.311621 141:-0.2641 142:0.552401 143:0.790635 144:0.1108 145:-0.594406 146:0.796495 147:0.319237 148:0.921209 149:0.222401 150:1.727627 151:0.503301 152:0.878597 153:0.765058 154:1.308843 155:-0.266738 156:0.550753 157:0.7909 158:0.102648 159:-0.591411 160:0.79981 161:0.318879 162:0.9247 163:0.20796 164:1.737667 165:0.507206 166:0.90288 167:0.765773 168:1.313044 169:-0.269869 170:0.54928 171:0.790862 172:0.09129 173:-0.591466 174:0.801146 175:0.318646 176:0.928385 177:0.19122 178:1.753655 179:0.515405 180:0.930186 181:0.764849 182:1.323959 183:-0.256202 184:0.567025 185:0.782843 186:0.094784 187:-0.68024 188:0.726835 189:0.317328 190:0.91272 191:0.257381 192:1.781998 193:0.548625 194:0.817424 195:0.754498 196:1.418947 197:-0.257225 198:0.565252 199:0.78379 200:0.090154 201:-0.669797 202:0.737051 203:0.3211 204:0.911681 205:0.256385 206:1.777044 207:0.54442 208:0.815589 209:0.74261 210:1.408241 211:-0.258285 212:0.56337 213:0.784795 214:0.087867 215:-0.658463 216:0.747467 217:0.323759 218:0.91138 219:0.2541 220:1.77128 221:0.539427 222:0.817392 223:0.735323 224:1.395655 225:-0.259382 226:0.561382 227:0.785857 228:0.087971 229:-0.646396 230:0.757913 231:0.325274 232:0.911837 233:0.250499 234:1.764646 235:0.533652 236:0.822837 237:0.732623 238:1.381288 239:-0.260513 240:0.559289 241:0.786974 242:0.090445 243:-0.633773 244:0.768213 245:0.325613 246:0.913061 247:0.245553 248:1.757067 249:0.527115 250:0.831854 251:0.734422 252:1.365265 253:-0.253438 254:0.572086 255:0.780056 256:0.130003 257:-0.70509 258:0.697099 259:0.298064 260:0.915337 261:0.270768 262:1.797868 263:0.562052 264:0.820488 265:0.815672 266:1.441387 267:-0.253261 268:0.57209 269:0.78011 270:0.12579 271:-0.706251 272:0.696697 273:0.298321 274:0.918228 275:0.260504 276:1.795278 277:0.559377 278:0.834368 279:0.81839 280:1.44131 281:-0.253373 282:0.571682 283:0.780373 284:0.121208 285:-0.704996 286:0.698777 287:0.299645 288:0.919913 289:0.252927 290:1.792277 291:0.556518 292:0.843381 293:0.816426 294:1.439231 295:-0.253775 296:0.570858 297:0.780845 298:0.116148 299:-0.70137 300:0.703271 301:0.302061 302:0.920478 303:0.247951 304:1.788872 305:0.553473 306:0.847611 307:0.809747 308:1.435054 309:-0.254468 310:0.569618 311:0.781525 312:0.110478 313:-0.695267 314:0.71021 315:0.30561 316:0.919953 317:0.24554 318:1.785066 319:0.550241 320:0.847105 321:0.798314 322:1.428693 323:-0.26061 324:0.569387 325:0.779667 326:0.040546 327:-0.840997 328:0.539519 329:0.306644 330:0.907632 331:0.286658 332:1.806267 333:0.559269 334:0.925573 335:1.007466 336:1.647801 337:-0.257855 338:0.569462 339:0.780528 340:0.096058 341:-0.762301 342:0.640055 343:0.305159 344:0.901733 345:0.306195 346:1.804774 347:0.565229 348:0.80605 349:0.860023 350:1.522611 351:-0.255682 352:0.569616 353:0.78113 354:0.141282 355:-0.683793 356:0.715867 357:0.303624 358:0.897698 359:0.319298 360:1.803122 361:0.569023 362:0.748118 363:0.779554 364:1.43077 365:-0.254084 366:0.569854 367:0.781478 368:0.170391 369:-0.624633 370:0.762103 371:0.302247 372:0.896451 373:0.324071 374:1.801333 375:0.570712 376:0.724825 377:0.738349 378:1.371019 379:-0.253053 380:0.570177 381:0.781576 382:0.181658 383:-0.597694 384:0.780873 385:0.301181 386:0.898505 387:0.319341 388:1.799401 389:0.570324 390:0.724181 391:0.723464 392:1.342404 393:-0.274317 394:0.569775 395:0.774666 396:-0.137965 397:-0.951744 398:0.274134 399:0.312688 400:0.923513 401:0.222148 402:1.812242 403:0.525505 404:1.892704 405:2.023279 406:2.191739 407:-0.273776 408:0.569682 409:0.774925 410:-0.125236 411:-0.963359 412:0.237183 413:0.310796 414:0.926274 415:0.213124 416:1.81059 417:0.525237 418:1.953672 419:2.116693 420:2.242792 421:-0.272514 422:0.569618 423:0.775417 424:-0.110154 425:-0.967835 426:0.226189 427:0.309321 428:0.927405 429:0.210334 430:1.809102 431:0.527233 432:1.939138 433:2.119594 434:2.237437 435:-0.270536 436:0.56958 437:0.776138 438:-0.091049 439:-0.96672 440:0.239088 441:0.308157 442:0.927086 443:0.213427 444:1.807772 445:0.531463 446:1.849285 447:2.033329 448:2.177764 449:-0.267849 450:0.569564 451:0.77708 452:-0.064905 453:-0.957963 454:0.279454 455:0.307209 456:0.925153 457:0.222968 458:1.806569 459:0.537863 460:1.657118 461:1.829531 462:2.065572 463:-0.268312 464:0.570485 465:0.776244 466:-0.12253 467:-0.616637 468:0.777654 469:0.334773 470:0.880022 471:0.336879 472:1.817173 473:0.546257 474:0.857551 475:0.767521 476:1.516168 477:-0.270184 478:0.570348 479:0.775696 480:-0.146226 481:-0.668022 482:0.729633 483:0.327939 484:0.886981 485:0.325148 486:1.817846 487:0.542888 488:0.967253 489:0.871262 490:1.592834 491:-0.271628 492:0.570215 493:0.775289 494:-0.158803 495:-0.72732 496:0.667673 497:0.322402 498:0.894387 499:0.310046 500:1.817917 501:0.539737 502:1.088699 503:1.003192 504:1.679881 505:-0.27265 506:0.570086 507:0.775026 508:-0.161965 509:-0.788801 510:0.592925 511:0.318037 512:0.901864 513:0.292395 514:1.817382 515:0.536802 516:1.230041 517:1.171812 518:1.77699 519:-0.27325 520:0.569961 521:0.774906 522:-0.157116 523:-0.847129 524:0.507628 525:0.314696 526:0.909097 527:0.272965 528:1.816237 529:0.534081 530:1.39723 531:1.382385 532:1.883247 533:-0.263066 534:0.571608 535:0.777214 536:0.095538 537:-0.5456 538:0.832582 539:0.359544 540:0.868604 541:0.340961 542:1.808428 543:0.557575 544:0.537283 545:0.558396 546:1.319999 547:-0.261025 548:0.571224 549:0.778183 550:0.082601 551:-0.552281 552:0.829556 553:0.363191 554:0.865938 555:0.343865 556:1.810035 557:0.558176 558:0.531516 559:0.54991 560:1.324856 561:-0.260076 562:0.570901 563:0.778738 564:0.05445 565:-0.573145 566:0.817643 567:0.36338 568:0.865829 569:0.343941 570:1.811562 571:0.557728 572:0.546153 573:0.557847 574:1.345306 575:-0.260221 576:0.570642 577:0.778879 578:0.014639 579:-0.604054 580:0.796809 581:0.36024 582:0.868184 583:0.341298 584:1.813006 585:0.556235 586:0.583527 587:0.584218 588:1.381333 589:-0.261457 590:0.570448 591:0.778607 592:-0.031387 593:-0.639153 594:0.768439 595:0.354086 596:0.872696 597:0.336193 598:1.814362 599:0.553694 600:0.64819 601:0.633364 602:1.432928 603:-0.271203 604:0.573905 605:0.772711 606:0.049009 607:-0.617584 608:0.784977 609:0.326083 610:0.896967 611:0.29853 612:1.801481 613:0.54674 614:0.713955 615:0.723147 616:1.418754 617:-0.274188 618:0.573485 619:0.771969 620:0.048757 621:-0.609634 622:0.791182 623:0.327208 624:0.893308 625:0.308116 626:1.802256 627:0.548046 628:0.700305 629:0.708455 630:1.409319 631:-0.275643 632:0.573064 633:0.771763 634:0.048791 635:-0.602236 636:0.796825 637:0.329661 638:0.889401 639:0.316685 640:1.803244 641:0.549443 642:0.683069 643:0.690596 644:1.399585 645:-0.275582 646:0.572646 647:0.772096 648:0.049134 649:-0.595373 650:0.801946 651:0.333482 652:0.885247 653:0.324234 654:1.804445 655:0.550929 656:0.662308 657:0.66965 658:1.389519 659:-0.274006 660:0.572229 661:0.772965 662:0.049819 663:-0.589032 664:0.806573 665:0.338715 666:0.880837 667:0.330754 668:1.805866 669:0.552503 670:0.638105 671:0.64573 672:1.379089 673:-0.249717 674:0.574856 675:0.779219 676:0.051039 677:-0.649745 678:0.758437 679:0.328768 680:0.906397 681:0.265246 682:1.800225 683:0.543971 684:0.744031 685:0.758153 686:1.453017 687:-0.250797 688:0.57503 689:0.778744 690:0.051276 691:-0.648145 692:0.759788 693:0.329656 694:0.906776 695:0.262838 696:1.800259 697:0.543467 698:0.739217 699:0.75392 700:1.45012 701:-0.252776 702:0.575066 703:0.778077 704:0.051343 705:-0.64501 706:0.762447 707:0.33032 708:0.906312 709:0.263602 710:1.800431 711:0.543388 712:0.73304 713:0.74783 714:1.445544 715:-0.255646 716:0.574963 717:0.777215 718:0.051235 719:-0.640253 720:0.766454 721:0.330756 722:0.904983 723:0.267593 724:1.800739 725:0.543737 726:0.725521 727:0.739893 728:1.439293 729:-0.259393 730:0.574715 731:0.776156 732:0.05094 733:-0.633757 734:0.771853 735:0.330945 736:0.902734 737:0.274858 738:1.801183 739:0.544517 740:0.7167 741:0.730144 742:1.431428 743:-0.250958 744:0.573093 745:0.780118 746:0.048617 747:-0.583736 748:0.810487 749:0.340378 750:0.886262 751:0.314137 752:1.797587 753:0.549219 754:0.787535 755:0.777263 756:1.448083 757:-0.251444 758:0.573305 759:0.779806 760:0.04903 761:-0.619927 762:0.783126 763:0.331166 764:0.894102 765:0.301515 766:1.799505 767:0.548652 768:0.766489 769:0.767416 770:1.450786 771:-0.251853 772:0.573539 773:0.779502 774:0.049364 775:-0.645887 776:0.761835 777:0.324668 778:0.899972 779:0.29093 780:1.800915 781:0.548006 782:0.750311 783:0.759805 784:1.452347 785:-0.252188 786:0.573796 787:0.779204 788:0.049681 789:-0.662686 790:0.747248 791:0.320741 792:0.904151 793:0.282197 794:1.801822 795:0.547273 796:0.738587 797:0.754095 798:1.452918 799:-0.252448 800:0.574077 801:0.778913 802:0.050022 803:-0.671006 804:0.739763 805:0.319314 806:0.906817 807:0.275174 808:1.802229 809:0.546448 810:0.731053 811:0.750074 812:1.452561 813:-0.244277 814:0.572695 815:0.782527 816:0.061964 817:-0.464649 818:0.883324 819:0.378166 820:0.843183 821:0.382141 822:1.787839 823:0.550202 824:0.856058 825:0.826019 826:1.449264 827:-0.246922 828:0.572609 829:0.78176 830:0.052716 831:-0.420608 832:0.90571 833:0.384883 834:0.842963 835:0.375871 836:1.787987 837:0.550469 838:0.877344 839:0.827693 840:1.437166 841:-0.249039 842:0.57259 843:0.781102 844:0.045973 845:-0.400368 846:0.915201 847:0.386761 848:0.846072 849:0.366849 850:1.788715 851:0.550533 852:0.886698 853:0.825171 854:1.429256 855:-0.250634 856:0.572639 857:0.780556 858:0.041829 859:-0.404722 860:0.913483 861:0.383547 862:0.852459 863:0.355253 864:1.790022 865:0.550397 866:0.882884 867:0.818507 868:1.426085 869:-0.251711 870:0.572757 871:0.780123 872:0.040263 873:-0.433599 874:0.900206 875:0.375273 876:0.861754 877:0.341394 878:1.791903 879:0.550068 880:0.865794 881:0.807976 882:1.427583 883:-0.232879 884:0.572367 885:0.786233 886:0.110691 887:-0.729823 888:0.674616 889:0.327589 890:0.861729 891:0.387439 892:1.789149 893:0.54805 894:0.726677 895:0.785513 896:1.497033 897:-0.232542 898:0.572937 899:0.785918 900:0.105536 901:-0.721014 902:0.684837 903:0.330366 904:0.86118 905:0.386301 906:1.790205 907:0.548041 908:0.733056 909:0.792257 910:1.499805 911:-0.233097 912:0.573332 913:0.785466 914:0.099451 915:-0.702451 916:0.70475 917:0.334704 918:0.860218 919:0.384705 920:1.790887 921:0.548155 922:0.743465 923:0.798557 924:1.499103 925:-0.234543 926:0.573549 927:0.784876 928:0.09221 929:-0.672789 930:0.734065 931:0.340726 932:0.858792 933:0.382598 934:1.791195 935:0.548391 936:0.758358 937:0.80446 938:1.494719 939:-0.236874 940:0.573587 941:0.784148 942:0.083527 943:-0.630052 944:0.772048 945:0.34862 946:0.85682 947:0.3799 948:1.791129 949:0.548747 950:0.778524 951:0.810019 952:1.486283 953:-0.24145 954:0.569921 955:0.785424 956:0.100219 957:-0.690197 958:0.716648 959:0.325638 960:0.873419 961:0.362077 962:1.781904 963:0.547204 964:0.769255 965:0.792289 966:1.463919 967:-0.240318 968:0.569644 969:0.785972 970:0.112873 971:-0.696222 972:0.708897 973:0.32696 974:0.866488 975:0.37722 976:1.782748 977:0.548151 978:0.747171 979:0.774156 980:1.465207 981:-0.23917 982:0.569621 983:0.78634 984:0.121678 985:-0.700916 986:0.702789 987:0.328219 988:0.861085 989:0.388337 990:1.78374 991:0.548825 992:0.73109 993:0.762125 994:1.46797 995:-0.238003 996:0.56985 997:0.786527 998:0.126228 999:-0.704215 1000:0.698676 1001:0.329465 1002:0.857354 1003:0.395469 1004:1.784881 1005:0.549227 1006:0.72113 1007:0.756408 1008:1.471988 1009:-0.236815 1010:0.570334 1011:0.786536 1012:0.126269 1013:-0.706067 1014:0.696797 1015:0.330732 1016:0.855389 1017:0.398655 1018:1.786169 1019:0.549358 1020:0.717362 1021:0.757153 1022:1.477124 1023:-0.259182 1024:0.558736 1025:0.787807 1026:0.015812 1027:-0.621811 1028:0.783008 1029:0.338108 1030:0.8936 1031:0.295232 1032:1.801986 1033:0.547824 1034:0.836372 1035:0.826078 1036:1.437468 1037:-0.251133 1038:0.566568 1039:0.784814 1040:0.031079 1041:-0.646789 1042:0.762035 1043:0.327616 1044:0.89899 1045:0.290663 1046:1.789333 1047:0.544599 1048:0.858958 1049:0.860259 1050:1.457878 1051:-0.244769 1052:0.572282 1053:0.782676 1054:0.044802 1055:-0.665109 1056:0.745401 1057:0.320555 1058:0.90103 1059:0.292214 1060:1.780212 1061:0.54274 1062:0.869233 1063:0.879949 1064:1.472259 1065:-0.240132 1066:0.575896 1067:0.781461 1068:0.057908 1069:-0.678687 1070:0.732141 1071:0.316593 1072:0.900011 1073:0.29958 1074:1.774461 1075:0.542026 1076:0.867483 1077:0.885692 1078:1.480915 1079:-0.237249 1080:0.577425 1081:0.781213 1082:0.071197 1083:-0.688645 1084:0.721595 1085:0.315499 1086:0.895929 1087:0.312684 1088:1.771969 1089:0.542314 1090:0.853593 1091:0.877546 1092:1.484244 1093:-0.294693 1094:0.521031 1095:0.801051 1096:-2.6e-005 1097:-0.46264 1098:0.886546 1099:0.381017 1100:0.871409 1101:0.308988 1102:1.862131 1103:0.569065 1104:0.746514 1105:0.65014 1106:1.286354 1107:-0.294882 1108:0.520384 1109:0.801402 1110:-0.032796 1111:-0.451575 1112:0.89163 1113:0.391794 1114:0.856551 1115:0.335884 1116:1.865523 1117:0.570191 1118:0.710886 1119:0.630615 1120:1.31131 1121:-0.292709 1122:0.522413 1123:0.800878 1124:-0.055876 1125:-0.457746 1126:0.887326 1127:0.395446 1128:0.848 1129:0.352871 1130:1.863602 1131:0.569274 1132:0.69008 1133:0.628015 1134:1.339169 1135:-0.288152 1136:0.527117 1137:0.799447 1138:-0.062933 1139:-0.484576 1140:0.872482 1141:0.392061 1142:0.846824 1143:0.359412 1144:1.856422 1145:0.566413 1146:0.687371 1147:0.643942 1148:1.367815 1149:-0.281162 1150:0.534486 1151:0.79704 1152:-0.051538 1153:-0.528333 1154:0.847472 1155:0.382066 1156:0.852962 1157:0.355641 1158:1.844153 1159:0.561863 1160:0.704977 1161:0.67901 1162:1.395736 1163:-0.269205 1164:0.541924 1165:0.796145 1166:0.101514 1167:-0.494243 1168:0.863376 1169:0.321543 1170:0.9309 1171:0.173306 1172:1.800401 1173:0.549572 1174:0.959019 1175:0.785873 1176:1.236836 1177:-0.274926 1178:0.540715 1179:0.795011 1180:0.102263 1181:-0.518333 1182:0.849043 1183:0.313893 1184:0.933023 1185:0.175896 1186:1.811177 1187:0.552156 1188:0.930613 1189:0.785156 1190:1.24255 1191:-0.279811 1192:0.538982 1193:0.794484 1194:0.098992 1195:-0.534342 1196:0.839452 1197:0.312173 1198:0.931834 1199:0.185021 1200:1.821283 1201:0.554856 1202:0.902999 1203:0.779108 1204:1.248729 1205:-0.283897 1206:0.536729 1207:0.794559 1208:0.091205 1209:-0.543278 1210:0.834584 1211:0.316108 1212:0.927216 1213:0.200864 1214:1.830781 1215:0.55764 1216:0.874129 1217:0.767339 1218:1.256213 1219:-0.287214 1220:0.533957 1221:0.795235 1222:0.077486 1223:-0.544874 1224:0.83493 1225:0.325805 1226:0.918495 1227:0.224094 1228:1.839723 1229:0.560486 1230:0.841839 1231:0.748808 1232:1.26621 1233:-0.241023 1234:0.539402 1235:0.806817 1236:0.08699 1237:-0.264201 1238:0.960537 1239:0.403214 1240:0.893174 1241:0.199145 1242:1.753745 1243:0.543756 1244:1.136359 1245:0.730151 1246:1.149871 1247:-0.243171 1248:0.541107 1249:0.805029 1250:0.07598 1251:-0.299739 1252:0.950991 1253:0.39849 1254:0.893461 1255:0.207202 1256:1.757511 1257:0.543039 1258:1.110072 1259:0.741383 1260:1.185403 1261:-0.246524 1262:0.542229 1263:0.803252 1264:0.069303 1265:-0.338517 1266:0.938405 1267:0.39042 1268:0.896053 1269:0.211332 1270:1.763305 1271:0.542963 1272:1.078893 1273:0.751224 1274:1.214202 1275:-0.251052 1276:0.54276 1277:0.801489 1278:0.067167 1279:-0.379254 1280:0.922852 1281:0.37938 1282:0.900653 1283:0.211884 1284:1.771105 1285:0.543584 1286:1.044245 1287:0.759558 1288:1.235474 1289:-0.25671 1290:0.542698 1291:0.799737 1292:0.069507 1293:-0.42052 1294:0.904617 1295:0.365717 1296:0.90691 1297:0.209199 1298:1.780871 1299:0.544979 1300:1.007803 1301:0.76639 1302:1.249001 1303:-0.237313 1304:0.528534 1305:0.815067 1306:0.149138 1307:-0.139877 1308:0.978873 1309:0.402741 1310:0.905237 1311:0.135442 1312:1.75395 1313:0.549263 1314:1.231541 1315:0.704949 1316:0.975195 1317:-0.2398 1318:0.529579 1319:0.81366 1320:0.146137 1321:-0.161687 1322:0.975962 1323:0.39715 1324:0.906931 1325:0.140529 1326:1.754061 1327:0.549632 1328:1.204295 1329:0.695607 1330:0.993547 1331:-0.241896 1332:0.530924 1333:0.812162 1334:0.14069 1335:-0.185329 1336:0.972553 1337:0.393009 1338:0.907555 1339:0.147944 1340:1.75457 1341:0.549583 1342:1.17914 1343:0.69148 1344:1.017026 1345:-0.243602 1346:0.532571 1347:0.810571 1348:0.132629 1349:-0.211012 1350:0.968444 1351:0.390231 1352:0.907155 1353:0.15745 1354:1.755484 1355:0.549113 1356:1.155924 1357:0.692599 1358:1.045677 1359:-0.244919 1360:0.534524 1361:0.808888 1362:0.121741 1363:-0.238953 1364:0.963369 1365:0.388706 1366:0.905767 1367:0.168798 1368:1.756808 1369:0.548221 1370:1.134478 1371:0.699028 1372:1.079597 1373:-0.223714 1374:0.528653 1375:0.818827 1376:0.1547 1377:-0.02514 1378:0.987642 1379:0.453991 1380:0.881587 1381:0.129216 1382:1.750284 1383:0.546435 1384:1.372073 1385:0.763351 1386:0.8957 1387:-0.225462 1388:0.527702 1389:0.818961 1390:0.149041 1391:-0.055681 1392:0.987262 1393:0.440301 1394:0.887955 1395:0.13293 1396:1.753564 1397:0.545869 1398:1.350391 1399:0.765946 1400:0.925909 1401:-0.227487 1402:0.527182 1403:0.818736 1404:0.144517 1405:-0.083621 1406:0.985963 1407:0.428676 1408:0.893137 1409:0.136176 1410:1.755956 1411:0.545654 1412:1.3269 1413:0.764297 1414:0.951606 1415:-0.229791 1416:0.527088 1417:0.818153 1418:0.141177 1419:-0.108983 1420:0.983967 1421:0.418816 1422:0.897363 1423:0.139045 1424:1.757465 1425:0.545781 1426:1.301532 1427:0.758388 1428:0.972907 1429:-0.23238 1430:0.527417 1431:0.817209 1432:0.139069 1433:-0.131801 1434:0.981472 1435:0.410484 1436:0.900805 1437:0.141606 1438:1.758091 1439:0.546239 1440:1.274193 1441:0.748189 1442:0.989952 1443:-0.222623 1444:0.538453 1445:0.812716 1446:0.185677 1447:0.157157 1448:0.969962 1449:0.540046 1450:0.835152 1451:0.104269 1452:1.73951 1453:0.536932 1454:1.422783 1455:0.680209 1456:0.703003 1457:-0.220972 1458:0.536192 1459:0.814659 1460:0.182172 1461:0.118641 1462:0.976083 1463:0.52639 1464:0.84321 1465:0.109131 1466:1.736395 1467:0.544733 1468:1.428481 1469:0.707532 1470:0.740812 1471:-0.220123 1472:0.534159 1473:0.816223 1474:0.1779 1475:0.08196 1476:0.98063 1477:0.511885 1478:0.851473 1479:0.113872 1480:1.734963 1481:0.550433 1482:1.426407 1483:0.730156 1484:0.777572 1485:-0.220062 1486:0.532347 1487:0.817423 1488:0.172867 1489:0.046839 1490:0.983831 1491:0.496599 1492:0.859851 1493:0.118511 1494:1.735359 1495:0.553912 1496:1.417502 1497:0.747668 1498:0.813432 1499:-0.220775 1500:0.53075 1501:0.818268 1502:0.16706 1503:0.012999 1504:0.985861 1505:0.480588 1506:0.86827 1507:0.123055 1508:1.737662 1509:0.55512 1510:1.402581 1511:0.759895 1512:0.848565 1513:-0.239506 1514:0.533339 1515:0.811287 1516:0.200243 1517:0.355153 1518:0.91311 1519:0.610313 1520:0.779776 1521:0.139527 1522:1.788071 1523:0.520944 1524:1.344507 1525:0.558849 1526:0.505482 1527:-0.235956 1528:0.541296 1529:0.807046 1530:0.195428 1531:0.32192 1532:0.926377 1533:0.591915 1534:0.79874 1535:0.107943 1536:1.770553 1537:0.509453 1538:1.344712 1539:0.569194 1540:0.543346 1541:-0.232599 1542:0.546657 1543:0.804403 1544:0.191177 1545:0.286371 1546:0.938852 1547:0.574943 1548:0.813369 1549:0.088723 1550:1.756403 1551:0.503391 1552:1.350053 1553:0.582988 1554:0.582287 1555:-0.22949 1556:0.549369 1557:0.803448 1558:0.187478 1559:0.248681 1560:0.950268 1561:0.559603 1562:0.824921 1563:0.079688 1564:1.745624 1565:0.502679 1566:1.360025 1567:0.601154 1568:0.62174 1569:-0.226667 1570:0.549423 1571:0.804212 1572:0.18432 1573:0.209082 1574:0.96037 1575:0.545831 1576:0.83416 1577:0.079025 1578:1.738179 1579:0.507183 1580:1.373871 1581:0.624551 1582:0.661297 1583:-0.25128 1584:0.496546 1585:0.830843 1586:0.218882 1587:0.477246 1588:0.851074 1589:0.729765 1590:0.589108 1591:0.34698 1592:1.861775 1593:0.590257 1594:1.43422 1595:0.542526 1596:0.358659 1597:-0.251397 1598:0.494285 1599:0.832155 1600:0.219123 1601:0.460399 1602:0.860243 1603:0.692191 1604:0.632022 1605:0.348453 1606:1.863465 1607:0.591228 1608:1.402631 1609:0.540711 1610:0.382253 1611:-0.250653 1612:0.495079 1613:0.831907 1614:0.2181 1615:0.440012 1616:0.871104 1617:0.661616 1618:0.672254 1619:0.332172 1620:1.859858 1621:0.587494 1622:1.377252 1623:0.541143 1624:0.408116 1625:-0.249034 1626:0.498941 1627:0.830084 1628:0.215704 1629:0.416024 1630:0.8834 1631:0.637073 1632:0.709411 1633:0.301454 1634:1.850893 1635:0.579071 1636:1.358274 1637:0.543806 1638:0.436359 1639:-0.246502 1640:0.505924 1641:0.826606 1642:0.211847 1643:0.388462 1644:0.896782 1645:0.617303 1646:0.742809 1647:0.259176 1648:1.836391 1649:0.56606 1650:1.345896 1651:0.548882 1652:0.467353 1653:-0.24299 1654:0.516117 1655:0.821328 1656:0.206474 1657:0.357462 1658:0.910818 1659:0.601051 1660:0.771676 1661:0.207975 1662:1.816063 1663:0.548703 1664:1.340311 1665:0.55674 1666:0.501619 1667:-0.238399 1668:0.529643 1669:0.814029 1670:0.199571 1671:0.323297 1672:0.925014 1673:0.587221 1674:0.795338 1675:0.15036 1676:1.789537 1677:0.527499 1678:1.341671 1679:0.567904 1680:0.53974 1681:-0.245493 1682:0.522094 1683:0.816793 1684:0.211755 1685:0.508041 1686:0.834897 1687:0.875931 1688:0.441023 1689:0.195559 1690:1.823699 1691:0.560096 1692:1.564416 1693:0.564308 1694:0.306724 
0.03125 1:-0.248345 2:0.608947 3:0.753332 4:0.112962 5:-0.599706 6:0.792207 7:0.33938 8:0.919043 9:0.200455 10:1.755551 11:0.481467 12:0.943491 13:0.907098 14:1.444699 15:-0.244811 16:0.612753 17:0.7514 18:0.046995 19:-0.431454 20:0.90091 21:0.406743 22:0.875738 23:0.260082 24:1.777462 25:0.481073 26:2.878429 27:1.97453 28:2.29438 29:-0.243675 30:0.61287 31:0.751673 32:-0.00858 33:-0.164534 34:0.986334 35:0.484831 36:0.829153 37:0.278287 38:1.772669 39:0.479908 40:1.295595 41:2.306637 42:1.695789 43:-0.242899 44:0.612864 45:0.751929 46:-0.050058 47:0.050792 48:0.997454 49:0.551502 50:0.781703 51:0.29118 52:1.768442 53:0.47908 54:0.985233 55:2.477268 56:1.303988 57:-0.242479 58:0.612736 59:0.752169 60:-0.072635 61:0.179449 62:0.981082 63:0.59852 64:0.743858 65:0.297406 66:1.764793 67:0.47856 68:0.876836 69:2.550427 70:1.126084 71:-0.242415 72:0.612487 73:0.752393 74:-0.079084 75:0.228418 76:0.970346 77:0.620642 78:0.725753 79:0.296793 80:1.76173 81:0.478322 82:0.869703 83:2.558645 84:1.071769 85:-0.242707 86:0.612115 87:0.752601 88:-0.071647 89:0.207509 90:0.975606 91:0.615685 92:0.732786 93:0.289753 94:1.759261 95:0.478347 96:0.957288 97:2.50446 98:1.117881 99:-0.243355 100:0.61162 101:0.752794 102:-0.049959 103:0.116515 104:0.991932 105:0.583872 106:0.763236 107:0.276702 108:1.75739 109:0.478625 110:1.19455 111:2.35996 112:1.286015 113:-0.247647 114:0.612107 115:0.750996 116:0.117137 117:-0.71903 118:0.685036 119:0.301985 120:0.92382 121:0.235289 122:1.788498 123:0.48292 124:1.257066 125:1.294651 126:1.776518 127:-0.247133 128:0.612308 129:0.751002 130:0.112669 131:-0.710007 132:0.695123 133:0.306517 134:0.922305 135:0.235373 136:1.786489 137:0.482945 138:1.31931 139:1.34536 140:1.809318 141:-0.246569 142:0.61246 143:0.751063 144:0.104657 145:-0.682973 146:0.722907 147:0.318563 148:0.917694 149:0.237392 150:1.784023 151:0.482758 152:1.432623 153:1.431472 154:1.86797 155:-0.245955 156:0.612565 157:0.75118 158:0.091953 159:-0.632438 160:0.769134 161:0.339029 162:0.909258 163:0.241474 164:1.781094 165:0.482368 166:1.619683 167:1.560107 168:1.961798 169:-0.245291 170:0.612621 171:0.751351 172:0.072555 173:-0.547857 174:0.83342 175:0.369575 176:0.89553 177:0.247871 178:1.777696 179:0.481789 180:1.950932 181:1.737221 182:2.105842 183:-0.244578 184:0.612629 185:0.751577 186:0.043681 187:-0.413042 188:0.909664 189:0.412844 190:0.873807 191:0.256947 192:1.773819 193:0.481034 194:2.904505 195:1.95876 196:2.257174 197:-0.250363 198:0.611167 199:0.750861 200:0.111844 201:-0.654327 202:0.747895 203:0.325045 204:0.913643 205:0.244137 206:1.79145 207:0.481549 208:1.266161 209:1.278238 210:1.775579 211:-0.24938 212:0.61123 213:0.751137 214:0.112475 215:-0.650735 216:0.750928 217:0.327521 218:0.912459 219:0.245252 220:1.791782 221:0.481613 222:1.288988 223:1.298623 224:1.789168 225:-0.248531 226:0.611338 227:0.751331 228:0.112263 229:-0.648898 230:0.752548 231:0.32922 232:0.911722 233:0.24572 234:1.791571 235:0.481703 236:1.315669 237:1.322113 238:1.804507 239:-0.247816 240:0.611491 241:0.751443 242:0.111214 243:-0.648838 244:0.752755 245:0.330132 246:0.91144 247:0.245541 248:1.790818 249:0.481821 250:1.346293 251:1.348757 252:1.821586 253:-0.247234 254:0.61169 255:0.751473 256:0.109348 257:-0.650531 258:0.751566 259:0.33026 260:0.911614 261:0.244719 262:1.789524 263:0.481971 264:1.380926 265:1.378586 266:1.840391 267:-0.253973 268:0.611544 269:0.749341 270:0.101462 271:-0.679777 272:0.726367 273:0.310386 274:0.922654 275:0.228845 276:1.781374 277:0.482614 278:1.190047 279:1.201653 280:1.721489 281:-0.25471 282:0.611401 283:0.749207 284:0.102148 285:-0.680621 286:0.72548 287:0.309811 288:0.921976 289:0.232331 290:1.783936 291:0.481949 292:1.20267 293:1.216623 294:1.732098 295:-0.254964 296:0.611294 297:0.749208 298:0.103111 299:-0.679856 300:0.72606 301:0.310257 302:0.921037 303:0.23544 304:1.786135 305:0.481461 306:1.216479 307:1.231902 308:1.742744 309:-0.254736 310:0.611224 311:0.749343 312:0.104355 313:-0.67745 314:0.728129 315:0.311729 316:0.919834 317:0.238181 318:1.787969 319:0.481147 320:1.231488 321:1.247469 322:1.75346 323:-0.254029 324:0.611189 325:0.749612 326:0.105885 327:-0.673357 328:0.731696 329:0.314238 330:0.91836 331:0.24056 332:1.78944 333:0.481007 334:1.247717 335:1.263302 336:1.764288 337:-0.249399 338:0.611889 339:0.750594 340:0.100453 341:-0.662039 342:0.742707 343:0.318113 344:0.92358 345:0.214017 346:1.768432 347:0.487362 348:1.124323 349:1.125901 350:1.662601 351:-0.248387 352:0.612131 353:0.750732 354:0.10076 355:-0.663464 356:0.741393 357:0.319314 358:0.923277 359:0.213537 360:1.76893 361:0.486841 362:1.140265 363:1.139224 364:1.673861 365:-0.247941 366:0.612272 367:0.750765 368:0.101076 369:-0.665204 370:0.739788 371:0.319786 372:0.922975 373:0.214134 374:1.770027 375:0.486229 376:1.155133 377:1.152815 378:1.684968 379:-0.248061 380:0.61231 381:0.750695 382:0.101403 383:-0.667265 384:0.737886 385:0.319531 386:0.922675 387:0.215802 388:1.771724 389:0.485526 390:1.168904 391:1.166684 392:1.695918 393:-0.248746 394:0.612246 395:0.75052 396:0.101743 397:-0.669654 398:0.735671 399:0.318551 400:0.92237 401:0.218537 402:1.774021 403:0.484734 404:1.181541 405:1.180845 406:1.706712 407:-0.257268 408:0.61092 409:0.748725 410:0.101226 411:-0.657045 412:0.747025 413:0.307925 414:0.925218 415:0.221708 416:1.767078 417:0.488649 418:1.032242 419:1.058462 420:1.599138 421:-0.256978 422:0.610627 423:0.749064 424:0.100318 425:-0.658142 426:0.74618 427:0.308426 428:0.924886 429:0.222395 430:1.768951 431:0.488591 432:1.047242 433:1.070084 434:1.611058 435:-0.256399 436:0.61048 437:0.749382 438:0.099683 439:-0.659251 440:0.745286 441:0.309261 442:0.924567 443:0.222563 444:1.770376 445:0.488454 446:1.062795 447:1.082105 448:1.622884 449:-0.255531 450:0.610478 451:0.74968 452:0.099324 453:-0.660366 454:0.744346 455:0.310429 456:0.924259 457:0.222216 458:1.771352 459:0.488234 460:1.078859 461:1.094491 462:1.634602 463:-0.254371 464:0.610621 465:0.749958 466:0.09924 467:-0.661484 468:0.743365 469:0.311928 470:0.923961 471:0.221353 472:1.77188 473:0.487929 474:1.095384 475:1.107209 476:1.646198 477:-0.260876 478:0.613304 479:0.745521 480:0.104473 481:-0.649813 482:0.75288 483:0.305292 484:0.928434 485:0.211678 486:1.75947 487:0.491666 488:0.968946 489:1.005498 490:1.543587 491:-0.258797 492:0.613056 493:0.746449 494:0.105113 495:-0.651562 496:0.751278 497:0.306713 498:0.927462 499:0.213875 500:1.758864 501:0.490119 502:0.977181 503:1.013634 504:1.550999 505:-0.257152 506:0.612771 507:0.747252 508:0.105379 509:-0.653164 510:0.749848 511:0.307873 512:0.926624 513:0.215831 514:1.758847 515:0.488906 516:0.986589 517:1.022327 518:1.559319 519:-0.255943 520:0.612449 521:0.74793 522:0.105269 523:-0.654623 524:0.74859 525:0.308775 526:0.925921 527:0.217549 528:1.75944 529:0.488021 530:0.997242 531:1.031625 532:1.568581 533:-0.255172 534:0.612093 535:0.748485 536:0.104781 537:-0.655938 538:0.747506 539:0.30942 540:0.925356 541:0.219032 542:1.760655 543:0.487462 544:1.009222 545:1.041582 546:1.57882 547:-0.254839 548:0.611703 549:0.748917 550:0.103911 551:-0.657111 552:0.746597 553:0.309811 554:0.924929 555:0.22028 556:1.762496 557:0.487234 558:1.022629 559:1.052262 560:1.590075 561:-0.270933 562:0.613552 563:0.741721 564:0.103979 565:-0.642259 566:0.759402 567:0.296223 568:0.934561 569:0.197098 570:1.766369 571:0.499713 572:0.962818 573:0.990248 574:1.530327 575:-0.269712 576:0.613712 577:0.742033 578:0.101927 579:-0.643396 580:0.758718 581:0.298548 582:0.932864 583:0.20158 584:1.764843 585:0.498563 586:0.955238 587:0.986755 588:1.528043 589:-0.268206 590:0.613775 591:0.742527 592:0.100616 593:-0.64472 594:0.757768 595:0.300677 596:0.931322 597:0.205506 598:1.76349 599:0.497258 600:0.951546 601:0.986136 602:1.528146 603:-0.266413 604:0.613739 605:0.743201 606:0.10006 607:-0.64623 608:0.756554 609:0.30261 610:0.929945 611:0.208874 612:1.762303 613:0.495793 614:0.951715 615:0.988386 616:1.530622 617:-0.264332 618:0.613604 619:0.744055 620:0.100269 621:-0.647924 622:0.755076 623:0.304351 624:0.928741 625:0.211686 626:1.761274 627:0.494169 628:0.955783 629:0.993552 630:1.535478 631:-0.270842 632:0.613305 633:0.741959 634:0.102411 635:-0.654514 636:0.749082 637:0.283886 638:0.94351 639:0.170872 640:1.769163 641:0.501031 642:1.070316 643:1.067023 644:1.589067 645:-0.272181 646:0.612649 647:0.74201 648:0.110908 649:-0.645998 650:0.755239 651:0.285095 652:0.942609 653:0.173808 654:1.771676 655:0.502022 656:1.043641 657:1.044209 658:1.571515 659:-0.272982 660:0.612228 661:0.742063 662:0.116814 663:-0.639481 664:0.759881 665:0.286667 666:0.941471 667:0.177356 668:1.773144 669:0.502532 670:1.02045 671:1.025319 672:1.556855 673:-0.273248 674:0.612041 675:0.742119 676:0.119944 677:-0.635211 678:0.762968 679:0.288597 680:0.94009 681:0.181501 682:1.773566 683:0.502553 684:1.000603 685:1.010232 686:1.54512 687:-0.272984 688:0.612088 689:0.742178 690:0.120162 691:-0.633374 692:0.76446 693:0.290873 694:0.938465 695:0.186218 696:1.772936 697:0.502089 698:0.983991 699:0.998834 700:1.53633 701:-0.260934 702:0.61769 703:0.741871 704:0.030696 705:-0.718898 706:0.694437 707:0.285387 708:0.948995 709:0.134022 710:1.753929 711:0.494062 712:1.207765 713:1.15907 714:1.677715 715:-0.261527 716:0.617515 717:0.741808 718:0.044075 719:-0.706721 720:0.706118 721:0.283763 722:0.947064 723:0.150164 724:1.753164 725:0.494165 726:1.200657 727:1.16939 728:1.674684 729:-0.262449 730:0.617164 731:0.741774 732:0.057362 733:-0.694461 734:0.71724 735:0.282584 736:0.945202 737:0.163521 738:1.753448 739:0.494584 740:1.186538 741:1.170661 742:1.667387 743:-0.263699 744:0.616635 745:0.741771 746:0.070315 747:-0.682388 748:0.727601 749:0.281929 750:0.94356 751:0.17381 752:1.754787 753:0.495315 754:1.166208 755:1.162811 756:1.655733 757:-0.265272 758:0.615931 759:0.741795 760:0.082672 761:-0.67081 762:0.737007 763:0.281866 764:0.942269 765:0.18078 766:1.757182 767:0.496361 768:1.140466 769:1.145913 770:1.639788 771:-0.264027 772:0.618259 773:0.7403 774:-0.002854 775:-0.705103 776:0.7091 777:0.307782 778:0.949664 779:0.058389 780:1.754522 781:0.488862 782:1.158942 783:1.030597 784:1.614711 785:-0.262569 786:0.617699 787:0.741287 788:-0.007659 789:-0.731681 790:0.681604 791:0.300126 792:0.95189 793:0.061888 794:1.758826 795:0.492376 796:1.16816 797:1.049006 798:1.639342 799:-0.261497 800:0.61726 801:0.74203 802:-0.008974 803:-0.748879 804:0.662646 805:0.294137 806:0.953343 807:0.067979 808:1.761796 809:0.495059 810:1.177162 811:1.067724 812:1.658151 813:-0.260814 814:0.616945 815:0.742533 816:-0.006954 817:-0.758332 818:0.651831 819:0.289529 820:0.954087 821:0.076753 822:1.763438 823:0.496898 824:1.18527 825:1.086574 826:1.671656 827:-0.260518 828:0.616753 829:0.742796 830:-0.001462 831:-0.760689 832:0.649114 833:0.286117 834:0.954101 835:0.088477 836:1.76375 837:0.497892 838:1.191737 839:1.105371 840:1.680119 841:-0.270587 842:0.616719 843:0.739216 844:0.040029 845:-0.456143 846:0.889006 847:0.363223 848:0.930099 849:0.054638 850:1.726425 851:0.47366 852:1.139215 853:0.904125 854:1.426402 855:-0.270781 856:0.61859 857:0.73758 858:0.039516 859:-0.488159 860:0.87186 861:0.356136 862:0.932579 863:0.058848 864:1.729298 865:0.473318 866:1.137889 867:0.937144 868:1.456366 869:-0.270565 870:0.61993 871:0.736534 872:0.037057 873:-0.523832 874:0.851015 875:0.34818 876:0.935349 877:0.062389 878:1.732698 879:0.473893 880:1.137504 881:0.965918 882:1.486481 883:-0.26994 884:0.620738 885:0.736083 886:0.032737 887:-0.562272 888:0.826304 889:0.339508 890:0.938336 891:0.065276 892:1.736615 893:0.475392 894:1.138978 895:0.991063 896:1.51678 897:-0.268905 898:0.621013 899:0.736229 900:0.026688 901:-0.602465 902:0.797699 903:0.33027 904:0.941467 905:0.067533 906:1.741043 907:0.477823 908:1.142841 909:1.013085 910:1.547262 911:-0.267462 912:0.620754 913:0.736973 914:0.019095 915:-0.64333 916:0.765351 917:0.320612 918:0.94468 919:0.069198 920:1.745974 921:0.481195 922:1.149299 923:1.032397 924:1.577876 925:-0.261258 926:0.608245 927:0.749521 928:0.040882 929:-0.365329 930:0.92998 931:0.382984 932:0.922945 933:0.03868 934:1.714976 935:0.481028 936:1.147771 937:0.766977 938:1.315578 939:-0.265434 940:0.608663 941:0.747712 942:0.035365 943:-0.379539 944:0.9245 945:0.379893 946:0.924198 947:0.039238 948:1.718649 949:0.479761 950:1.140306 951:0.777907 952:1.332119 953:-0.268641 954:0.60951 955:0.745875 956:0.031368 957:-0.398299 958:0.916719 959:0.375804 960:0.925794 961:0.040948 962:1.722052 963:0.478632 964:1.135072 965:0.795826 966:1.352529 967:-0.270888 968:0.610789 969:0.744014 970:0.028934 971:-0.421328 972:0.906447 973:0.370793 974:0.927685 975:0.043744 976:1.725178 977:0.477628 978:1.13199 979:0.820552 980:1.376605 981:-0.272181 982:0.612507 983:0.742127 984:0.028073 985:-0.448195 986:0.893495 987:0.364944 988:0.929815 989:0.047541 990:1.728027 991:0.476741 992:1.130937 993:0.851789 994:1.404082 995:-0.238297 996:0.60964 997:0.756011 998:0.088698 999:-0.327232 1000:0.940772 1001:0.378544 1002:0.924962 1003:0.033908 1004:1.696563 1005:0.488801 1006:1.20157 1007:0.775942 1008:1.255872 1009:-0.238257 1010:0.609808 1011:0.755889 1012:0.07917 1013:-0.339823 1014:0.937151 1015:0.382645 1016:0.922994 1017:0.0408 1018:1.698284 1019:0.487751 1020:1.196534 1021:0.779375 1022:1.273225 1023:-0.239563 1024:0.60992 1025:0.755386 1026:0.070135 1027:-0.351406 1028:0.933592 1029:0.385257 1030:0.921679 1031:0.045671 1032:1.700534 1033:0.486573 1034:1.190298 1035:0.782494 1036:1.28925 1037:-0.242206 1038:0.609974 1039:0.754499 1040:0.061627 1041:-0.361953 1042:0.930157 1043:0.386449 1044:0.92103 1045:0.048598 1046:1.703318 1047:0.485277 1048:1.182808 1049:0.785253 1050:1.303852 1051:-0.246175 1052:0.609964 1053:0.753221 1054:0.053676 1055:-0.371438 1056:0.926905 1057:0.386275 1058:0.921047 1059:0.049645 1060:1.706649 1061:0.483876 1062:1.174014 1063:0.787613 1064:1.316957 1065:-0.251302 1066:0.611312 1067:0.75043 1068:0.14483 1069:-0.247319 1070:0.958049 1071:0.349981 1072:0.935944 1073:-0.039016 1074:1.657063 1075:0.487824 1076:1.252647 1077:0.776407 1078:1.142671 1079:-0.249513 1080:0.609925 1081:0.752154 1082:0.13463 1083:-0.262392 1084:0.955523 1085:0.351327 1086:0.936006 1087:-0.021488 1088:1.67641 1089:0.489489 1090:1.231501 1091:0.769222 1092:1.165907 1093:-0.247813 1094:0.608923 1095:0.753527 1096:0.124447 1097:-0.277172 1098:0.952727 1099:0.353748 1100:0.935321 1101:-0.006143 1102:1.691373 1103:0.490974 1104:1.21417 1105:0.764445 1106:1.187902 1107:-0.24619 1108:0.608294 1109:0.754566 1110:0.114299 1111:-0.291634 1112:0.949676 1113:0.357221 1114:0.933992 1115:0.007195 1116:1.702123 1117:0.491949 1118:1.200708 1119:0.762038 1120:1.208737 1121:-0.244636 1122:0.60803 1123:0.755283 1124:0.104204 1125:-0.305753 1126:0.946391 1127:0.36173 1128:0.932096 1129:0.018678 1130:1.708779 1131:0.4922 1132:1.191174 1133:0.762025 1134:1.228495 1135:-0.215961 1136:0.633132 1137:0.743306 1138:0.274772 1139:0.122783 1140:0.953638 1141:0.432882 1142:0.869989 1143:-0.236076 1144:1.576143 1145:0.487257 1146:1.598701 1147:0.799814 1148:0.813134 1149:-0.236607 1150:0.62616 1151:0.742927 1152:0.232302 1153:-0.028929 1154:0.972214 1155:0.387493 1156:0.90672 1157:-0.166456 1158:1.569281 1159:0.487643 1160:1.463234 1161:0.808034 1162:0.943272 1163:-0.251789 1164:0.620257 1165:0.742889 1166:0.192016 1167:-0.153263 1168:0.969351 1169:0.360987 1170:0.924569 1171:-0.121905 1172:1.569488 1173:0.487472 1174:1.369935 1175:0.812267 1176:1.033431 1177:-0.261848 1178:0.615513 1179:0.743357 1180:0.158315 1181:-0.245198 1182:0.956459 1183:0.345613 1184:0.934001 1185:-0.090514 1186:1.576568 1187:0.486852 1188:1.306641 1189:0.81264 1190:1.095504 1191:-0.267069 1192:0.611961 1193:0.744431 1194:0.133213 1195:-0.305654 1196:0.942778 1197:0.337663 1198:0.93891 1199:-0.066572 1200:1.59031 1201:0.486087 1202:1.263437 1203:0.809227 1204:1.138223 1205:-0.267673 1206:0.609597 1207:0.746152 1208:0.117293 1209:-0.337182 1210:0.934104 1211:0.335369 1212:0.940915 1213:-0.046981 1214:1.610478 1215:0.48566 1216:1.23423 1217:0.802047 1218:1.16701 1219:-0.142462 1220:0.650732 1221:0.745823 1222:0.367209 1223:0.534294 1224:0.761372 1225:0.718382 1226:0.303256 1227:-0.626069 1228:1.638754 1229:0.483883 1230:2.002654 1231:0.686791 1232:0.335377 1233:-0.130562 1234:0.654875 1235:0.744373 1236:0.359446 1237:0.551736 1238:0.752586 1239:0.681675 1240:0.015292 1241:-0.731495 1242:1.636298 1243:0.484425 1244:2.086154 1245:0.731102 1246:0.344454 1247:-0.128734 1248:0.656171 1249:0.74355 1250:0.351733 1251:0.541337 1252:0.7637 1253:0.656615 1254:-0.020806 1255:-0.753939 1256:1.631124 1257:0.484915 1258:2.113043 1259:0.76417 1260:0.36926 1261:-0.137233 1262:0.654576 1263:0.743436 1264:0.342594 1265:0.503003 1266:0.793484 1267:0.665209 1268:0.161832 1269:-0.728909 1270:1.623237 1271:0.48537 1272:2.08938 1273:0.788013 1274:0.397367 1275:-0.155785 1276:0.64996 1277:0.74383 1278:0.328909 1279:0.428001 1280:0.841804 1281:0.636994 1282:0.481858 1283:-0.601707 1284:1.612839 1285:0.485808 1286:2.001605 1287:0.80407 1288:0.469429 1289:-0.249556 1290:0.601775 1291:0.758676 1292:0.282161 1293:-0.246877 1294:0.927058 1295:0.282458 1296:0.953709 1297:0.103234 1298:1.659622 1299:0.503039 1300:0.897363 1301:0.45037 1302:1.079437 1303:-0.252041 1304:0.607408 1305:0.753346 1306:0.297821 1307:-0.228184 1308:0.926949 1309:0.288051 1310:0.953136 1311:0.092508 1312:1.642043 1313:0.490046 1314:0.888828 1315:0.433114 1316:1.072338 1317:-0.248989 1318:0.613701 1319:0.74925 1320:0.321983 1321:-0.149334 1322:0.934894 1323:0.301383 1324:0.950684 1325:0.073273 1326:1.628756 1327:0.480709 1328:0.944723 1329:0.431556 1330:1.035177 1331:-0.240103 1332:0.620719 1333:0.746364 1334:0.347898 1335:-0.017016 1336:0.937378 1337:0.325524 1338:0.94464 1339:0.041092 1340:1.619713 1341:0.474831 1342:1.069929 1343:0.450123 1344:0.962672 1345:-0.224918 1346:0.628473 1347:0.744603 1348:0.366269 1349:0.145458 1350:0.919069 1351:0.367626 1352:0.929863 1353:-0.014374 1354:1.615014 1355:0.472253 1356:1.266006 1357:0.494675 1358:0.846236 1359:-0.188863 1360:0.58926 1361:0.785559 1362:0.297888 1363:0.115151 1364:0.94763 1365:0.338994 1366:0.939221 1367:0.054294 1368:1.776207 1369:0.578783 1370:1.397025 1371:0.658157 1372:0.817821 1373:-0.195161 1374:0.586807 1375:0.785856 1376:0.290645 1377:0.078544 1378:0.953602 1379:0.328957 1380:0.9415 1381:0.073248 1382:1.766452 1383:0.579334 1384:1.359348 1385:0.649865 1386:0.848249 1387:-0.201974 1388:0.586151 1389:0.784623 1390:0.285978 1391:0.042787 1392:0.957281 1393:0.320726 1394:0.94327 1395:0.08589 1396:1.753372 1397:0.575366 1398:1.31641 1399:0.635159 1400:0.878282 1401:-0.209353 1402:0.587274 1403:0.781844 1404:0.284107 1405:0.007409 1406:0.958764 1407:0.314103 1408:0.944813 1409:0.093101 1410:1.737073 1411:0.566888 1412:1.267081 1413:0.613566 1414:0.908036 1415:-0.217353 1416:0.590175 1417:0.777465 1418:0.28535 1419:-0.028142 1420:0.95801 1421:0.308907 1422:0.946279 1423:0.095568 1424:1.717612 1425:0.553976 1426:1.209954 1427:0.584509 1428:0.937695 1429:-0.174858 1430:0.623714 1431:0.761843 1432:0.335037 1433:0.307068 1434:0.890763 1435:0.411133 1436:0.904649 1437:-0.112161 1438:1.760832 1439:0.521083 1440:1.512286 1441:0.600542 1442:0.622321 1443:-0.172418 1444:0.616918 1445:0.767909 1446:0.336426 1447:0.278634 1448:0.899544 1449:0.399219 1450:0.912412 1451:-0.090154 1452:1.773141 1453:0.534426 1454:1.507104 1455:0.6234 1456:0.666303 1457:-0.171921 1458:0.610704 1459:0.772971 1460:0.335735 1461:0.248451 1462:0.9086 1463:0.387311 1464:0.919568 1465:-0.06622 1466:1.78132 1467:0.545819 1468:1.494724 1469:0.641005 1470:0.708232 1471:-0.173326 1472:0.605069 1473:0.777078 1474:0.33282 1475:0.216304 1476:0.917847 1477:0.375358 1478:0.925985 1479:-0.040731 1480:1.785524 1481:0.555183 1482:1.475647 1483:0.653038 1484:0.747562 1485:-0.176595 1486:0.6 1487:0.780265 1488:0.327506 1489:0.181964 1490:0.927162 1491:0.363331 1492:0.931555 1493:-0.014011 1494:1.785775 1495:0.562537 1496:1.450255 1497:0.659293 1498:0.783792 1499:-0.206144 1500:0.640854 1501:0.739466 1502:0.305494 1503:0.418327 1504:0.855381 1505:0.49554 1506:0.851596 1507:-0.170953 1508:1.693718 1509:0.468083 1510:1.472107 1511:0.494907 1512:0.42146 1513:-0.200845 1514:0.644934 1515:0.737375 1516:0.311813 1517:0.405759 1518:0.859146 1519:0.474645 1520:0.86327 1521:-0.171691 1522:1.692926 1523:0.4687 1524:1.476186 1525:0.498274 1526:0.445008 1527:-0.195795 1528:0.646536 1529:0.73733 1530:0.317477 1531:0.390511 1532:0.864123 1533:0.455829 1534:0.874448 1535:-0.166015 1536:1.695954 1537:0.472041 1538:1.480027 1539:0.505954 1540:0.47247 1541:-0.191016 1542:0.645686 1543:0.739326 1544:0.322471 1545:0.372392 1546:0.870251 1547:0.43908 1548:0.884978 1549:-0.154991 1550:1.702828 1551:0.477984 1552:1.483504 1553:0.518202 1554:0.504056 1555:-0.186526 1556:0.64241 1557:0.743315 1558:0.326752 1559:0.351166 1560:0.877448 1561:0.424291 1562:0.894695 1563:-0.139635 1564:1.713471 1565:0.486628 1566:1.486457 1567:0.535257 1568:0.540047 1569:-0.182332 1570:0.636738 1571:0.749213 1572:0.330255 1573:0.326557 1574:0.885603 1575:0.411306 1576:0.903446 1577:-0.120883 1578:1.727702 1579:0.498245 1580:1.488686 1581:0.557316 1582:0.580778 1583:-0.223288 1584:0.612881 1585:0.757971 1586:0.272665 1587:0.463643 1588:0.843024 1589:0.621703 1590:0.772752 1591:-0.127826 1592:1.712877 1593:0.488448 1594:1.477012 1595:0.501922 1596:0.344531 1597:-0.222534 1598:0.615387 1599:0.756159 1600:0.279901 1601:0.450022 1602:0.848019 1603:0.585106 1604:0.800709 1605:-0.128517 1606:1.713198 1607:0.485148 1608:1.466375 1609:0.50389 1610:0.362465 1611:-0.220596 1612:0.618683 1613:0.754035 1614:0.28704 1615:0.43685 1616:0.852508 1617:0.552622 1618:0.823102 1619:-0.130812 1620:1.712848 1621:0.482133 1622:1.459688 1623:0.5053 1624:0.38159 1625:-0.217469 1626:0.622756 1627:0.751586 1628:0.294053 1629:0.424215 1630:0.856489 1631:0.524191 1632:0.840907 1633:-0.134531 1634:1.711803 1635:0.479464 1636:1.456909 1637:0.506306 1638:0.401727 1639:-0.213151 1640:0.627587 1641:0.748799 1642:0.300917 1643:0.412202 1644:0.859964 1645:0.499614 1646:0.854942 1647:-0.1395 1648:1.710015 1649:0.477249 1650:1.457943 1651:0.507148 1652:0.422726 1653:-0.207642 1654:0.633153 1655:0.745655 1656:0.307607 1657:0.400889 1658:0.86294 1659:0.478614 1660:0.865876 1661:-0.145558 1662:1.707411 1663:0.47564 1664:1.462636 1665:0.508154 1666:0.444467 1667:-0.200943 1668:0.639422 1669:0.742133 1670:0.314103 1671:0.390347 1672:0.86543 1673:0.460885 1674:0.874249 1675:-0.152559 1676:1.703899 1677:0.474835 1678:1.470769 1679:0.509722 1680:0.466853 1681:-0.216947 1682:0.610322 1683:0.761867 1684:0.247467 1685:0.51258 1686:0.822206 1687:0.773068 1688:0.618735 1689:-0.139761 1690:1.706468 1691:0.502003 1692:1.543283 1693:0.490801 1694:0.295388 
0.03125 1:-0.301165 2:0.611848 3:0.731397 4:0.120779 5:-0.637327 6:0.761069 7:0.282208 8:0.956769 9:0.070363 10:1.689563 11:0.485486 12:0.947062 13:0.910373 14:1.431815 15:-0.2649 16:0.649761 17:0.712487 18:0.124735 19:-0.443028 20:0.887788 21:0.33662 22:0.940872 23:-0.038021 24:1.576527 25:0.465682 26:1.154216 27:0.974453 28:1.413769 29:-0.267299 30:0.648359 31:0.712869 32:0.123279 33:-0.472252 34:0.8728 35:0.3308 36:0.943484 37:-0.020243 38:1.57866 39:0.465073 40:1.126471 41:0.973676 42:1.420055 43:-0.269607 44:0.646953 45:0.713277 46:0.121799 47:-0.499558 48:0.857675 49:0.325345 50:0.945587 51:-0.004065 52:1.580969 53:0.464542 54:1.101379 55:0.972758 56:1.425729 57:-0.271825 58:0.645544 59:0.713712 60:0.120324 61:-0.524897 62:0.842618 63:0.320248 64:0.947274 65:0.010624 66:1.583454 67:0.464094 68:1.078702 69:0.9717 70:1.430832 71:-0.273957 72:0.64413 73:0.714174 74:0.118877 75:-0.548251 76:0.827822 77:0.315501 78:0.948624 79:0.02392 80:1.586116 81:0.463728 82:1.058228 83:0.970504 84:1.435399 85:-0.276002 86:0.642712 87:0.714663 88:0.117483 89:-0.569626 90:0.813464 91:0.311096 92:0.9497 93:0.035914 94:1.588954 95:0.463451 96:1.039764 97:0.969169 98:1.439463 99:-0.277964 100:0.64129 101:0.71518 102:0.116162 103:-0.589049 104:0.799705 105:0.30702 106:0.950557 107:0.046688 108:1.59197 109:0.463264 110:1.023139 111:0.967696 112:1.443048 113:-0.279843 114:0.639864 115:0.715725 116:0.114935 117:-0.606557 118:0.786688 119:0.303264 120:0.951241 121:0.056314 122:1.595165 123:0.463172 124:1.008204 125:0.966085 126:1.446179 127:-0.281641 128:0.638432 129:0.716298 130:0.113818 131:-0.622204 132:0.774537 133:0.299817 134:0.95179 135:0.064855 136:1.59854 137:0.463178 138:0.994825 139:0.964337 140:1.448874 141:-0.283359 142:0.636995 143:0.7169 144:0.112826 145:-0.636046 146:0.763359 147:0.296669 148:0.952234 149:0.072369 150:1.602095 151:0.463287 152:0.982889 153:0.962452 154:1.451149 155:-0.284999 156:0.635552 157:0.71753 158:0.111971 159:-0.648142 160:0.753242 161:0.29381 162:0.952601 163:0.078905 164:1.605833 165:0.463503 166:0.972295 167:0.960429 168:1.453018 169:-0.286561 170:0.634103 171:0.71819 172:0.111266 173:-0.658553 174:0.744264 175:0.291232 176:0.952913 177:0.084506 178:1.609754 179:0.463831 180:0.962959 181:0.958268 182:1.454491 183:-0.288048 184:0.632647 185:0.718879 186:0.110718 187:-0.667334 188:0.736483 189:0.288925 190:0.953186 191:0.089209 192:1.613861 193:0.464277 194:0.954809 195:0.95597 196:1.455576 197:-0.289459 198:0.631184 199:0.719597 200:0.110335 201:-0.674538 202:0.729948 203:0.286883 204:0.953437 205:0.093043 206:1.618154 207:0.464845 208:0.947786 209:0.953533 210:1.45628 211:-0.290797 212:0.629714 213:0.720345 214:0.110124 215:-0.680209 216:0.724699 217:0.285099 218:0.953675 219:0.096034 220:1.622635 221:0.465543 222:0.941839 223:0.950958 224:1.456607 225:-0.29206 226:0.628236 227:0.721124 228:0.110087 229:-0.684384 230:0.720763 231:0.283567 232:0.953911 233:0.0982 234:1.627308 235:0.466375 236:0.93693 237:0.948243 238:1.456559 239:-0.293252 240:0.62675 241:0.721933 242:0.11023 243:-0.687093 244:0.718159 245:0.282283 246:0.954152 247:0.099555 248:1.632172 249:0.467348 250:0.933031 251:0.945389 252:1.456138 253:-0.294372 254:0.625255 255:0.722773 256:0.110553 257:-0.688353 258:0.716902 259:0.281242 260:0.954401 261:0.100107 262:1.637231 263:0.46847 264:0.930122 265:0.942393 266:1.455342 267:-0.295422 268:0.623751 269:0.723644 270:0.111059 271:-0.688176 272:0.716994 273:0.280442 274:0.954662 275:0.099861 276:1.642487 277:0.469745 278:0.928189 279:0.939256 280:1.454167 281:-0.262723 282:0.654768 283:0.7087 284:0.112786 285:-0.479197 286:0.87043 287:0.338724 288:0.940657 289:-0.020735 290:1.552575 291:0.465658 292:1.111699 293:0.939663 294:1.413927 295:-0.262083 296:0.654485 297:0.709198 298:0.115734 299:-0.460338 300:0.880167 301:0.340771 302:0.939631 303:-0.031118 304:1.555932 305:0.465847 306:1.131286 307:0.947017 308:1.411488 309:-0.261652 310:0.65411 311:0.709703 312:0.118305 313:-0.444584 314:0.88789 315:0.342314 316:0.938738 317:-0.039889 318:1.559272 319:0.466006 320:1.148031 321:0.95364 322:1.409508 323:-0.261431 324:0.653644 325:0.710214 326:0.120532 327:-0.431941 328:0.893812 329:0.34335 330:0.938033 331:-0.046965 332:1.56259 333:0.466136 334:1.161776 335:0.959539 336:1.408007 337:-0.26142 338:0.653086 339:0.71073 340:0.122443 341:-0.422397 342:0.898102 343:0.343878 344:0.937558 345:-0.052279 346:1.565888 347:0.466236 348:1.172396 349:0.964721 350:1.407001 351:-0.261617 352:0.652439 353:0.711252 354:0.12406 355:-0.415936 356:0.900892 357:0.343898 358:0.937349 359:-0.055781 360:1.569163 361:0.466308 362:1.179802 363:0.969193 364:1.406503 365:-0.262022 366:0.651702 367:0.711779 368:0.125399 369:-0.412538 370:0.902268 371:0.343412 372:0.937427 373:-0.05744 374:1.572414 375:0.466352 376:1.183939 377:0.972963 378:1.406522 379:-0.262635 380:0.650875 381:0.71231 382:0.12647 383:-0.412183 384:0.902281 385:0.342424 386:0.9378 387:-0.057239 388:1.575641 389:0.46637 390:1.18479 391:0.976036 392:1.407062 393:-0.263453 394:0.649958 395:0.712844 396:0.127279 397:-0.414857 398:0.900941 399:0.340938 400:0.938465 401:-0.055183 402:1.578843 403:0.46636 404:1.18238 405:0.978421 406:1.408123 407:-0.264476 408:0.648953 409:0.713381 410:0.127825 411:-0.42055 412:0.89822 413:0.338959 414:0.939402 415:-0.05129 416:1.58202 417:0.466325 418:1.176768 419:0.980121 420:1.409699 421:-0.265702 422:0.64786 423:0.713919 424:0.128102 425:-0.429253 426:0.894054 427:0.336495 428:0.94058 429:-0.0456 430:1.58517 431:0.466264 432:1.168052 433:0.981145 434:1.411781 435:-0.267128 436:0.646678 437:0.714458 438:0.128096 439:-0.440957 440:0.88834 441:0.333553 442:0.941958 443:-0.038167 444:1.588294 445:0.46618 446:1.156364 447:0.981497 448:1.414352 449:-0.268752 450:0.645409 451:0.714996 452:0.127789 453:-0.455648 454:0.88094 455:0.330144 456:0.943483 457:-0.029063 458:1.591392 459:0.466071 460:1.141872 461:0.981182 462:1.417396 463:-0.270572 464:0.644053 465:0.715532 466:0.127156 467:-0.473297 468:0.871677 469:0.32628 470:0.945095 471:-0.018376 472:1.594464 473:0.46594 474:1.124771 475:0.980204 476:1.42089 477:-0.273009 478:0.653377 479:0.706091 480:0.066325 481:-0.62984 482:0.773888 483:0.332206 484:0.938466 485:0.094452 486:1.527742 487:0.465625 488:0.907603 489:0.836098 490:1.413501 491:-0.273048 492:0.653627 493:0.705845 494:0.068454 495:-0.645437 496:0.76074 497:0.327451 498:0.940188 499:0.093927 500:1.527338 501:0.465167 502:0.906196 503:0.841434 504:1.419884 505:-0.273023 506:0.653838 507:0.705659 508:0.07067 509:-0.657569 510:0.750073 511:0.32337 512:0.94172 513:0.092711 514:1.527234 515:0.464758 516:0.90656 517:0.846999 518:1.425454 519:-0.272934 520:0.65401 521:0.705534 522:0.072988 523:-0.666506 524:0.741918 525:0.319922 526:0.943081 527:0.090817 528:1.52743 529:0.464397 530:0.908591 531:0.85279 532:1.430255 533:-0.272782 534:0.654143 535:0.70547 536:0.07542 537:-0.672466 538:0.736275 539:0.317075 540:0.944286 541:0.088252 542:1.527929 543:0.464082 544:0.912208 545:0.858801 546:1.434324 547:-0.272565 548:0.654236 549:0.705467 550:0.077977 551:-0.675617 552:0.733118 553:0.314801 554:0.945343 555:0.085015 556:1.528731 557:0.463813 558:0.917357 559:0.865029 560:1.437691 561:-0.272283 562:0.65429 563:0.705526 564:0.080664 565:-0.676075 566:0.732405 567:0.31308 568:0.946258 569:0.081097 570:1.52984 571:0.463591 572:0.924006 573:0.871469 574:1.440376 575:-0.271938 576:0.654303 577:0.705646 578:0.083489 579:-0.673911 580:0.73408 581:0.311898 582:0.947033 583:0.076481 584:1.531255 585:0.463416 586:0.932141 587:0.878116 588:1.442394 589:-0.271528 590:0.654277 591:0.705828 592:0.086454 593:-0.669155 594:0.738077 595:0.311243 596:0.947664 597:0.071144 598:1.53298 599:0.46329 600:0.941771 601:0.884966 602:1.443752 603:-0.271054 604:0.654211 605:0.706072 606:0.089559 607:-0.661795 608:0.744316 609:0.311111 610:0.948144 611:0.065055 612:1.535015 613:0.463215 614:0.952921 615:0.892013 616:1.444452 617:-0.270515 618:0.654105 619:0.706377 620:0.092801 621:-0.651786 622:0.752704 623:0.311502 624:0.948463 625:0.058173 626:1.537362 627:0.463193 628:0.965641 629:0.899254 630:1.444489 631:-0.269913 632:0.653959 633:0.706743 634:0.096172 635:-0.639051 636:0.763128 637:0.31242 638:0.948604 639:0.05045 640:1.540021 641:0.463227 642:0.980002 643:0.906681 644:1.44385 645:-0.269246 646:0.653772 647:0.70717 648:0.099661 649:-0.623488 650:0.775455 651:0.313872 652:0.948543 653:0.041829 654:1.542996 655:0.463322 656:0.9961 657:0.91429 658:1.442514 659:-0.270905 660:0.650101 661:0.709915 662:0.05098 663:-0.472823 664:0.879681 665:0.369032 666:0.925336 667:0.086995 668:1.541704 669:0.47429 670:0.959386 671:0.819505 672:1.363476 673:-0.270855 674:0.650075 675:0.709958 676:0.050401 677:-0.447065 678:0.89308 679:0.375661 680:0.922923 681:0.084215 682:1.541496 683:0.473727 684:0.967193 685:0.815109 686:1.355514 687:-0.270817 688:0.650074 689:0.709973 690:0.050039 691:-0.424834 692:0.903887 693:0.381371 694:0.920812 695:0.081624 696:1.541248 697:0.473164 698:0.974272 699:0.811459 700:1.348737 701:-0.270792 702:0.650098 703:0.709961 704:0.04992 705:-0.406469 706:0.9123 707:0.386089 708:0.919051 709:0.079248 710:1.540959 711:0.472602 712:0.980422 713:0.80856 714:1.343214 715:-0.27078 716:0.650147 717:0.70992 718:0.050059 719:-0.392225 720:0.918506 721:0.389754 722:0.917684 723:0.077117 724:1.540628 725:0.472041 726:0.98547 727:0.806414 728:1.339001 729:-0.270781 730:0.650222 731:0.709851 732:0.050472 733:-0.382285 734:0.922665 735:0.392317 736:0.916746 737:0.075254 738:1.540256 739:0.471481 740:0.989269 741:0.805021 742:1.336145 743:-0.270795 744:0.650323 745:0.709754 746:0.051165 747:-0.376763 748:0.924896 749:0.393745 750:0.916262 751:0.073678 752:1.539843 753:0.470921 754:0.991718 755:0.804384 756:1.334677 757:-0.270821 758:0.650449 759:0.709629 760:0.052141 761:-0.37572 762:0.925265 763:0.394017 764:0.916247 765:0.072406 766:1.539388 767:0.470363 768:0.992753 769:0.804504 770:1.334613 771:-0.27086 772:0.6506 773:0.709475 774:0.053398 775:-0.379161 776:0.923789 777:0.393131 778:0.916703 779:0.071447 780:1.53889 781:0.469807 782:0.992361 783:0.805382 784:1.335957 785:-0.270912 786:0.650777 787:0.709292 788:0.054929 789:-0.38704 790:0.920425 791:0.391098 792:0.917621 793:0.070807 794:1.53835 795:0.469253 796:0.990573 797:0.807019 798:1.338697 799:-0.270977 800:0.65098 801:0.709082 802:0.05672 803:-0.399254 804:0.915084 805:0.387949 806:0.918982 807:0.070487 808:1.537767 809:0.468702 810:0.987466 811:0.809416 812:1.342805 813:-0.271056 814:0.651208 815:0.708842 816:0.058752 817:-0.415642 818:0.907629 819:0.383724 820:0.920754 821:0.07048 822:1.537141 823:0.468153 824:0.98316 825:0.812571 826:1.348241 827:-0.271147 828:0.651463 829:0.708573 830:0.060997 831:-0.435974 832:0.89789 833:0.37848 834:0.922899 835:0.070777 836:1.536471 837:0.467607 838:0.977809 839:0.816485 840:1.354952 841:-0.271814 842:0.649082 843:0.710499 844:0.058424 845:-0.721313 846:0.69014 847:0.297114 848:0.947775 849:0.115956 850:1.543062 851:0.478042 852:0.908319 853:0.890693 854:1.452287 855:-0.271794 856:0.649463 857:0.710159 858:0.058443 859:-0.723289 860:0.688068 861:0.297004 862:0.9479 863:0.115218 864:1.54291 865:0.478239 866:0.906264 867:0.888271 868:1.452922 869:-0.27177 870:0.649811 871:0.70985 872:0.058453 873:-0.723815 874:0.687514 875:0.297314 876:0.947903 877:0.114383 878:1.542756 879:0.478377 880:0.904618 881:0.885654 882:1.452964 883:-0.271743 884:0.650126 885:0.709572 886:0.058453 887:-0.722897 888:0.688479 889:0.298046 890:0.947786 891:0.113449 892:1.542602 893:0.478455 894:0.903383 895:0.882842 896:1.452412 897:-0.271712 898:0.650407 899:0.709326 900:0.058442 901:-0.720518 902:0.690969 903:0.299204 904:0.947545 905:0.112411 906:1.542446 907:0.478475 908:0.902567 909:0.879835 910:1.451264 911:-0.271679 912:0.650655 913:0.709111 914:0.058419 915:-0.716641 916:0.694992 917:0.300793 918:0.947177 919:0.111264 920:1.542289 921:0.478435 922:0.902187 923:0.876631 924:1.449515 925:-0.271642 926:0.65087 927:0.708928 928:0.058382 929:-0.711203 930:0.700558 931:0.302825 932:0.946677 933:0.110003 934:1.542132 935:0.478336 936:0.902265 937:0.87323 938:1.447156 939:-0.271602 940:0.651052 941:0.708776 942:0.058328 943:-0.704122 944:0.707679 945:0.305312 946:0.946037 947:0.108621 948:1.541973 949:0.478178 950:0.902831 951:0.86963 952:1.444174 953:-0.27156 954:0.6512 955:0.708656 956:0.058251 957:-0.695287 958:0.716368 959:0.308272 960:0.945249 961:0.107109 962:1.541812 963:0.477961 964:0.903923 965:0.865832 966:1.440553 967:-0.271513 968:0.651315 969:0.708569 970:0.058147 971:-0.684562 972:0.726632 973:0.311725 974:0.944302 975:0.105457 976:1.541651 977:0.477684 978:0.905593 979:0.861833 980:1.436272 981:-0.271464 982:0.651396 983:0.708513 984:0.058007 985:-0.671783 986:0.738473 987:0.315699 988:0.943181 989:0.103656 990:1.541487 991:0.477348 992:0.907898 993:0.857633 994:1.431307 995:-0.271412 996:0.651444 997:0.708489 998:0.057822 999:-0.656757 1000:0.751883 1001:0.320222 1002:0.941869 1003:0.10169 1004:1.541322 1005:0.476953 1006:0.910911 1007:0.85323 1008:1.42563 1009:-0.271357 1010:0.651458 1011:0.708497 1012:0.057581 1013:-0.639258 1014:0.766833 1015:0.32533 1016:0.940346 1017:0.099547 1018:1.541154 1019:0.476499 1020:0.91472 1021:0.848625 1022:1.419205 1023:-0.271298 1024:0.651439 1025:0.708537 1026:0.057271 1027:-0.619035 1028:0.783273 1029:0.331065 1030:0.938588 1031:0.097208 1032:1.540984 1033:0.475985 1034:0.919429 1035:0.843814 1036:1.411992 1037:-0.268848 1038:0.646271 1039:0.714181 1040:0.053582 1041:-0.662017 1042:0.747571 1043:0.313002 1044:0.942694 1045:0.115574 1046:1.552658 1047:0.471758 1048:0.941582 1049:0.909385 1050:1.439922 1051:-0.269486 1052:0.646052 1053:0.714139 1054:0.054459 1055:-0.66219 1056:0.747355 1057:0.312292 1058:0.942831 1059:0.116379 1060:1.550889 1061:0.472422 1062:0.940513 1063:0.908422 1064:1.438031 1065:-0.27007 1066:0.645883 1067:0.714071 1068:0.05527 1069:-0.662608 1070:0.746924 1071:0.311608 1072:0.942973 1073:0.117058 1074:1.549254 1075:0.473051 1076:0.939343 1077:0.907349 1078:1.43638 1079:-0.2706 1080:0.645764 1081:0.713978 1082:0.056015 1083:-0.663273 1084:0.746279 1085:0.310952 1086:0.943121 1087:0.117612 1088:1.54775 1089:0.473647 1090:0.938068 1091:0.906163 1092:1.434969 1093:-0.271077 1094:0.645695 1095:0.71386 1096:0.056692 1097:-0.664183 1098:0.745417 1099:0.310323 1100:0.943274 1101:0.11804 1102:1.54638 1103:0.474209 1104:0.936691 1105:0.904865 1106:1.433798 1107:-0.2715 1108:0.645676 1109:0.713716 1110:0.0573 1111:-0.665338 1112:0.74434 1113:0.309723 1114:0.943434 1115:0.118342 1116:1.545142 1117:0.474735 1118:0.93521 1119:0.903455 1120:1.432865 1121:-0.271869 1122:0.645708 1123:0.713547 1124:0.05784 1125:-0.666736 1126:0.743046 1127:0.309151 1128:0.943599 1129:0.118517 1130:1.544037 1131:0.475226 1132:0.933625 1133:0.901932 1134:1.432172 1135:-0.272184 1136:0.64579 1137:0.713352 1138:0.058311 1139:-0.668375 1140:0.741535 1141:0.308609 1142:0.94377 1143:0.118566 1144:1.543064 1145:0.475681 1146:0.931937 1147:0.900296 1148:1.431717 1149:-0.272446 1150:0.645923 1151:0.713132 1152:0.058712 1153:-0.670252 1154:0.739807 1155:0.308097 1156:0.943947 1157:0.118489 1158:1.542223 1159:0.476101 1160:0.930146 1161:0.898548 1162:1.431499 1163:-0.272653 1164:0.646106 1165:0.712886 1166:0.059043 1167:-0.672364 1168:0.737862 1169:0.307616 1170:0.94413 1171:0.118286 1172:1.541515 1173:0.476483 1174:0.928251 1175:0.896686 1176:1.431518 1177:-0.272807 1178:0.64634 1179:0.712615 1180:0.059304 1181:-0.674707 1182:0.735699 1183:0.307164 1184:0.944318 1185:0.117958 1186:1.54094 1187:0.476829 1188:0.926251 1189:0.894712 1190:1.431773 1191:-0.272907 1192:0.646625 1193:0.712318 1194:0.059494 1195:-0.677276 1196:0.733319 1197:0.306743 1198:0.944511 1199:0.117506 1200:1.540497 1201:0.477137 1202:0.924149 1203:0.892625 1204:1.432261 1205:-0.272952 1206:0.646961 1207:0.711996 1208:0.059613 1209:-0.680067 1210:0.730722 1211:0.306353 1212:0.944709 1213:0.116931 1214:1.540188 1215:0.477408 1216:0.921942 1217:0.890425 1218:1.432983 1219:-0.266047 1220:0.647592 1221:0.714033 1222:0.050239 1223:-0.663243 1224:0.746716 1225:0.311047 1226:0.945616 1227:0.095189 1228:1.586551 1229:0.455367 1230:0.99186 1231:0.949718 1232:1.47772 1233:-0.265152 1234:0.648028 1235:0.713971 1236:0.049019 1237:-0.664223 1238:0.745926 1239:0.312822 1240:0.944836 1241:0.097098 1242:1.583687 1243:0.457295 1244:0.982968 1245:0.942591 1246:1.474949 1247:-0.264382 1248:0.648406 1249:0.713912 1250:0.047954 1251:-0.665126 1252:0.745189 1253:0.314399 1254:0.944122 1255:0.098931 1256:1.580901 1257:0.459126 1258:0.974712 1259:0.935965 1260:1.472233 1261:-0.26374 1262:0.648728 1263:0.713858 1264:0.047049 1265:-0.665951 1266:0.74451 1267:0.315777 1268:0.943476 1269:0.100687 1270:1.578194 1271:0.46086 1272:0.967091 1273:0.929842 1274:1.469573 1275:-0.263224 1276:0.648994 1277:0.713807 1278:0.046308 1279:-0.666696 1280:0.743889 1281:0.316958 1282:0.942899 1283:0.102368 1284:1.575562 1285:0.462496 1286:0.960104 1287:0.924221 1288:1.466966 1289:-0.262836 1290:0.649203 1291:0.71376 1292:0.045734 1293:-0.667359 1294:0.743331 1295:0.31794 1296:0.942393 1297:0.103971 1298:1.573007 1299:0.464035 1300:0.953752 1301:0.919102 1302:1.464409 1303:-0.262575 1304:0.649355 1305:0.713717 1306:0.045332 1307:-0.667937 1308:0.742836 1309:0.318722 1310:0.941959 1311:0.105498 1312:1.570529 1313:0.465476 1314:0.948034 1315:0.914485 1316:1.461903 1317:-0.262442 1318:0.649451 1319:0.713679 1320:0.045103 1321:-0.668429 1322:0.742407 1323:0.319306 1324:0.941598 1325:0.106947 1326:1.568124 1327:0.466819 1328:0.942949 1329:0.910371 1330:1.459444 1331:-0.262437 1332:0.64949 1333:0.713645 1334:0.045052 1335:-0.668835 1336:0.742045 1337:0.319689 1338:0.941311 1339:0.108319 1340:1.565795 1341:0.468064 1342:0.938497 1343:0.906759 1344:1.457033 1345:-0.262561 1346:0.649472 1347:0.713616 1348:0.04518 1349:-0.669151 1350:0.741752 1351:0.319871 1352:0.941099 1353:0.109614 1354:1.563539 1355:0.46921 1356:0.934678 1357:0.903649 1358:1.454668 1359:-0.262813 1360:0.649397 1361:0.713591 1362:0.045488 1363:-0.669377 1364:0.741529 1365:0.319852 1366:0.940963 1367:0.11083 1368:1.561357 1369:0.470258 1370:0.931493 1371:0.901043 1372:1.452348 1373:-0.263194 1374:0.649265 1375:0.713571 1376:0.045979 1377:-0.669512 1378:0.741377 1379:0.319632 1380:0.940903 1381:0.111969 1382:1.559249 1383:0.471206 1384:0.928942 1385:0.898939 1386:1.450072 1387:-0.263703 1388:0.649077 1389:0.713555 1390:0.046653 1391:-0.669554 1392:0.741297 1393:0.319209 1394:0.94092 1395:0.113029 1396:1.557213 1397:0.472056 1398:0.927026 1399:0.897339 1400:1.447841 1401:-0.276706 1402:0.640363 1403:0.716497 1404:0.068368 1405:-0.656253 1406:0.751437 1407:0.28889 1408:0.954573 1409:0.073032 1410:1.608925 1411:0.442624 1412:1.07429 1413:1.019489 1414:1.496571 1415:-0.27681 1416:0.640724 1417:0.716135 1418:0.067606 1419:-0.655638 1420:0.752043 1421:0.289161 1422:0.954434 1423:0.07377 1424:1.609758 1425:0.441408 1426:1.076481 1427:1.020466 1428:1.497848 1429:-0.27683 1430:0.641094 1431:0.715796 1432:0.066814 1433:-0.655145 1434:0.752543 1435:0.28956 1436:0.954248 1437:0.0746 1438:1.610295 1439:0.440437 1440:1.077775 1441:1.020787 1442:1.498797 1443:-0.276764 1444:0.641473 1445:0.715482 1446:0.065993 1447:-0.654773 1448:0.752939 1449:0.290087 1450:0.954015 1451:0.075524 1452:1.610535 1453:0.439713 1454:1.078172 1455:1.020452 1456:1.499418 1457:-0.276614 1458:0.641861 1459:0.715191 1460:0.065139 1461:-0.654521 1462:0.753232 1463:0.290742 1464:0.953735 1465:0.076541 1466:1.610478 1467:0.439235 1468:1.077669 1469:1.019458 1470:1.499711 1471:-0.276379 1472:0.64226 1473:0.714925 1474:0.064251 1475:-0.65439 1476:0.753423 1477:0.291525 1478:0.953406 1479:0.077651 1480:1.610125 1481:0.439005 1482:1.076265 1483:1.017806 1484:1.499677 1485:-0.276059 1486:0.642667 1487:0.714682 1488:0.063327 1489:-0.65438 1490:0.75351 1491:0.292437 1492:0.953028 1493:0.078856 1494:1.609477 1495:0.439023 1496:1.073957 1497:1.015492 1498:1.499317 1499:-0.275655 1500:0.643085 1501:0.714462 1502:0.062367 1503:-0.654491 1504:0.753493 1505:0.293477 1506:0.9526 1507:0.080155 1508:1.608533 1509:0.439292 1510:1.070745 1511:1.012517 1512:1.498633 1513:-0.275165 1514:0.643512 1515:0.714267 1516:0.061366 1517:-0.654725 1518:0.753372 1519:0.294646 1520:0.952121 1521:0.081549 1522:1.607294 1523:0.439811 1524:1.066626 1525:1.008877 1526:1.497625 1527:-0.27459 1528:0.643949 1529:0.714094 1530:0.060324 1531:-0.655083 1532:0.753145 1533:0.295944 1534:0.951589 1535:0.083039 1536:1.605762 1537:0.440582 1538:1.0616 1539:1.004573 1540:1.496297 1541:-0.273929 1542:0.644395 1543:0.713945 1544:0.059238 1545:-0.655568 1546:0.752809 1547:0.297372 1548:0.951004 1549:0.084625 1550:1.603935 1551:0.441606 1552:1.055664 1553:0.9996 1554:1.494648 1555:-0.273182 1556:0.644852 1557:0.713819 1558:0.058105 1559:-0.65618 1560:0.752364 1561:0.29893 1562:0.950364 1563:0.086309 1564:1.601816 1565:0.442883 1566:1.048818 1567:0.99396 1568:1.492682 1569:-0.272349 1570:0.645318 1571:0.713716 1572:0.056923 1573:-0.656924 1574:0.751805 1575:0.300619 1576:0.949667 1577:0.088091 1578:1.599405 1579:0.444415 1580:1.04106 1581:0.98765 1582:1.4904 1583:-0.271429 1584:0.645793 1585:0.713637 1586:0.055687 1587:-0.657803 1588:0.751129 1589:0.30244 1590:0.948913 1591:0.089971 1592:1.596702 1593:0.446203 1594:1.032391 1595:0.98067 1596:1.487803 1597:-0.270422 1598:0.646279 1599:0.713579 1600:0.054396 1601:-0.658819 1602:0.750332 1603:0.304393 1604:0.948098 1605:0.091951 1606:1.593709 1607:0.448247 1608:1.02281 1609:0.973018 1610:1.484896 1611:-0.269327 1612:0.646774 1613:0.713545 1614:0.053045 1615:-0.659979 1616:0.749409 1617:0.306479 1618:0.947221 1619:0.094032 1620:1.590426 1621:0.450549 1622:1.012317 1623:0.964695 1624:1.481681 1625:-0.268144 1626:0.647279 1627:0.713532 1628:0.05163 1629:-0.661286 1630:0.748355 1631:0.308699 1632:0.946281 1633:0.096215 1634:1.586856 1635:0.453109 1636:1.000915 1637:0.955702 1638:1.478159 1639:-0.266872 1640:0.647794 1641:0.713542 1642:0.050146 1643:-0.662746 1644:0.747163 1645:0.311054 1646:0.945274 1647:0.098501 1648:1.582998 1649:0.455927 1650:0.988605 1651:0.946038 1652:1.474335 1653:-0.265511 1654:0.648317 1655:0.713575 1656:0.04859 1657:-0.664365 1658:0.745827 1659:0.313545 1660:0.944198 1661:0.100891 1662:1.578855 1663:0.459004 1664:0.975391 1665:0.935708 1666:1.470211 1667:-0.264059 1668:0.648851 1669:0.713628 1670:0.046955 1671:-0.666151 1672:0.744337 1673:0.316173 1674:0.943051 1675:0.103387 1676:1.574428 1677:0.46234 1678:0.961277 1679:0.924713 1680:1.465791 1681:-0.273834 1682:0.638189 1683:0.719535 1684:0.072781 1685:-0.663597 1686:0.744541 1687:0.290376 1688:0.954314 1689:0.070476 1690:1.595783 1691:0.456943 1692:1.036921 1693:0.996282 1694:1.479635 
