svm_type c_svc
kernel_type rbf
gamma 0.00012207
nr_class 10
total_sv 112
rho 0.391816 -0.552684 -0.466797 -0.227762 -0.0459321 1.15147 -0.0412038 -0.30461 -0.0679146 -0.1203 -0.177155 -0.0655465 -0.130542 -0.133651 -0.00803511 -0.360346 0.0621689 -0.0788993 0.0919586 -0.0957643 0.304356 0.0702841 -0.141692 0.228434 0.291982 -0.249613 0.216959 0.167227 -0.126507 0.375238 -0.0741331 0.106991 -0.0154735 -0.164754 1.03598 0.106742 0.131833 -0.0119058 0.14428 -0.0145718 -0.360809 0.103347 -0.314264 0.0508039 0.276551
label 1 11 5 6 9 7 10 4 2 3
probA -2.61294 -2.62046 -2.61059 -2.64561 -2.55283 -3.65451 -2.62305 -2.51715 -2.8196 -2.74487 -2.84988 -2.94798 -2.70646 -3.11546 -2.75195 -2.69323 -2.95267 -2.70648 -2.65064 -2.67489 -2.94322 -2.62519 -2.62568 -2.8024 -2.6681 -2.22737 -2.90495 -2.80255 -2.72606 -2.81596 -2.6519 -3.00701 -2.73923 -2.65342 -2.98587 -2.83147 -2.6562 -2.46037 -2.71411 -2.88548 -2.80422 -3.14679 -2.60284 -2.83522 -2.78758
probB 0.316561 -0.183562 -0.147375 0.00921543 0.0297804 -0.0749524 -0.0771293 -0.135961 -0.0420529 -0.0810843 0.0190857 0.0224954 -0.0838786 -0.0238755 -0.0444008 -0.275654 0.0479188 0.0420222 0.0710453 -0.0284738 0.207051 0.00717166 -0.0568474 0.189174 0.113013 0.0492212 0.189955 -0.0193407 -0.0995255 0.18191 -0.188368 0.0485924 -0.0178022 -0.146498 0.109021 0.245913 0.0756772 0.0556218 0.176927 -0.189654 -0.343157 -0.0297138 -0.167866 0.0772334 0.240229
nr_sv 11 14 11 8 11 2 20 10 7 18
SV
2.78778836600304 1.422524570663961 0 0.06668025516796715 0 57.67020127327142 0 0 0 1:-0.235999 2:0.680005 3:0.694189 4:0.033105 5:-0.007062 6:0.999427 7:0.438552 8:0.894151 9:-0.090366 10:1.739858 11:0.424814 12:1.072708 13:0.586629 14:1.148898 15:-0.244126 16:0.686805 17:0.684617 18:-0.046429 19:-0.338039 20:0.939986 21:0.428713 22:0.897058 23:0.107202 24:1.714651 25:0.424294 26:0.806882 27:0.697248 28:1.409683 29:-0.247964 30:0.685431 31:0.684616 32:-0.024453 33:-0.371515 34:0.928105 35:0.403014 36:0.912773 37:0.06652 38:1.714997 39:0.420671 40:0.852637 41:0.697198 42:1.407599 43:-0.250935 44:0.684198 45:0.684766 46:-0.007274 47:-0.389677 48:0.920923 49:0.382062 50:0.923597 51:0.031596 52:1.715673 53:0.41778 54:0.891184 55:0.694998 56:1.404296 57:-0.253042 58:0.683114 59:0.685073 60:0.006228 61:-0.395599 62:0.918402 63:0.365789 64:0.930696 65:0.001823 66:1.716682 67:0.415605 68:0.923556 69:0.690582 70:1.398648 71:-0.254288 72:0.682182 73:0.68554 74:0.016838 75:-0.39103 76:0.920224 77:0.354117 78:0.934909 79:-0.023353 80:1.718029 81:0.41413 82:0.950603 83:0.683949 84:1.389774 85:-0.254678 86:0.681405 87:0.686168 88:0.025089 89:-0.376796 90:0.925956 91:0.347018 92:0.936807 93:-0.04439 94:1.71972 95:0.413342 96:0.973086 97:0.675186 98:1.376947 99:-0.254216 100:0.680782 101:0.686957 102:0.031329 103:-0.353036 104:0.935085 105:0.34456 106:0.936738 107:-0.061638 108:1.721756 109:0.413228 110:0.991755 111:0.664474 112:1.359531 113:-0.252908 114:0.680313 115:0.687904 116:0.035763 117:-0.31936 118:0.946958 119:0.346945 120:0.934856 121:-0.075326 122:1.724144 123:0.413778 124:1.007415 125:0.652101 126:1.336937 127:-0.25076 128:0.679994 129:0.689005 130:0.038479 131:-0.274965 132:0.960684 133:0.354547 134:0.931116 135:-0.085548 136:1.726886 137:0.414985 138:1.020989 139:0.638461 140:1.308593 141:-0.238863 142:0.690864 143:0.682387 144:-0.059467 145:-0.376219 146:0.92462 147:0.442445 148:0.882279 149:0.160705 150:1.70522 151:0.429457 152:0.721641 153:0.681915 154:1.418609 155:-0.238668 156:0.689922 157:0.683407 158:-0.070354 159:-0.332281 160:0.940553 161:0.452743 162:0.87647 163:0.163781 164:1.709303 165:0.42952 166:0.727556 167:0.688587 168:1.41714 169:-0.238971 170:0.688947 171:0.684284 172:-0.07502 173:-0.299011 174:0.951296 175:0.458238 176:0.874287 177:0.160125 178:1.712761 179:0.429141 180:0.740539 181:0.693283 182:1.414469 183:-0.239769 184:0.687939 185:0.685018 186:-0.073456 187:-0.277991 188:0.957771 189:0.458668 190:0.875943 191:0.14949 192:1.715602 193:0.428303 194:0.761003 195:0.696088 196:1.410314 197:-0.241062 198:0.686897 199:0.68561 200:-0.066064 201:-0.269595 202:0.960705 203:0.453761 204:0.88133 205:0.131754 206:1.717838 207:0.426995 208:0.78874 209:0.697038 210:1.404623 211:-0.242845 212:0.68582 213:0.686059 214:-0.053544 215:-0.273163 216:0.960476 217:0.44325 218:0.889995 219:0.106955 220:1.719477 221:0.425204 222:0.822813 223:0.696116 224:1.397627 225:-0.245703 226:0.694784 227:0.675947 228:0.025357 229:-0.647914 230:0.761291 231:0.352954 232:0.928404 233:0.116147 234:1.681964 235:0.424255 236:0.711181 237:0.652999 238:1.450941 239:-0.245113 240:0.694663 241:0.676286 242:0.02585 243:-0.626234 244:0.779207 245:0.356257 246:0.928214 247:0.107233 248:1.682032 249:0.424819 250:0.723103 251:0.644158 252:1.439779 253:-0.2445 254:0.694403 255:0.676775 256:0.024031 257:-0.602514 258:0.797747 259:0.361242 260:0.926966 261:0.101181 262:1.682955 263:0.425313 264:0.733595 265:0.63891 266:1.430048 267:-0.243866 268:0.694001 269:0.677415 270:0.019878 271:-0.576132 272:0.817115 273:0.368007 274:0.92464 275:0.098043 276:1.684749 277:0.425732 278:0.742727 279:0.63707 280:1.421758 281:-0.24321 282:0.69346 283:0.678205 284:0.013273 285:-0.546332 286:0.837464 287:0.376664 288:0.921161 289:0.097907 290:1.687412 291:0.426087 292:0.750459 293:0.638475 294:1.414963 295:-0.242533 296:0.692779 297:0.679143 298:0.004 299:-0.512178 300:0.85887 301:0.387343 302:0.916397 303:0.100908 304:1.690932 305:0.426407 306:0.756615 307:0.642995 308:1.409775 309:-0.241835 310:0.691958 311:0.680228 312:-0.008254 313:-0.4725 314:0.881292 315:0.40019 316:0.910137 317:0.107231 318:1.695279 319:0.426737 320:0.760864 321:0.65053 322:1.406379 323:-0.24653 324:0.694388 325:0.676054 326:-0.076592 327:-0.489281 328:0.868756 329:0.426614 330:0.884054 331:0.190914 332:1.684674 333:0.421977 334:0.962935 335:0.927007 336:1.718899 337:-0.247117 338:0.694277 339:0.675954 340:-0.031677 341:-0.625282 342:0.779755 343:0.387183 344:0.904261 345:0.180006 346:1.686223 347:0.422019 348:0.773293 349:0.800933 350:1.59536 351:-0.247468 352:0.694183 353:0.675921 354:-0.001412 355:-0.69961 356:0.714524 357:0.359015 358:0.917747 359:0.169851 360:1.687355 361:0.422175 362:0.674629 363:0.726257 364:1.515546 365:-0.247585 366:0.694109 367:0.675955 368:0.018236 369:-0.737355 370:0.675259 371:0.339978 372:0.926697 373:0.16015 374:1.688095 375:0.422422 376:0.620992 377:0.679202 378:1.462935 379:-0.247466 380:0.694053 381:0.676056 382:0.03037 383:-0.7517 384:0.658805 385:0.328709 386:0.932348 387:0.150591 388:1.688456 389:0.42275 390:0.594897 391:0.648907 392:1.428661 393:-0.24711 394:0.694014 395:0.676225 396:0.03682 397:-0.748379 398:0.662248 399:0.324447 400:0.935359 401:0.140847 402:1.688429 403:0.423162 404:0.589151 405:0.630109 406:1.407963 407:-0.240197 408:0.693201 409:0.679542 410:-0.241061 411:0.564453 412:0.789482 413:0.720478 414:0.650755 415:0.239644 416:1.673794 417:0.424987 418:0.893354 419:2.597352 420:1.047758 421:-0.240749 422:0.694052 423:0.678477 424:-0.246246 425:0.619984 426:0.744972 427:0.758484 428:0.605224 429:0.241671 430:1.67297 431:0.424652 432:0.776475 433:2.696772 434:0.952647 435:-0.24137 436:0.694716 437:0.677577 438:-0.248729 439:0.636885 440:0.729734 441:0.77332 442:0.586473 443:0.240886 444:1.672798 445:0.424275 446:0.745508 447:2.728874 448:0.924776 449:-0.242059 450:0.695193 451:0.676841 452:-0.249786 453:0.62204 454:0.742074 455:0.765368 456:0.598018 457:0.237878 458:1.673275 459:0.423855 460:0.786228 461:2.704355 462:0.954052 463:-0.242818 464:0.695481 465:0.676273 466:-0.248798 467:0.570351 468:0.782815 469:0.734551 470:0.637471 471:0.232518 472:1.674386 473:0.423408 474:0.91924 475:2.606974 476:1.049812 477:-0.243646 478:0.695581 479:0.675872 480:-0.242399 481:0.462296 482:0.852951 483:0.681149 484:0.696969 485:0.224209 486:1.676104 487:0.422962 488:1.222749 489:2.38111 490:1.246471 491:-0.235662 492:0.686374 493:0.688007 494:-0.469115 495:-0.341145 496:0.814587 497:0.501646 498:0.821059 499:0.272421 500:1.683675 501:0.430766 502:0.95691 503:0.779419 504:1.866194 505:-0.236844 506:0.686997 507:0.686979 508:-0.226133 509:-0.453625 510:0.862026 511:0.458404 512:0.85598 513:0.239089 514:1.683385 515:0.428998 516:0.988035 517:0.880208 518:1.809772 519:-0.237899 520:0.687693 521:0.685917 522:-0.108376 523:-0.46494 524:0.878684 525:0.431805 526:0.876142 527:0.214288 528:1.682895 529:0.427471 530:1.07087 531:0.98265 532:1.795518 533:-0.238827 534:0.688465 535:0.684819 536:-0.05188 537:-0.432203 538:0.900283 539:0.420687 540:0.885582 541:0.196892 542:1.682202 543:0.426185 544:1.186769 545:1.084253 546:1.816615 547:-0.239628 548:0.689314 549:0.683684 550:-0.030276 551:-0.365966 552:0.930135 553:0.42477 554:0.885962 555:0.186121 556:1.681304 557:0.425146 558:1.358402 559:1.19859 560:1.873559 561:-0.240304 562:0.69024 563:0.682512 564:-0.034264 565:-0.261802 566:0.964513 567:0.444964 568:0.876931 569:0.181655 570:1.680193 571:0.424357 572:1.669988 573:1.343765 574:1.971588 575:-0.240853 576:0.691245 577:0.681301 578:-0.061665 579:-0.108775 580:0.992152 581:0.483575 582:0.855819 583:0.183655 584:1.678864 585:0.423829 586:2.565158 587:1.545896 588:2.067215 589:-0.230077 590:0.68462 591:0.691636 592:-0.622135 593:0.709854 594:-0.330234 595:0.788436 596:0.4074 597:0.460863 598:1.683781 599:0.441795 600:0.972839 601:1.93577 602:1.169391 603:-0.230181 604:0.684632 605:0.691589 606:-0.635572 607:0.688799 608:-0.348718 609:0.783186 610:0.418853 611:0.459545 612:1.683466 613:0.440466 614:1.096168 615:1.828439 616:1.25217 617:-0.230528 618:0.68476 619:0.691347 620:-0.657227 621:0.669878 622:-0.345421 623:0.770943 624:0.448945 625:0.451769 626:1.683185 627:0.439006 628:1.214601 629:1.72264 630:1.350527 631:-0.231117 632:0.685003 633:0.690909 634:-0.691296 635:0.650189 636:-0.315222 637:0.750277 638:0.496308 639:0.436763 640:1.682938 641:0.437417 642:1.337971 643:1.607681 644:1.4722 645:-0.231949 646:0.68536 647:0.690276 648:-0.744589 649:0.622643 650:-0.24063 651:0.719096 652:0.558576 653:0.413394 654:1.682728 655:0.435698 656:1.482708 657:1.464506 658:1.628649 659:-0.233024 660:0.685831 661:0.689445 662:-0.823223 663:0.563093 664:-0.072327 665:0.675256 666:0.631795 667:0.38061 668:1.682555 669:0.43385 670:1.664804 671:1.257541 672:1.828802 673:-0.225945 674:0.686547 675:0.691088 676:-0.594749 677:0.562602 678:0.574241 679:0.614331 680:0.71836 681:0.32643 682:1.684382 683:0.4467 684:0.356675 685:2.487068 686:1.344397 687:-0.228899 688:0.686216 689:0.690444 690:-0.587671 691:0.729129 692:0.350733 693:0.664969 694:0.657477 695:0.354316 696:1.68492 697:0.446518 698:0.294606 699:2.513733 700:1.114929 701:-0.23122 702:0.685916 703:0.689968 704:-0.57232 705:0.795948 706:0.197273 707:0.707288 708:0.596829 709:0.378865 710:1.685282 711:0.446151 712:0.302633 713:2.509622 714:0.981247 715:-0.232919 716:0.68565 717:0.689661 718:-0.564017 719:0.82105 720:0.088102 721:0.740039 722:0.541106 723:0.399432 724:1.685472 725:0.445598 726:0.333975 727:2.491217 728:0.908984 729:-0.234004 730:0.685419 731:0.689523 732:-0.564065 733:0.825725 734:0.003113 735:0.763183 736:0.494517 737:0.415938 738:1.685495 739:0.444859 740:0.380553 741:2.459766 742:0.880417 743:-0.234479 744:0.685224 745:0.689556 746:-0.571735 747:0.817487 748:-0.069531 749:0.777498 750:0.460127 751:0.428696 752:1.685349 753:0.443936 754:0.445394 755:2.41115 756:0.887928 757:-0.208137 758:0.687848 759:0.695374 760:0.042519 761:-0.815947 762:0.576561 763:0.356775 764:0.911667 765:0.203898 766:1.685908 767:0.444345 768:0.413123 769:0.49454 770:1.364235 771:-0.207626 772:0.687986 773:0.69539 774:0.040959 775:-0.802936 776:0.594656 777:0.364841 778:0.908506 779:0.203733 780:1.683484 781:0.444921 782:0.418291 783:0.49339 784:1.369943 785:-0.207902 786:0.688039 787:0.695255 788:0.027103 789:-0.783396 790:0.620932 791:0.37854 792:0.902064 793:0.207335 794:1.681643 795:0.445395 796:0.429276 797:0.490371 798:1.394694 799:-0.208965 800:0.688007 801:0.694968 802:-0.003335 803:-0.752189 804:0.658939 805:0.398519 806:0.891605 807:0.214998 808:1.680393 809:0.445769 810:0.449591 811:0.484781 812:1.442952 813:-0.210811 814:0.687887 815:0.694528 816:-0.060302 817:-0.697216 818:0.714321 819:0.425725 820:0.87586 821:0.227214 822:1.679734 823:0.446044 824:0.488641 825:0.475304 826:1.523628 827:-0.21343 828:0.687679 829:0.693935 830:-0.165506 831:-0.586611 832:0.792777 833:0.461426 834:0.852767 835:0.244692 836:1.679664 837:0.446219 838:0.576304 839:0.460601 840:1.652019 841:-0.21082 842:0.691606 843:0.690822 844:-0.061229 845:-0.817564 846:0.572572 847:0.373285 848:0.899365 849:0.227599 850:1.698063 851:0.441242 852:0.3692 853:0.290024 854:1.476969 855:-0.213044 856:0.689656 857:0.692089 858:-0.059469 859:-0.824913 860:0.562123 861:0.370781 862:0.899621 863:0.23066 864:1.698914 865:0.441201 866:0.398438 867:0.367283 868:1.487558 869:-0.214688 870:0.688075 871:0.693153 872:-0.056565 873:-0.829107 874:0.556221 875:0.369395 876:0.899678 877:0.232651 878:1.699147 879:0.441289 880:0.420753 881:0.431849 882:1.492951 883:-0.215759 884:0.686864 885:0.694022 886:-0.052526 887:-0.83029 888:0.55485 889:0.369118 890:0.899548 891:0.233591 892:1.698752 893:0.4415 894:0.436659 895:0.482091 896:1.494042 897:-0.216259 898:0.686022 899:0.694698 900:-0.047339 901:-0.828501 902:0.557984 903:0.36995 904:0.899234 905:0.233485 906:1.697725 907:0.441833 908:0.447082 909:0.517938 910:1.491617 911:-0.216188 912:0.685551 913:0.695186 914:-0.04098 915:-0.823672 916:0.565584 917:0.371899 918:0.89873 919:0.232328 920:1.696058 921:0.442284 922:0.453042 923:0.539925 924:1.486291 925:-0.215543 926:0.685451 927:0.695484 928:-0.033412 929:-0.815637 930:0.577598 931:0.374981 932:0.898022 933:0.2301 934:1.693743 935:0.442853 936:0.455459 937:0.548752 938:1.478487 939:-0.201269 940:0.702028 941:0.683116 942:-0.054697 943:-0.751872 944:0.657037 945:0.387266 946:0.899404 947:0.202725 948:1.692573 949:0.441394 950:0.258527 951:0.149269 952:1.399202 953:-0.200183 954:0.701528 955:0.683949 956:-0.056874 957:-0.75877 958:0.648871 959:0.388507 960:0.898177 961:0.205768 962:1.691824 963:0.441825 964:0.245768 965:0.15615 966:1.395982 967:-0.199808 968:0.700708 969:0.684898 970:-0.058421 971:-0.76637 972:0.639737 973:0.388884 974:0.897279 975:0.208949 976:1.691435 977:0.442144 978:0.241733 979:0.152456 980:1.397598 981:-0.200145 982:0.69957 983:0.685962 984:-0.05932 985:-0.774605 986:0.629657 987:0.388403 988:0.896709 989:0.212262 990:1.691409 991:0.442352 992:0.246265 993:0.138566 994:1.40389 995:-0.201192 996:0.698112 997:0.687139 998:-0.059563 999:-0.783396 1000:0.618663 1001:0.38707 1002:0.896465 1003:0.215702 1004:1.691748 1005:0.442452 1006:0.259598 1007:0.121543 1008:1.414512 1009:-0.202947 1010:0.696337 1011:0.688424 1012:-0.059145 1013:-0.792652 1014:0.606799 1015:0.384893 1016:0.896539 1017:0.219259 1018:1.692459 1019:0.442446 1020:0.28216 1021:0.122796 1022:1.428868 1023:-0.213524 1024:0.700366 1025:0.681099 1026:-0.015156 1027:-0.671216 1028:0.741107 1029:0.3714 1030:0.914407 1031:0.161004 1032:1.70206 1033:0.439308 1034:0.535832 1035:0.355897 1036:1.465203 1037:-0.213228 1038:0.700639 1039:0.68091 1040:-0.025059 1041:-0.695489 1042:0.718099 1043:0.372304 1044:0.91167 1045:0.17392 1046:1.700898 1047:0.438928 1048:0.482606 1049:0.309249 1050:1.461562 1051:-0.212638 1052:0.700843 1053:0.680885 1054:-0.034319 1055:-0.717423 1056:0.695792 1057:0.373418 1058:0.909033 1059:0.18498 1060:1.699733 1061:0.438723 1062:0.434517 1063:0.266392 1064:1.457314 1065:-0.211754 1066:0.700977 1067:0.681023 1068:-0.042622 1069:-0.736432 1070:0.675168 1071:0.374762 1072:0.906557 1073:0.194185 1074:1.698565 1075:0.438693 1076:0.39175 1077:0.228135 1078:1.452338 1079:-0.210575 1080:0.70104 1081:0.681324 1082:-0.049666 1083:-0.752037 1084:0.657246 1085:0.376356 1086:0.904288 1087:0.20154 1088:1.697394 1089:0.438838 1090:0.354356 1091:0.195419 1092:1.446517 1093:-0.209098 1094:0.701031 1095:0.681787 1096:-0.055194 1097:-0.763891 1098:0.642981 1099:0.378214 1100:0.902265 1101:0.207053 1102:1.69622 1103:0.439155 1104:0.322276 1105:0.169356 1106:1.439738 1107:-0.213213 1108:0.697808 1109:0.683816 1110:0.04247 1111:-0.471002 1112:0.881109 1113:0.376883 1114:0.92351 1115:0.071331 1116:1.708424 1117:0.440533 1118:0.821641 1119:0.566927 1120:1.429025 1121:-0.212838 1122:0.698142 1123:0.683592 1124:0.035436 1125:-0.509178 1126:0.859931 1127:0.373649 1128:0.924119 1129:0.07994 1130:1.707787 1131:0.441253 1132:0.808433 1133:0.567651 1134:1.448365 1135:-0.212519 1136:0.698475 1137:0.68335 1138:0.02845 1139:-0.543093 1140:0.83919 1141:0.371242 1142:0.924227 1143:0.089352 1144:1.707057 1145:0.441755 1146:0.788705 1147:0.559578 1148:1.463314 1149:-0.212258 1150:0.698809 1151:0.68309 1152:0.021386 1153:-0.573589 1154:0.818864 1155:0.36959 1156:0.923838 1157:0.099626 1158:1.706237 1159:0.442039 1160:0.761835 1161:0.542327 1162:1.474077 1163:-0.212055 1164:0.699143 1165:0.682811 1166:0.014093 1167:-0.601398 1168:0.798825 1169:0.36864 1170:0.922941 1171:0.110835 1172:1.705326 1173:0.442105 1174:0.727245 1175:0.515593 1176:1.480833 1177:-0.21191 1178:0.699477 1179:0.682514 1180:0.006386 1181:-0.627172 1182:0.778854 1183:0.368351 1184:0.921505 1185:0.123065 1186:1.704325 1187:0.441952 1188:0.684459 1189:0.479258 1190:1.483738 1191:-0.211823 1192:0.699812 1193:0.682199 1194:-0.001969 1195:-0.651519 1196:0.75863 1197:0.368696 1198:0.919485 1199:0.136419 1200:1.703233 1201:0.441583 1202:0.633208 1203:0.433589 1204:1.482923 1205:-0.215329 1206:0.694067 1207:0.686954 1208:0.064964 1209:-0.199525 1210:0.977737 1211:0.401752 1212:0.915593 1213:0.016859 1214:1.710509 1215:0.434849 1216:0.889193 1217:0.520924 1218:1.277223 1219:-0.215143 1220:0.695296 1221:0.685768 1222:0.066843 1223:-0.242888 1224:0.967749 1225:0.39878 1226:0.916526 1227:0.030884 1228:1.710285 1229:0.435625 1230:0.861758 1231:0.514564 1232:1.301312 1233:-0.214914 1234:0.696348 1235:0.684771 1236:0.066993 1237:-0.287801 1238:0.955344 1239:0.395553 1240:0.917406 1241:0.043637 1242:1.70999 1243:0.436413 1244:0.83712 1245:0.510925 1246:1.324652 1247:-0.214641 1248:0.697225 1249:0.683964 1250:0.065299 1251:-0.333604 1252:0.940449 1253:0.392106 1254:0.918264 1255:0.055177 1256:1.709624 1257:0.437213 1258:0.815583 1259:0.50963 1260:1.347436 1261:-0.214325 1262:0.697925 1263:0.683349 1264:0.061697 1265:-0.379553 1266:0.923111 1267:0.388472 1268:0.919126 1269:0.065559 1270:1.709187 1271:0.438026 1272:0.797346 1273:0.510382 1274:1.369844 1275:-0.213965 1276:0.698449 1277:0.682926 1278:0.05619 1279:-0.424864 1280:0.903511 1281:0.384677 1282:0.920012 1283:0.074843 1284:1.708678 1285:0.438852 1286:0.78253 1287:0.512991 1288:1.392035 1289:-0.214251 1290:0.684792 1291:0.696532 1292:0.045749 1293:-0.014056 1294:0.998854 1295:0.409496 1296:0.910554 1297:-0.056608 1298:1.708002 1299:0.429774 1300:0.938633 1301:0.537976 1302:1.114486 1303:-0.214876 1304:0.685731 1305:0.695414 1306:0.044526 1307:-0.025538 1308:0.998682 1309:0.410247 1310:0.910155 1311:-0.057583 1312:1.709206 1313:0.43057 1314:0.98106 1315:0.552769 1316:1.135232 1317:-0.215362 1318:0.686765 1319:0.694243 1320:0.044176 1321:-0.040446 1322:0.998205 1323:0.410378 1324:0.910257 1325:-0.054964 1326:1.710158 1327:0.43136 1328:1.004902 1329:0.569184 1330:1.156662 1331:-0.215707 1332:0.687892 1333:0.693018 1334:0.044615 1335:-0.059081 1336:0.997256 1337:0.409905 1338:0.910816 1339:-0.048917 1340:1.710862 1341:0.432145 1342:1.013356 1343:0.582671 1344:1.178793 1345:-0.215914 1346:0.689114 1347:0.691739 1348:0.045817 1349:-0.081982 1350:0.99558 1351:0.408833 1352:0.911748 1353:-0.03963 1354:1.711317 1355:0.432924 1356:1.008966 1357:0.590916 1358:1.201691 1359:-0.21598 1360:0.69043 1361:0.690405 1362:0.047812 1363:-0.109961 1364:0.992785 1365:0.407161 1366:0.912948 1367:-0.027313 1368:1.711524 1369:0.433696 1370:0.99353 1371:0.592639 1372:1.225466 1373:-0.182385 1374:0.760551 1375:0.623136 1376:0.230109 1377:0.41501 1378:0.880237 1379:0.362866 1380:0.916483 1381:-0.168488 1382:1.879283 1383:0.422777 1384:0.871209 1385:0.635124 1386:0.903026 1387:-0.193664 1388:0.730855 1389:0.654481 1390:0.179877 1391:0.286796 1392:0.940953 1393:0.3805 1394:0.919038 1395:-0.102899 1396:1.806399 1397:0.424105 1398:0.735091 1399:0.655407 1400:0.961455 1401:-0.203045 1402:0.704711 1403:0.67982 1404:0.121428 1405:0.141563 1406:0.982454 1407:0.392528 1408:0.918052 1409:-0.05569 1410:1.748049 1411:0.425485 1412:0.643347 1413:0.662358 1414:1.008296 1415:-0.210529 1416:0.683181 1417:0.699244 1418:0.064326 1419:0.002964 1420:0.997925 1421:0.400834 1422:0.915858 1423:-0.023141 1424:1.703602 1425:0.426828 1426:0.595828 1427:0.653079 1428:1.045212 1429:-0.216153 1430:0.667085 1431:0.712934 1432:0.018953 1433:-0.105335 1434:0.994256 1435:0.406566 1436:0.913618 1437:-0.002579 1438:1.672272 1439:0.428068 1440:0.588316 1441:0.627231 1442:1.074436 1443:-0.219962 1444:0.657003 1445:0.721085 1446:-0.009002 1447:-0.171751 1448:0.985099 1449:0.410402 1450:0.911871 1451:0.007784 1452:1.653364 1453:0.429161 1454:0.615436 1455:0.587691 1456:1.098098 1457:-0.221992 1458:0.65328 1459:0.723841 1460:-0.018986 1461:-0.196345 1462:0.980351 1463:0.412719 1464:0.910813 1465:0.009029 1466:1.646409 1467:0.430082 1468:0.672943 1469:0.542983 1470:1.117979 1471:-0.135116 1472:0.84648 1473:0.51499 1474:0.319871 1475:0.665963 1476:0.673926 1477:0.221791 1478:0.709755 1479:-0.668623 1480:2.194121 1481:0.415905 1482:1.616847 1483:0.568921 1484:0.549418 1485:-0.132608 1486:0.85964 1487:0.49339 1488:0.320507 1489:0.663006 1490:0.676534 1491:0.211505 1492:0.748375 1493:-0.628649 1494:2.214697 1495:0.417923 1496:1.585961 1497:0.575628 1498:0.59502 1499:-0.132914 1500:0.865414 1501:0.483107 1502:0.318948 1503:0.654647 1504:0.685353 1505:0.215232 1506:0.786581 1507:-0.578761 1508:2.214 1509:0.419803 1510:1.538945 1511:0.579394 1512:0.641583 1513:-0.136018 1514:0.86456 1515:0.483772 1516:0.314748 1517:0.639579 1518:0.701336 1519:0.229576 1520:0.823397 1521:-0.518953 1522:2.194168 1523:0.421519 1524:1.473336 1525:0.581134 1526:0.691965 1527:-0.141976 1528:0.857035 1529:0.495312 1530:0.306931 1531:0.615179 1532:0.726187 1533:0.252034 1534:0.857183 1535:-0.449129 1536:2.155621 1537:0.423043 1538:1.385244 1539:0.582152 1540:0.74854 1541:-0.150909 1542:0.842001 1543:0.517939 1544:0.293533 1545:0.576406 1546:0.762624 1547:0.280428 1548:0.885855 1549:-0.369624 1550:2.097471 1551:0.42435 1552:1.269679 1553:0.584326 1554:0.812599 1555:-0.192961 1556:0.640806 1557:0.743057 1558:0.264818 1559:0.63533 1560:0.725415 1561:0.764036 1562:0.416769 1563:-0.492496 1564:1.759602 1565:0.402501 1566:1.591555 1567:0.486046 1568:0.281906 1569:-0.185305 1570:0.647154 1571:0.739495 1572:0.276867 1573:0.629516 1574:0.725985 1575:0.700119 1576:0.43595 1577:-0.565491 1578:1.777884 1579:0.404238 1580:1.586085 1581:0.491025 1582:0.29148 1583:-0.177973 1584:0.660351 1585:0.729563 1586:0.287261 1587:0.62561 1588:0.725323 1589:0.625431 1590:0.475436 1591:-0.618706 1592:1.806125 1593:0.405925 1594:1.580364 1595:0.497162 1596:0.31009 1597:-0.170969 1598:0.679916 1599:0.71308 1600:0.296061 1601:0.623608 1602:0.723506 1603:0.547019 1604:0.527662 1605:-0.649879 1606:1.844776 1607:0.407481 1608:1.574215 1609:0.504471 1610:0.338051 1611:-0.164267 1612:0.705023 1613:0.689897 1614:0.303319 1615:0.623493 1616:0.720593 1617:0.471155 1618:0.584624 1619:-0.660476 1620:1.893741 1621:0.40891 1622:1.567448 1623:0.51302 1624:0.375409 1625:-0.157818 1626:0.734513 1627:0.659988 1628:0.309081 1629:0.62524 1630:0.71662 1631:0.40229 1632:0.640043 1633:-0.654605 1634:1.951985 1635:0.410295 1636:1.559862 1637:0.522935 1638:0.421634 1639:-0.151569 1640:0.766946 1641:0.623555 1642:0.313382 1643:0.628812 1644:0.711609 1645:0.342717 1646:0.690187 1647:-0.637328 1648:2.017102 1649:0.411809 1650:1.551247 1651:0.534387 1652:0.475439 1653:-0.14548 1654:0.800711 1655:0.581118 1656:0.316249 1657:0.634163 1658:0.705566 1659:0.292917 1660:0.733546 1661:-0.613278 1662:2.085111 1663:0.413726 1664:1.54139 1665:0.547587 1666:0.534775 1667:-0.139531 1668:0.834174 1669:0.533559 1670:0.3177 1671:0.64124 1672:0.698483 1673:0.252222 1674:0.770057 1675:-0.586001 1676:2.150819 1677:0.416433 1678:1.53008 1679:0.562776 1680:0.597054 1681:-0.222123 1682:0.674353 1683:0.704209 1684:0.206069 1685:0.672062 1686:0.711244 1687:0.826366 1688:0.537109 1689:-0.169215 1690:1.763612 1691:0.399396 1692:1.611605 1693:0.479232 1694:0.321127 
0 0 0 0 0 49.63778155634991 0 0 0 1:-0.258089 2:0.687571 3:0.678702 4:0.301673 5:0.567572 6:0.766065 7:0.393851 8:0.755988 9:-0.522842 10:1.633224 11:0.37345 12:1.629494 13:0.632886 14:0.406162 15:-0.261013 16:0.686696 17:0.678469 18:0.012724 19:-0.394294 20:0.918896 21:0.357556 22:0.930598 23:-0.078362 24:1.6022 25:0.430482 26:0.893407 27:0.619066 28:1.285263 29:-0.255913 30:0.686519 31:0.680588 32:-0.001656 33:-0.3912 34:0.920304 35:0.36519 36:0.925785 37:-0.097761 38:1.595053 39:0.425751 40:0.918791 41:0.619547 42:1.28692 43:-0.251711 44:0.686373 45:0.6823 46:-0.006514 47:-0.372916 48:0.927842 49:0.371585 50:0.921195 51:-0.115435 52:1.589665 53:0.421107 54:0.943879 55:0.620573 56:1.28063 57:-0.248412 58:0.686268 59:0.683613 60:-0.002731 61:-0.339662 62:0.940544 63:0.377048 64:0.916716 65:-0.132158 66:1.586176 67:0.416343 68:0.969812 69:0.621978 70:1.266039 71:-0.246019 72:0.686211 73:0.684536 74:0.009434 75:-0.290463 76:0.95684 77:0.381805 78:0.912211 79:-0.148649 80:1.584672 81:0.411323 82:0.998036 83:0.623609 84:1.242185 85:-0.244535 86:0.686206 87:0.685072 88:0.030087 89:-0.223583 90:0.97422 91:0.386025 92:0.907489 93:-0.165676 94:1.585186 95:0.405989 96:1.03052 97:0.625332 98:1.207371 99:-0.243966 100:0.686258 101:0.685222 102:0.059366 103:-0.137186 104:0.988765 105:0.389839 106:0.902275 107:-0.184191 108:1.587702 109:0.400368 110:1.070051 111:0.627029 112:1.158953 113:-0.244316 114:0.686369 115:0.684987 116:0.096932 117:-0.030505 118:0.994823 119:0.393344 120:0.896118 121:-0.205555 122:1.592157 123:0.394571 124:1.120612 125:0.628607 126:1.093038 127:-0.245591 128:0.686537 129:0.684363 130:0.14131 131:0.094438 132:0.985451 133:0.396603 134:0.888194 135:-0.231988 136:1.598435 137:0.388799 138:1.187628 139:0.629993 140:1.004224 141:-0.262563 142:0.689378 143:0.675144 144:0.043492 145:-0.49018 146:0.870535 147:0.326725 148:0.944937 149:-0.018568 150:1.625925 151:0.442621 152:0.911943 153:0.746855 154:1.394223 155:-0.265203 156:0.688281 157:0.675231 158:0.041226 159:-0.447187 160:0.89349 161:0.335076 162:0.941647 163:-0.032033 164:1.619867 165:0.440376 166:0.885215 167:0.686955 168:1.342239 169:-0.266679 170:0.68737 171:0.675578 172:0.039349 173:-0.405553 174:0.913224 175:0.343228 176:0.938097 177:-0.046574 178:1.614238 179:0.437599 180:0.87047 181:0.64146 182:1.298784 183:-0.266983 184:0.68665 185:0.676189 186:0.037898 187:-0.366039 188:0.929828 189:0.351097 190:0.934274 191:-0.06215 192:1.609031 193:0.43429 194:0.866498 195:0.608535 196:1.263236 197:-0.266108 198:0.686124 199:0.677068 200:0.036896 201:-0.329265 202:0.943516 203:0.358593 204:0.930171 205:-0.0787 206:1.604236 207:0.430456 208:0.872423 209:0.586785 210:1.235093 211:-0.264049 212:0.68579 213:0.678211 214:0.03635 215:-0.295696 216:0.95459 217:0.365627 218:0.925783 219:-0.096137 220:1.599833 221:0.426107 222:0.887737 223:0.575259 224:1.213954 225:-0.243782 226:0.694433 227:0.677004 228:0.056082 229:-0.680597 230:0.730509 231:0.295441 232:0.954118 233:0.048708 234:1.664688 235:0.444916 236:1.115223 237:1.139284 238:1.700114 239:-0.242637 240:0.694853 241:0.676984 242:0.055754 243:-0.673888 244:0.736727 245:0.293969 246:0.954985 247:0.039807 248:1.660721 249:0.445917 250:1.131466 251:1.152834 252:1.702917 253:-0.242366 254:0.694984 255:0.676946 256:0.055138 257:-0.662179 258:0.747315 259:0.294014 260:0.95531 261:0.030635 262:1.656377 263:0.446393 264:1.136876 265:1.147452 266:1.693496 267:-0.242971 268:0.694825 269:0.676892 270:0.054209 271:-0.645147 272:0.762133 273:0.295609 274:0.955076 275:0.021087 276:1.651633 277:0.446361 278:1.131364 279:1.123142 280:1.671662 281:-0.244455 282:0.694376 283:0.676819 284:0.052931 285:-0.622317 286:0.780974 287:0.298819 288:0.954246 289:0.011047 290:1.646465 291:0.445837 292:1.114643 293:1.080117 294:1.637403 295:-0.246821 296:0.693629 297:0.676726 298:0.051261 299:-0.59308 300:0.80351 301:0.303744 302:0.952754 303:0.000385 304:1.640844 305:0.444836 306:1.086495 307:1.019067 308:1.590939 309:-0.250078 310:0.692579 311:0.676606 312:0.049141 313:-0.556725 314:0.829242 315:0.310524 316:0.950501 317:-0.011056 318:1.634735 319:0.443371 320:1.047238 321:0.941582 322:1.532804 323:-0.255743 324:0.690788 325:0.676319 326:0.055682 327:-0.685295 328:0.726134 329:0.31288 330:0.94457 331:0.099465 332:1.678209 333:0.442716 334:0.928475 335:0.914011 336:1.594275 337:-0.255167 338:0.690714 339:0.676612 340:0.055415 341:-0.676529 342:0.734328 343:0.312673 344:0.945601 345:0.089855 346:1.677405 347:0.439813 348:0.950829 349:0.933056 350:1.598666 351:-0.254348 352:0.690786 353:0.676847 354:0.055175 355:-0.668963 356:0.741245 357:0.311989 358:0.946679 359:0.080384 360:1.675971 361:0.437788 362:0.973284 363:0.953295 364:1.604187 365:-0.253286 366:0.691003 367:0.677024 368:0.054962 369:-0.662545 370:0.747003 371:0.310826 372:0.947807 373:0.071053 374:1.673925 375:0.436636 376:0.995964 377:0.974824 378:1.610899 379:-0.251981 380:0.691365 381:0.677141 382:0.054776 383:-0.65723 384:0.751697 385:0.309185 386:0.948988 387:0.061862 388:1.671286 389:0.436356 390:1.018991 391:0.997758 392:1.618862 393:-0.250434 394:0.691871 395:0.677198 396:0.054617 397:-0.652981 398:0.755403 399:0.307061 400:0.950223 401:0.052813 402:1.668066 403:0.436951 404:1.042483 405:1.022229 406:1.628138 407:-0.254318 408:0.695584 409:0.671927 410:0.063612 411:-0.740591 412:0.668938 413:0.308748 414:0.940159 415:0.14414 416:1.672723 417:0.463274 418:0.806214 419:0.831364 420:1.579835 421:-0.254944 422:0.694259 423:0.673059 424:0.060628 425:-0.739805 426:0.670084 427:0.308702 428:0.940216 429:0.143863 430:1.673445 431:0.464245 432:0.815655 433:0.835661 434:1.582524 435:-0.255404 436:0.693135 437:0.674042 438:0.05818 439:-0.737004 440:0.673379 441:0.30877 442:0.940507 443:0.141799 444:1.674098 445:0.464219 446:0.827848 447:0.842615 448:1.585236 449:-0.255699 450:0.692211 451:0.674879 452:0.05627 453:-0.732228 454:0.678731 455:0.308949 456:0.941022 457:0.137946 458:1.674679 459:0.463196 460:0.84279 461:0.85221 462:1.587994 463:-0.255829 464:0.691488 465:0.675571 466:0.05489 467:-0.725523 468:0.686005 469:0.309232 470:0.94174 471:0.132293 472:1.675177 473:0.461179 474:0.860417 475:0.86441 476:1.590815 477:-0.255795 478:0.690964 479:0.67612 480:0.054026 481:-0.716947 482:0.695031 483:0.309611 484:0.942635 485:0.124825 486:1.675572 487:0.458176 488:0.880606 489:0.879159 490:1.593714 491:-0.246741 492:0.71819 493:0.650632 494:0.08289 495:-0.705074 496:0.704273 497:0.317162 498:0.940705 499:0.120341 500:1.631234 501:0.443789 502:0.772739 503:0.807095 504:1.54492 505:-0.248146 506:0.711905 507:0.656973 508:0.082105 509:-0.713285 510:0.696048 511:0.31416 512:0.941278 513:0.123692 514:1.646807 515:0.445883 516:0.780137 517:0.819896 518:1.554555 519:-0.249424 520:0.706473 521:0.662332 522:0.080812 523:-0.720136 524:0.689111 525:0.311688 526:0.941697 527:0.126719 528:1.65981 529:0.44847 530:0.787479 531:0.830707 532:1.56299 533:-0.250584 534:0.701895 535:0.666746 536:0.079022 537:-0.725704 538:0.683453 539:0.309735 540:0.941972 541:0.129433 542:1.6702 543:0.451261 544:0.794743 545:0.839517 546:1.570219 547:-0.251636 548:0.698172 549:0.67025 550:0.076743 551:-0.730056 552:0.679064 553:0.308294 554:0.94211 555:0.131846 556:1.677939 557:0.454023 558:0.801901 559:0.846308 560:1.57623 561:-0.252588 562:0.695304 563:0.672868 564:0.07398 565:-0.733242 566:0.675932 567:0.307357 568:0.942117 569:0.133963 570:1.682999 571:0.456586 572:0.808926 573:0.851057 574:1.581005 575:-0.253444 576:0.69329 577:0.674623 578:0.070734 579:-0.735298 580:0.674042 581:0.30692 582:0.941998 583:0.135793 584:1.685358 585:0.458839 586:0.815784 587:0.853735 588:1.584518 589:-0.239117 590:0.747048 591:0.620276 592:0.073511 593:-0.617557 594:0.783083 595:0.346052 596:0.932753 597:0.101095 598:1.556028 599:0.446638 600:0.736535 601:0.710358 602:1.47606 603:-0.239741 604:0.747506 605:0.619482 606:0.077766 607:-0.641341 608:0.763304 609:0.339023 610:0.935096 611:0.103247 612:1.555433 613:0.446229 614:0.740938 615:0.727933 616:1.488481 617:-0.240579 618:0.746456 619:0.620423 620:0.080939 621:-0.661468 622:0.745593 623:0.332824 624:0.937047 625:0.105692 626:1.558405 627:0.445524 628:0.746147 629:0.7449 630:1.500388 631:-0.241627 632:0.743895 633:0.623086 634:0.083106 635:-0.678328 636:0.730044 637:0.327406 638:0.938642 639:0.108431 640:1.564971 641:0.444598 642:0.752059 643:0.761223 644:1.511847 645:-0.242874 646:0.73982 647:0.627438 648:0.084331 649:-0.692259 650:0.716705 651:0.322725 652:0.939906 653:0.111469 654:1.575181 655:0.443647 656:0.758588 657:0.776872 658:1.522916 659:-0.244304 660:0.734226 661:0.633425 662:0.084667 663:-0.703544 664:0.70559 665:0.318746 666:0.940861 667:0.114811 668:1.589107 669:0.442988 670:0.765656 671:0.79182 672:1.53365 673:-0.236962 674:0.725587 675:0.646044 676:0.039889 677:-0.458403 678:0.887849 679:0.388763 680:0.916374 681:0.095508 682:1.605341 683:0.448954 684:0.725643 685:0.595332 686:1.408241 687:-0.237723 688:0.726859 689:0.644332 690:0.04009 691:-0.458388 692:0.887847 693:0.388639 694:0.916467 695:0.095118 696:1.602146 697:0.448549 698:0.727544 699:0.609866 700:1.410385 701:-0.238403 702:0.728398 703:0.64234 704:0.041598 705:-0.465398 706:0.884124 707:0.386744 708:0.917262 709:0.095177 710:1.598434 711:0.448086 712:0.728987 713:0.624806 714:1.414794 715:-0.239 716:0.730203 717:0.640065 718:0.04439 719:-0.479269 720:0.876545 721:0.383105 722:0.918736 723:0.095682 724:1.594209 725:0.447585 726:0.730235 727:0.640253 728:1.421449 729:-0.239514 730:0.732274 731:0.637502 732:0.048415 733:-0.499648 734:0.864875 735:0.377782 736:0.92084 737:0.096617 738:1.589474 739:0.44707 740:0.731552 741:0.656326 742:1.430323 743:-0.239943 744:0.73461 745:0.634645 746:0.053591 747:-0.52597 748:0.848813 749:0.370858 750:0.923509 751:0.097957 752:1.584233 753:0.446568 754:0.733201 755:0.673167 756:1.441371 757:-0.230556 758:0.720593 759:0.653903 760:-0.030818 761:-0.188083 762:0.98167 763:0.462018 764:0.878073 765:0.124609 766:1.61926 767:0.449916 768:1.548488 769:0.833566 770:1.697882 771:-0.231564 772:0.721493 773:0.652554 774:0.007792 775:-0.351255 776:0.936247 777:0.421622 778:0.899569 779:0.114064 780:1.617029 781:0.449894 782:1.022552 783:0.645995 784:1.577745 785:-0.232543 786:0.722405 787:0.651194 788:0.034961 789:-0.459745 790:0.887363 791:0.391848 792:0.913899 793:0.106041 794:1.614729 795:0.449818 796:0.8049 797:0.57266 798:1.479147 799:-0.233494 800:0.72333 801:0.649826 802:0.05298 803:-0.528399 804:0.847341 805:0.370722 806:0.923338 807:0.100056 808:1.612361 809:0.449688 810:0.697001 811:0.539296 812:1.411729 813:-0.234417 814:0.724268 815:0.648448 816:0.064117 817:-0.568978 818:0.81985 819:0.356897 820:0.929222 821:0.095766 822:1.609924 823:0.449508 824:0.640047 825:0.525097 826:1.368519 827:-0.235312 828:0.725219 829:0.64706 830:0.069896 831:-0.588656 832:0.805356 833:0.349528 834:0.932305 835:0.092945 836:1.607419 837:0.449278 838:0.612674 839:0.522824 840:1.344082 841:-0.225112 842:0.715208 843:0.661667 844:-0.176667 845:0.415634 846:0.892209 847:0.620582 848:0.765342 849:0.170673 850:1.631318 851:0.45027 852:0.675803 853:2.797079 854:1.10069 855:-0.225548 856:0.71592 857:0.660747 858:-0.189291 859:0.545739 860:0.816295 861:0.675439 862:0.71458 863:0.182091 864:1.629929 865:0.449991 866:0.50706 867:2.844062 868:0.933113 869:-0.226085 870:0.716663 871:0.659757 872:-0.192535 873:0.609384 874:0.769143 875:0.710657 876:0.677771 877:0.18866 878:1.628405 879:0.44976 880:0.441098 881:2.858207 882:0.850022 883:-0.226725 884:0.717438 885:0.658695 886:-0.190645 887:0.629266 888:0.753445 889:0.724375 890:0.662663 891:0.190153 892:1.626746 893:0.449579 894:0.430853 895:2.860779 896:0.826302 897:-0.227467 898:0.718243 899:0.65756 900:-0.184549 901:0.612946 902:0.76827 903:0.716138 904:0.672546 905:0.186622 906:1.624953 907:0.449448 908:0.469862 909:2.853189 910:0.855145 911:-0.228312 912:0.719079 913:0.656353 914:-0.172841 915:0.555601 916:0.813286 917:0.6861 918:0.705351 919:0.178178 920:1.623024 921:0.44937 922:0.581039 923:2.821244 924:0.945564 925:-0.229258 926:0.719945 927:0.655072 928:-0.151417 929:0.439372 930:0.885452 931:0.635577 932:0.754169 933:0.16514 934:1.62096 935:0.449345 936:0.859883 937:2.699912 938:1.126825 939:-0.224264 940:0.71363 941:0.663655 942:0.032477 943:-0.63798 944:0.769368 945:0.347742 946:0.93107 947:0.110377 948:1.634298 949:0.447851 950:0.766147 951:0.584392 952:1.526192 953:-0.224264 954:0.713294 955:0.664015 956:0.022665 957:-0.612158 958:0.790411 959:0.356696 960:0.927539 961:0.111533 962:1.634766 963:0.4496 964:0.831727 965:0.592936 966:1.567562 967:-0.224339 968:0.71316 969:0.664135 970:0.008388 971:-0.565957 972:0.824392 973:0.371282 974:0.921483 975:0.114096 976:1.634881 977:0.45095 978:0.947277 979:0.625879 980:1.622555 981:-0.224489 982:0.713226 983:0.664013 984:-0.011672 985:-0.491511 986:0.870793 987:0.392291 988:0.912212 989:0.118225 990:1.634646 991:0.451899 992:1.157794 993:0.706358 994:1.691567 995:-0.224713 996:0.713493 997:0.66365 998:-0.039 999:-0.377136 1000:0.925336 1001:0.420887 1002:0.898575 1003:0.124164 1004:1.634062 1005:0.452446 1006:1.574811 1007:0.902726 1008:1.763923 1009:-0.225013 1010:0.713961 1011:0.663045 1012:-0.074194 1013:-0.209997 1014:0.974883 1015:0.458698 1016:0.878695 1017:0.132254 1018:1.633131 1019:0.452593 1020:2.315666 1021:1.419865 1022:1.778963 1023:-0.2209 1024:0.719179 1025:0.658775 1026:0.034072 1027:-0.503771 1028:0.863165 1029:0.38878 1030:0.915821 1031:0.10061 1032:1.627416 1033:0.43255 1034:0.763019 1035:0.666797 1036:1.447964 1037:-0.222667 1038:0.718268 1039:0.659174 1040:0.038125 1041:-0.548691 1042:0.835155 1043:0.375622 1044:0.920404 1045:0.108466 1046:1.627999 1047:0.434235 1048:0.742288 1049:0.669471 1050:1.44969 1051:-0.224085 1052:0.71742 1053:0.659617 1054:0.040242 1055:-0.581634 1056:0.812454 1057:0.365797 1058:0.923619 1059:0.114542 1060:1.628635 1061:0.436017 1062:0.732446 1063:0.671025 1064:1.456359 1065:-0.22516 1066:0.716634 1067:0.660105 1068:0.04056 1069:-0.604215 1070:0.795788 1071:0.359043 1072:0.9257 1073:0.119031 1074:1.629326 1075:0.437895 1076:0.732293 1077:0.671492 1078:1.468002 1079:-0.225894 1080:0.715911 1081:0.660638 1082:0.039138 1083:-0.617518 1084:0.785582 1085:0.355186 1086:0.926792 1087:0.122063 1088:1.630072 1089:0.439868 1090:0.74169 1091:0.670867 1092:1.484759 1093:-0.22629 1094:0.715249 1095:0.661219 1096:0.035949 1097:-0.622062 1098:0.782142 1099:0.354136 1100:0.926975 1101:0.123716 1102:1.630876 1103:0.441937 1104:0.76151 1105:0.669112 1106:1.506879 1107:-0.216226 1108:0.718143 1109:0.661451 1110:0.021899 1111:-0.260494 1112:0.965227 1113:0.446881 1114:0.893939 1115:0.034206 1116:1.621236 1117:0.424886 1118:0.988989 1119:0.634165 1120:1.444658 1121:-0.214018 1122:0.720232 1123:0.659895 1124:0.012805 1125:-0.230898 1126:0.972894 1127:0.45956 1128:0.887288 1129:0.039062 1130:1.622888 1131:0.425523 1132:0.999704 1133:0.638271 1134:1.457695 1135:-0.212555 1136:0.721788 1137:0.658667 1138:0.006064 1139:-0.216679 1140:0.976224 1141:0.466798 1142:0.883201 1143:0.045333 1144:1.624367 1145:0.426322 1146:0.998961 1147:0.642455 1148:1.469199 1149:-0.211844 1150:0.722812 1151:0.657773 1152:0.001926 1153:-0.219209 1154:0.975676 1155:0.468416 1156:0.881922 1157:0.052915 1158:1.625659 1159:0.427283 1160:0.985958 1161:0.646647 1162:1.478533 1163:-0.211887 1164:0.723304 1165:0.657217 1166:0.00058 1167:-0.239332 1168:0.970938 1169:0.464413 1170:0.883471 1171:0.061641 1172:1.626757 1173:0.428408 1174:0.961221 1175:0.650795 1176:1.485084 1177:-0.21268 1178:0.723267 1179:0.657003 1180:0.002157 1181:-0.277229 1182:0.960802 1183:0.454967 1184:0.887649 1185:0.071297 1186:1.627654 1187:0.429698 1188:0.926616 1189:0.654863 1190:1.488359 1191:-0.21422 1192:0.722701 1193:0.657125 1194:0.006695 1195:-0.332054 1196:0.943236 1197:0.440431 1198:0.894068 1199:0.081624 1200:1.628345 1201:0.431158 1202:0.885012 1203:0.65883 1204:1.488122 1205:-0.228177 1206:0.695344 1207:0.681492 1208:0.067133 1209:-0.393894 1210:0.916701 1211:0.375234 1212:0.926849 1213:0.012276 1214:1.637199 1215:0.425253 1216:0.924105 1217:0.613 1218:1.364608 1219:-0.22862 1220:0.700942 1221:0.675584 1222:0.066121 1223:-0.416552 1224:0.906704 1225:0.372761 1226:0.927724 1227:0.01945 1228:1.626207 1229:0.424358 1230:0.91155 1231:0.616933 1232:1.379765 1233:-0.228466 1234:0.705915 1235:0.670438 1236:0.063761 1237:-0.429899 1238:0.900623 1239:0.373481 1240:0.927278 1241:0.025822 1242:1.617755 1243:0.423985 1244:0.903517 1245:0.620838 1246:1.393749 1247:-0.22771 1248:0.710262 1249:0.66609 1250:0.059992 1251:-0.433756 1252:0.899031 1253:0.377362 1254:0.92553 1255:0.0315 1256:1.611817 1257:0.423979 1258:0.899839 1259:0.624722 1260:1.406832 1261:-0.226354 1262:0.713978 1263:0.66257 1264:0.054693 1265:-0.427605 1266:0.90231 1267:0.384454 1268:0.922419 1269:0.036569 1270:1.608374 1271:0.424223 1272:0.900563 1273:0.628594 1274:1.419283 1275:-0.224396 1276:0.71706 1277:0.659902 1278:0.04768 1279:-0.410508 1280:0.91061 1281:0.394889 1282:0.917809 1283:0.041095 1284:1.607413 1285:0.424639 1286:0.905981 1287:0.632465 1288:1.431386 1289:-0.221899 1290:0.658412 1291:0.719204 1292:0.05426 1293:-0.132635 1294:0.989679 1295:0.425395 1296:0.901948 1297:-0.074359 1298:1.699877 1299:0.436123 1300:1.096903 1301:0.594675 1302:1.223137 1303:-0.221221 1304:0.661261 1305:0.716795 1306:0.05577 1307:-0.161779 1308:0.98525 1309:0.42407 1310:0.903966 1311:-0.054854 1312:1.704789 1313:0.437526 1314:1.070647 1315:0.594433 1316:1.248512 1317:-0.220887 1318:0.664736 1319:0.713677 1320:0.057165 1321:-0.192125 1322:0.979704 1323:0.421491 1324:0.906049 1325:-0.037677 1326:1.706103 1327:0.437955 1328:1.04487 1329:0.595662 1330:1.272155 1331:-0.220895 1332:0.668844 1333:0.709826 1334:0.058429 1335:-0.223621 1336:0.972923 1337:0.417764 1338:0.908272 1339:-0.022687 1340:1.70383 1341:0.437447 1342:1.020052 1343:0.597923 1344:1.294167 1345:-0.22124 1346:0.673592 1347:0.705214 1348:0.059547 1349:-0.256191 1350:0.96479 1351:0.412978 1352:0.910689 1353:-0.009749 1354:1.697987 1355:0.436095 1356:0.996526 1357:0.600893 1358:1.314666 1359:-0.221925 1360:0.678992 1361:0.6998 1362:0.060501 1363:-0.289737 1364:0.955192 1365:0.407204 1366:0.913336 1367:0.00126 1368:1.688593 1369:0.434046 1370:0.974501 1371:0.604351 1372:1.333779 1373:-0.231421 1374:0.650063 1375:0.723784 1376:0.078608 1377:0.032155 1378:0.996387 1379:0.402672 1380:0.890878 1381:-0.210217 1382:1.632075 1383:0.419291 1384:1.177167 1385:0.573551 1386:1.026827 1387:-0.229976 1388:0.650862 1389:0.723526 1390:0.066057 1391:0.009135 1392:0.997774 1393:0.408733 1394:0.891056 1395:-0.197373 1396:1.638535 1397:0.420659 1398:1.183952 1399:0.592436 1400:1.056848 1401:-0.228611 1402:0.651926 1403:0.723001 1404:0.056052 1405:-0.01391 1406:0.998331 1407:0.413656 1408:0.891905 1409:-0.182742 1410:1.645299 1411:0.422171 1412:1.186244 1413:0.606706 1414:1.086627 1415:-0.227323 1416:0.653253 1417:0.722208 1418:0.048472 1419:-0.037262 1420:0.998129 1421:0.417508 1422:0.893307 1423:-0.166405 1424:1.652371 1425:0.423827 1426:1.183674 1427:0.616578 1428:1.116127 1429:-0.226111 1430:0.654841 1431:0.72115 1432:0.043253 1433:-0.061215 1434:0.997187 1435:0.420334 1436:0.895147 1437:-0.148432 1438:1.659754 1439:0.425624 1440:1.175837 1441:0.622298 1442:1.145273 1443:-0.224975 1444:0.656687 1445:0.719825 1446:0.040386 1447:-0.086087 1448:0.995469 1449:0.422166 1450:0.89731 1451:-0.128882 1452:1.667449 1453:0.427562 1454:1.162298 1455:0.624149 1456:1.17395 1457:-0.223913 1458:0.658788 1459:0.718235 1460:0.039921 1461:-0.112226 1462:0.992881 1463:0.423025 1464:0.899681 1465:-0.107814 1466:1.67546 1467:0.42964 1468:1.142617 1469:0.622468 1470:1.201992 1471:-0.238383 1472:0.647644 1473:0.723693 1474:0.159402 1475:0.202089 1476:0.966308 1477:0.404274 1478:0.888127 1479:-0.218616 1480:1.607368 1481:0.411828 1482:1.211704 1483:0.480179 1484:0.807339 1485:-0.237798 1486:0.648366 1487:0.723238 1488:0.152536 1489:0.162533 1490:0.974841 1491:0.386973 1492:0.892628 1493:-0.231229 1494:1.609161 1495:0.413618 1496:1.169253 1497:0.475588 1498:0.86165 1499:-0.237027 1500:0.649074 1501:0.722856 1502:0.143625 1503:0.124118 1504:0.981818 1505:0.376244 1506:0.895593 1507:-0.237388 1508:1.611852 1509:0.415284 1510:1.136926 1511:0.47615 1512:0.91052 1513:-0.236071 1514:0.649766 1515:0.722547 1516:0.132788 1517:0.087899 1518:0.987239 1519:0.370999 1520:0.897548 1521:-0.238259 1522:1.61544 1523:0.41683 1524:1.114907 1525:0.481956 1526:0.954037 1527:-0.234932 1528:0.650441 1529:0.722311 1530:0.120239 1531:0.054864 1532:0.991228 1533:0.370455 1534:0.89874 1535:-0.234585 1536:1.619926 1537:0.418265 1538:1.103241 1539:0.493096 1540:0.99247 1541:-0.233613 1542:0.651097 1543:0.722148 1544:0.106267 1545:0.025853 1546:0.994002 1547:0.374052 1548:0.899243 1549:-0.22682 1550:1.625306 1551:0.419601 1552:1.101877 1553:0.509641 1554:1.026203 1555:-0.253051 1556:0.640586 1557:0.724993 1558:0.179162 1559:0.422091 1560:0.888673 1561:0.643274 1562:0.765452 1563:0.016796 1564:1.640656 1565:0.384017 1566:1.532835 1567:0.552674 1568:0.45743 1569:-0.246856 1570:0.642272 1571:0.725636 1572:0.174675 1573:0.396585 1574:0.901226 1575:0.619159 1576:0.785231 1577:-0.00743 1578:1.626492 1579:0.391995 1580:1.512465 1581:0.552168 1582:0.489018 1583:-0.241738 1584:0.643764 1585:0.726038 1586:0.170378 1587:0.370118 1588:0.913227 1589:0.592005 1590:0.805176 1591:-0.03494 1592:1.615153 1593:0.399189 1594:1.486804 1595:0.549765 1596:0.524946 1597:-0.237706 1598:0.645071 1599:0.726209 1600:0.166216 1601:0.34228 1602:0.924779 1603:0.562518 1604:0.824264 1605:-0.064512 1606:1.606604 1607:0.405367 1608:1.455461 1609:0.545438 1610:0.565684 1611:-0.234769 1612:0.646203 1613:0.726158 1614:0.16213 1615:0.31259 1616:0.935949 1617:0.531417 1618:0.841757 1619:-0.095085 1620:1.600817 1621:0.410371 1622:1.418023 1623:0.539161 1624:0.611651 1625:-0.232934 1626:0.647163 1627:0.725894 1628:0.158053 1629:0.280472 1630:0.94676 1631:0.499404 1632:0.857192 1633:-0.12577 1634:1.597773 1635:0.414099 1636:1.374081 1637:0.530909 1638:0.663189 1639:-0.232207 1640:0.647956 1641:0.725419 1642:0.153905 1643:0.245212 1644:0.957175 1645:0.467124 1646:0.870344 1647:-0.15587 1648:1.597466 1649:0.416499 1650:1.32327 1651:0.520657 1652:0.720527 1653:-0.23259 1654:0.648583 1655:0.724736 1656:0.149584 1657:0.205925 1658:0.967068 1659:0.435133 1660:0.881183 1661:-0.184867 1662:1.5999 1663:0.417565 1664:1.265308 1665:0.50838 1666:0.783743 1667:-0.234086 1668:0.649043 1669:0.723842 1670:0.144957 1671:0.161486 1672:0.976171 1673:0.403885 1674:0.889809 1675:-0.212408 1676:1.605091 1677:0.417328 1678:1.200061 1679:0.494058 1680:0.852731 1681:-0.284376 1682:0.632614 1683:0.720368 1684:0.197877 1685:0.511889 1686:0.835951 1687:0.694561 1688:0.717374 1689:0.054398 1690:1.716412 1691:0.354712 1692:1.567459 1693:0.538985 1694:0.37214 
0 13.73103141596073 7.769031018661899 11.63300247939328 0 0 12.24407757553548 5.052836380091555 19.66209523717992 1:-0.350787 2:0.157555 3:0.923106 4:0.245762 5:0.588995 6:0.769861 7:0.616123 8:-0.780062 9:0.109066 10:1.755288 11:1.340533 12:1.499815 13:0.436704 14:0.665915 15:-0.234069 16:0.568104 17:0.788968 18:0.264921 19:0.560207 20:0.784847 21:0.744007 22:0.242887 23:-0.622462 24:1.760659 25:0.548288 26:1.567874 27:0.486463 28:0.326118 29:-0.23474 30:0.568042 31:0.788813 32:0.264636 33:0.560813 34:0.78451 35:0.747765 36:0.244272 37:-0.617396 38:1.762145 39:0.547915 40:1.567795 41:0.485572 42:0.323975 43:-0.235408 44:0.567971 45:0.788665 46:0.264352 47:0.561415 48:0.784175 49:0.751545 50:0.245595 51:-0.612261 52:1.763616 53:0.547563 54:1.567715 55:0.484687 56:0.321857 57:-0.236074 58:0.56789 59:0.788524 60:0.264069 61:0.562013 62:0.783842 63:0.755346 64:0.246853 65:-0.607055 66:1.765072 67:0.547231 68:1.567632 69:0.483807 70:0.319762 71:-0.236736 72:0.5678 73:0.78839 74:0.263788 75:0.562607 76:0.783511 77:0.759167 78:0.248046 79:-0.60178 80:1.766514 81:0.546919 82:1.567548 83:0.482934 84:0.317691 85:-0.237396 86:0.5677 87:0.788264 88:0.263508 89:0.563196 90:0.783182 91:0.763009 92:0.249171 93:-0.596432 94:1.767941 95:0.546627 96:1.567461 97:0.482068 98:0.315644 99:-0.238054 100:0.567591 101:0.788144 102:0.263231 103:0.563781 104:0.782854 105:0.76687 106:0.250227 107:-0.591014 108:1.769354 109:0.546355 110:1.567372 111:0.481208 112:0.31362 113:-0.238708 114:0.567473 115:0.788031 116:0.262954 117:0.564362 118:0.782528 119:0.770748 120:0.251212 121:-0.585525 122:1.770753 123:0.546102 124:1.567281 125:0.480354 126:0.311621 127:-0.23936 128:0.567346 129:0.787924 130:0.262679 131:0.564939 132:0.782204 133:0.774645 134:0.252124 135:-0.579964 136:1.772138 137:0.545868 138:1.567188 139:0.479506 140:0.309647 141:-0.24001 142:0.56721 143:0.787825 144:0.262406 145:0.565512 146:0.781882 147:0.778558 148:0.252962 149:-0.574333 150:1.77351 151:0.545654 152:1.567093 153:0.478665 154:0.307697 155:-0.240657 156:0.567064 157:0.787733 158:0.262134 159:0.56608 160:0.781562 161:0.782487 162:0.253723 163:-0.568629 164:1.774868 165:0.545458 166:1.566995 167:0.477829 168:0.305771 169:-0.241302 170:0.566909 171:0.787647 172:0.261863 173:0.566645 174:0.781243 175:0.786432 176:0.254407 177:-0.562852 178:1.776212 179:0.545282 180:1.566895 181:0.477 182:0.30387 183:-0.241944 184:0.566744 185:0.787569 186:0.261595 187:0.567205 188:0.780927 189:0.79039 190:0.255011 191:-0.557003 192:1.777544 193:0.545123 194:1.566793 195:0.476177 196:0.301993 197:-0.242584 198:0.566571 199:0.787497 200:0.261327 201:0.567761 202:0.780612 203:0.794361 204:0.255533 205:-0.551083 206:1.778862 207:0.544983 208:1.56669 209:0.475361 210:0.300142 211:-0.243221 212:0.566388 213:0.787432 214:0.261061 215:0.568313 216:0.780299 217:0.798345 218:0.255972 219:-0.545091 220:1.780167 221:0.544862 222:1.566584 223:0.47455 224:0.298315 225:-0.243856 226:0.566195 227:0.787373 228:0.260797 229:0.568861 230:0.779988 231:0.802339 232:0.256325 233:-0.539027 234:1.78146 235:0.544758 236:1.566476 237:0.473746 238:0.296514 239:-0.244489 240:0.565994 241:0.787322 242:0.260535 243:0.569405 244:0.779679 245:0.806342 246:0.256592 247:-0.532891 248:1.78274 249:0.544672 250:1.566365 251:0.472948 252:0.294738 253:-0.24512 254:0.565784 255:0.787277 256:0.260274 257:0.569944 258:0.779372 259:0.810354 260:0.25677 261:-0.526683 262:1.784008 263:0.544603 264:1.566253 265:0.472156 266:0.292987 267:-0.245748 268:0.565564 269:0.787239 270:0.260014 271:0.57048 272:0.779067 273:0.814373 274:0.256857 275:-0.520404 276:1.785264 277:0.544553 278:1.566139 279:0.471371 280:0.291262 281:-0.246374 282:0.565335 283:0.787208 284:0.259756 285:0.571011 286:0.778764 287:0.818399 288:0.256851 289:-0.514053 290:1.786507 291:0.54452 292:1.566023 293:0.470591 294:0.289562 295:-0.246998 296:0.565096 297:0.787184 298:0.2595 299:0.571538 300:0.778463 301:0.822429 302:0.256752 303:-0.507631 304:1.787739 305:0.544504 306:1.565904 307:0.469818 308:0.287888 309:-0.24762 310:0.564849 311:0.787166 312:0.259245 313:0.572061 314:0.778163 315:0.826462 316:0.256556 317:-0.501139 318:1.788959 319:0.544504 320:1.565784 321:0.469051 322:0.286241 323:-0.248239 324:0.564592 325:0.787155 326:0.258992 327:0.57258 328:0.777866 329:0.830496 330:0.256263 331:-0.494576 332:1.790167 333:0.544523 334:1.565661 335:0.468291 336:0.284619 337:-0.248857 338:0.564326 339:0.787151 340:0.25874 341:0.573095 342:0.77757 343:0.834531 344:0.255869 345:-0.487944 346:1.791364 347:0.544558 348:1.565536 349:0.467536 350:0.283024 351:-0.249473 352:0.564051 353:0.787153 354:0.25849 355:0.573606 356:0.777277 357:0.838565 358:0.255375 359:-0.481241 360:1.792549 361:0.544609 362:1.56541 363:0.466788 364:0.281455 365:-0.250086 366:0.563766 367:0.787162 368:0.258242 369:0.574112 370:0.776985 371:0.842596 372:0.254777 373:-0.474469 374:1.793723 375:0.544677 376:1.565281 377:0.466045 378:0.279913 379:-0.250698 380:0.563473 381:0.787178 382:0.257995 383:0.574615 384:0.776696 385:0.846621 386:0.254074 387:-0.467632 388:1.794886 389:0.544761 390:1.56515 391:0.465309 392:0.278397 393:-0.251307 394:0.56317 395:0.7872 396:0.25775 397:0.575113 398:0.776409 399:0.85064 400:0.253265 401:-0.460725 402:1.796039 403:0.544862 404:1.565018 405:0.46458 406:0.276909 407:-0.251915 408:0.562858 409:0.78723 410:0.257506 411:0.575607 412:0.776123 413:0.854652 414:0.252348 415:-0.453752 416:1.79718 417:0.54498 418:1.564883 419:0.463856 420:0.275447 421:-0.25252 422:0.562536 423:0.787265 424:0.257264 425:0.576097 426:0.77584 427:0.858654 428:0.251321 429:-0.446711 430:1.798311 431:0.545113 432:1.564746 433:0.463139 434:0.274013 435:-0.253124 436:0.562205 437:0.787308 438:0.257023 439:0.576584 440:0.775558 441:0.862644 442:0.250182 443:-0.439607 444:1.799431 445:0.545262 446:1.564607 447:0.462427 448:0.272606 449:-0.253726 450:0.561865 451:0.787357 452:0.256784 453:0.577065 454:0.775279 455:0.86662 456:0.24893 457:-0.43244 458:1.800541 459:0.545428 460:1.564467 461:0.461722 462:0.271226 463:-0.254326 464:0.561516 465:0.787412 466:0.256547 467:0.577543 468:0.775001 469:0.87058 470:0.247564 471:-0.425208 472:1.80164 473:0.545609 474:1.564324 475:0.461023 476:0.269875 477:-0.254925 478:0.561157 479:0.787475 480:0.256312 481:0.578017 482:0.774726 483:0.874523 484:0.246081 485:-0.417916 486:1.802729 487:0.545806 488:1.564179 489:0.46033 490:0.268551 491:-0.255521 492:0.560788 493:0.787544 494:0.256078 495:0.578487 496:0.774453 497:0.878447 498:0.244481 499:-0.410561 500:1.803809 501:0.546018 502:1.564033 503:0.459643 504:0.267255 505:-0.256116 506:0.560411 507:0.787619 508:0.255845 509:0.578952 510:0.774182 511:0.882348 512:0.242762 513:-0.403148 514:1.804878 515:0.546247 516:1.563884 517:0.458962 518:0.265988 519:-0.256709 520:0.560024 521:0.787701 522:0.255615 523:0.579414 524:0.773913 525:0.886226 526:0.240922 527:-0.395678 528:1.805937 529:0.54649 530:1.563733 531:0.458287 532:0.264749 533:-0.257301 534:0.559628 535:0.78779 536:0.255385 537:0.579871 538:0.773646 539:0.890077 540:0.238961 541:-0.38815 542:1.806987 543:0.546749 544:1.563581 545:0.457619 546:0.263539 547:-0.257891 548:0.559222 549:0.787885 550:0.255158 551:0.580325 552:0.773381 553:0.893901 554:0.236877 555:-0.380567 556:1.808027 557:0.547024 558:1.563426 559:0.456957 560:0.262357 561:-0.258479 562:0.558807 563:0.787987 564:0.254932 565:0.580774 566:0.773118 567:0.897694 568:0.234669 569:-0.37293 570:1.809057 571:0.547314 572:1.56327 573:0.4563 574:0.261205 575:-0.259065 576:0.558382 577:0.788096 578:0.254708 579:0.581219 580:0.772857 581:0.901454 582:0.232336 583:-0.365242 584:1.810079 585:0.547619 586:1.563111 587:0.45565 588:0.260082 589:-0.25965 590:0.557948 591:0.788211 592:0.254485 593:0.58166 594:0.772599 595:0.905178 596:0.229876 597:-0.357504 598:1.81109 599:0.54794 600:1.562951 601:0.455006 602:0.258988 603:-0.260233 604:0.557504 605:0.788332 606:0.254264 607:0.582097 608:0.772342 609:0.908866 610:0.22729 611:-0.349717 612:1.812093 613:0.548275 614:1.562789 615:0.454368 616:0.257923 617:-0.260815 618:0.557051 619:0.78846 620:0.254045 621:0.58253 622:0.772088 623:0.912514 624:0.224575 625:-0.341883 626:1.813087 627:0.548626 628:1.562625 629:0.453736 630:0.256889 631:-0.261395 632:0.556588 633:0.788595 634:0.253827 635:0.582959 636:0.771836 637:0.916119 638:0.221732 639:-0.334007 640:1.814072 641:0.548992 642:1.562458 643:0.45311 644:0.255884 645:-0.261974 646:0.556115 647:0.788737 648:0.253611 649:0.583384 650:0.771586 651:0.91968 652:0.218759 653:-0.326087 654:1.815047 655:0.549372 656:1.56229 657:0.45249 658:0.254909 659:-0.262552 660:0.555633 661:0.788884 662:0.253397 663:0.583804 664:0.771338 665:0.923194 666:0.215656 667:-0.318127 668:1.816014 669:0.549768 670:1.562121 671:0.451876 672:0.253965 673:-0.263127 674:0.555141 675:0.789039 676:0.253185 677:0.584221 678:0.771092 679:0.926658 680:0.212423 681:-0.310131 682:1.816972 683:0.550179 684:1.561949 685:0.451268 686:0.253051 687:-0.263702 688:0.55464 689:0.7892 690:0.252974 691:0.584634 692:0.770849 693:0.930071 694:0.209058 695:-0.302098 696:1.817922 697:0.550605 698:1.561775 699:0.450666 700:0.252168 701:-0.264275 702:0.554129 703:0.789367 704:0.252764 705:0.585042 706:0.770607 707:0.933428 708:0.205562 709:-0.294033 710:1.818863 711:0.551045 712:1.5616 713:0.450071 714:0.251316 715:-0.264847 716:0.553608 717:0.789541 718:0.252557 719:0.585447 720:0.770368 721:0.936729 722:0.201935 723:-0.285938 724:1.819795 725:0.551501 726:1.561422 727:0.449481 728:0.250495 729:-0.265417 730:0.553077 731:0.789721 732:0.252351 733:0.585847 734:0.770131 735:0.939971 736:0.198176 737:-0.277813 738:1.82072 739:0.551972 740:1.561243 741:0.448897 742:0.249704 743:-0.265986 744:0.552536 745:0.789908 746:0.252146 747:0.586244 748:0.769896 749:0.943151 750:0.194285 751:-0.269666 752:1.821636 753:0.552457 754:1.561061 755:0.448319 756:0.248946 757:-0.266553 758:0.551986 759:0.790102 760:0.251944 761:0.586636 762:0.769664 763:0.946267 764:0.190262 765:-0.261496 766:1.822544 767:0.552957 768:1.560879 769:0.447748 770:0.248219 771:-0.26712 772:0.551426 773:0.790302 774:0.251743 775:0.587024 776:0.769433 777:0.949316 778:0.186108 779:-0.253305 780:1.823443 781:0.553472 782:1.560694 783:0.447182 784:0.247523 785:-0.267685 786:0.550855 787:0.790508 788:0.251543 789:0.587409 790:0.769205 791:0.952296 792:0.181823 793:-0.245099 794:1.824335 795:0.554002 796:1.560507 797:0.446622 798:0.24686 799:-0.268249 800:0.550275 801:0.790721 802:0.251346 803:0.587789 804:0.768979 805:0.955204 806:0.177408 807:-0.236879 808:1.825218 809:0.554547 810:1.560318 811:0.446068 812:0.246229 813:-0.268811 814:0.549685 815:0.790941 816:0.25115 817:0.588165 818:0.768756 819:0.958039 820:0.172862 821:-0.228646 822:1.826095 823:0.555107 824:1.560128 825:0.445521 826:0.245629 827:-0.269372 828:0.549084 829:0.791167 830:0.250956 831:0.588537 832:0.768534 833:0.960798 834:0.168188 835:-0.220409 836:1.826962 837:0.555682 838:1.559935 839:0.444978 840:0.245063 841:-0.269932 842:0.548474 843:0.791399 844:0.250763 845:0.588906 846:0.768315 847:0.963479 848:0.163385 849:-0.212166 850:1.827823 851:0.556271 852:1.559741 853:0.444443 854:0.244529 855:-0.270491 856:0.547853 857:0.791638 858:0.250573 859:0.589269 860:0.768098 861:0.966079 862:0.158454 863:-0.203922 864:1.828676 865:0.556876 866:1.559546 867:0.443913 868:0.244028 869:-0.271049 870:0.547222 871:0.791884 872:0.250383 873:0.589629 874:0.767884 875:0.968596 876:0.153398 877:-0.195681 878:1.829521 879:0.557496 880:1.559348 881:0.443389 882:0.243559 883:-0.271606 884:0.546581 885:0.792136 886:0.250196 887:0.589986 888:0.767671 889:0.971029 890:0.148216 891:-0.187444 892:1.830358 893:0.55813 894:1.559148 895:0.44287 896:0.243124 897:-0.272161 898:0.545929 899:0.792395 900:0.25001 901:0.590338 902:0.767461 903:0.973375 904:0.14291 905:-0.179217 906:1.831188 907:0.55878 908:1.558947 909:0.442358 910:0.242722 911:-0.272716 912:0.545268 913:0.79266 914:0.249826 915:0.590685 916:0.767253 917:0.975632 918:0.137482 919:-0.171001 920:1.832011 921:0.559444 922:1.558744 923:0.441852 924:0.242353 925:-0.273269 926:0.544595 927:0.792931 928:0.249644 929:0.591029 930:0.767048 931:0.977798 932:0.131933 933:-0.162802 934:1.832826 935:0.560124 936:1.558539 937:0.441351 938:0.242018 939:-0.273821 940:0.543913 941:0.793209 942:0.249464 943:0.591369 944:0.766844 945:0.979872 946:0.126266 947:-0.154623 948:1.833634 949:0.56082 950:1.558332 951:0.440856 952:0.241717 953:-0.274372 954:0.543219 955:0.793494 956:0.249285 957:0.591705 958:0.766643 959:0.981851 960:0.120481 961:-0.146466 962:1.834435 963:0.56153 964:1.558124 965:0.440368 966:0.241449 967:-0.274922 968:0.542516 969:0.793785 970:0.249108 971:0.592037 972:0.766445 973:0.983735 974:0.114581 975:-0.138336 976:1.835229 977:0.562255 978:1.557914 979:0.439885 980:0.241216 981:-0.275472 982:0.541801 983:0.794082 984:0.248932 985:0.592365 986:0.766248 987:0.985521 988:0.108568 989:-0.130233 990:1.836015 991:0.562996 992:1.557702 993:0.439408 994:0.241016 995:-0.27602 996:0.541076 997:0.794387 998:0.248759 999:0.592689 1000:0.766054 1001:0.987209 1002:0.102444 1003:-0.122165 1004:1.836795 1005:0.563753 1006:1.557488 1007:0.438937 1008:0.240851 1009:-0.276567 1010:0.54034 1011:0.794697 1012:0.248587 1013:0.593009 1014:0.765863 1015:0.988795 1016:0.096212 1017:-0.114134 1018:1.837568 1019:0.564524 1020:1.557272 1021:0.438471 1022:0.240719 1023:-0.277113 1024:0.539594 1025:0.795014 1026:0.248417 1027:0.593324 1028:0.765673 1029:0.990281 1030:0.089874 1031:-0.106143 1032:1.838333 1033:0.565312 1034:1.557055 1035:0.438012 1036:0.240623 1037:-0.277658 1038:0.538836 1039:0.795338 1040:0.248248 1041:0.593636 1042:0.765486 1043:0.991664 1044:0.083432 1045:-0.098196 1046:1.839092 1047:0.566115 1048:1.556836 1049:0.437558 1050:0.24056 1051:-0.278202 1052:0.538067 1053:0.795668 1054:0.248081 1055:0.593944 1056:0.765302 1057:0.992942 1058:0.076889 1059:-0.090297 1060:1.839844 1061:0.566934 1062:1.556615 1063:0.43711 1064:0.240533 1065:-0.278745 1066:0.537288 1067:0.796004 1068:0.247916 1069:0.594248 1070:0.765119 1071:0.994116 1072:0.070249 1073:-0.082447 1074:1.840589 1075:0.567768 1076:1.556393 1077:0.436668 1078:0.24054 1079:-0.279288 1080:0.536498 1081:0.796347 1082:0.247753 1083:0.594547 1084:0.764939 1085:0.995185 1086:0.063513 1087:-0.074653 1088:1.841327 1089:0.568619 1090:1.556169 1091:0.436232 1092:0.240581 1093:-0.279829 1094:0.535696 1095:0.796697 1096:0.247592 1097:0.594843 1098:0.764762 1099:0.996147 1100:0.056685 1101:-0.066917 1102:1.842059 1103:0.569485 1104:1.555943 1105:0.435801 1106:0.240658 1107:-0.28037 1108:0.534883 1109:0.797053 1110:0.247432 1111:0.595135 1112:0.764586 1113:0.997002 1114:0.049768 1115:-0.059239 1116:1.842784 1117:0.570368 1118:1.555715 1119:0.435377 1120:0.240769 1121:-0.28091 1122:0.534059 1123:0.797415 1124:0.247274 1125:0.595422 1126:0.764413 1127:0.99775 1128:0.042764 1129:-0.051628 1130:1.843502 1131:0.571267 1132:1.555486 1133:0.434958 1134:0.240916 1135:-0.281448 1136:0.533224 1137:0.797784 1138:0.247118 1139:0.595706 1140:0.764243 1141:0.99839 1142:0.035678 1143:-0.044085 1144:1.844213 1145:0.572182 1146:1.555255 1147:0.434545 1148:0.241097 1149:-0.281986 1150:0.532377 1151:0.798159 1152:0.246963 1153:0.595986 1154:0.764075 1155:0.998923 1156:0.028512 1157:-0.036609 1158:1.844918 1159:0.573114 1160:1.555022 1161:0.434137 1162:0.241314 1163:-0.282524 1164:0.531518 1165:0.798541 1166:0.24681 1167:0.596261 1168:0.763909 1169:0.999347 1170:0.02127 1171:-0.029209 1172:1.845617 1173:0.574062 1174:1.554788 1175:0.433736 1176:0.241566 1177:-0.28306 1178:0.530649 1179:0.79893 1180:0.246659 1181:0.596533 1182:0.763746 1183:0.999663 1184:0.013955 1185:-0.021886 1186:1.846309 1187:0.575027 1188:1.554551 1189:0.43334 1190:0.241852 1191:-0.283595 1192:0.529767 1193:0.799325 1194:0.24651 1195:0.596801 1196:0.763585 1197:0.999871 1198:0.00657 1199:-0.014643 1200:1.846994 1201:0.576009 1202:1.554314 1203:0.432949 1204:0.242174 1205:-0.28413 1206:0.528874 1207:0.799726 1208:0.246363 1209:0.597064 1210:0.763426 1211:0.999972 1212:-0.00088 1213:-0.007483 1214:1.847673 1215:0.577007 1216:1.554074 1217:0.432565 1218:0.242532 1219:-0.284664 1220:0.527969 1221:0.800134 1222:0.246217 1223:0.597324 1224:0.76327 1225:0.999965 1226:-0.008393 1227:-0.000408 1228:1.848346 1229:0.578023 1230:1.553833 1231:0.432186 1232:0.242924 1233:-0.285197 1234:0.527052 1235:0.800549 1236:0.246073 1237:0.59758 1238:0.763116 1239:0.999851 1240:-0.015964 1241:0.006577 1242:1.849012 1243:0.579057 1244:1.55359 1245:0.431813 1246:0.243352 1247:-0.28573 1248:0.526123 1249:0.80097 1250:0.245931 1251:0.597831 1252:0.762965 1253:0.999631 1254:-0.023591 1255:0.013473 1256:1.849672 1257:0.580107 1258:1.553346 1259:0.431445 1260:0.243815 1261:-0.286261 1262:0.525182 1263:0.801397 1264:0.24579 1265:0.598079 1266:0.762816 1267:0.999305 1268:-0.031269 1269:0.020276 1270:1.850325 1271:0.581176 1272:1.5531 1273:0.431084 1274:0.244313 1275:-0.286792 1276:0.524229 1277:0.801831 1278:0.245652 1279:0.598322 1280:0.76267 1281:0.998875 1282:-0.038995 1283:0.026981 1284:1.850972 1285:0.582262 1286:1.552852 1287:0.430727 1288:0.244847 1289:-0.287323 1290:0.523264 1291:0.802272 1292:0.245515 1293:0.598562 1294:0.762526 1295:0.998341 1296:-0.046765 1297:0.033589 1298:1.851613 1299:0.583365 1300:1.552602 1301:0.430377 1302:0.245416 1303:-0.287852 1304:0.522287 1305:0.802719 1306:0.24538 1307:0.598798 1308:0.762384 1309:0.997704 1310:-0.054576 1311:0.040097 1312:1.852247 1313:0.584487 1314:1.552351 1315:0.430032 1316:0.24602 1317:-0.288381 1318:0.521297 1319:0.803172 1320:0.245246 1321:0.599029 1322:0.762245 1323:0.996966 1324:-0.062424 1325:0.046502 1326:1.852875 1327:0.585628 1328:1.552099 1329:0.429693 1330:0.246659 1331:-0.288909 1332:0.520295 1333:0.803632 1334:0.245115 1335:0.599257 1336:0.762109 1337:0.996127 1338:-0.070305 1339:0.052802 1340:1.853496 1341:0.586786 1342:1.551844 1343:0.429359 1344:0.247333 1345:-0.289436 1346:0.51928 1347:0.804099 1348:0.244985 1349:0.599481 1350:0.761974 1351:0.995189 1352:-0.078216 1353:0.058997 1354:1.854112 1355:0.587964 1356:1.551588 1357:0.429032 1358:0.248042 1359:-0.289963 1360:0.518252 1361:0.804572 1362:0.244857 1363:0.5997 1364:0.761843 1365:0.994154 1366:-0.086153 1367:0.065083 1368:1.854721 1369:0.58916 1370:1.551331 1371:0.428709 1372:0.248787 1373:-0.290489 1374:0.517212 1375:0.805051 1376:0.244731 1377:0.599916 1378:0.761714 1379:0.993023 1380:-0.094113 1381:0.071058 1382:1.855323 1383:0.590376 1384:1.551072 1385:0.428392 1386:0.249566 1387:-0.291014 1388:0.516159 1389:0.805537 1390:0.244607 1391:0.600128 1392:0.761587 1393:0.991796 1394:-0.102091 1395:0.076924 1396:1.85592 1397:0.59161 1398:1.550811 1399:0.428081 1400:0.250381 1401:-0.291539 1402:0.515093 1403:0.80603 1404:0.244484 1405:0.600335 1406:0.761462 1407:0.990478 1408:-0.110085 1409:0.082677 1410:1.85651 1411:0.592865 1412:1.550548 1413:0.427776 1414:0.25123 1415:-0.292063 1416:0.514014 1417:0.806529 1418:0.244363 1419:0.600539 1420:0.761341 1421:0.989068 1422:-0.118091 1423:0.088314 1424:1.857094 1425:0.594139 1426:1.550284 1427:0.427475 1428:0.252114 1429:-0.292587 1430:0.512922 1431:0.807034 1432:0.244244 1433:0.600739 1434:0.761221 1435:0.987569 1436:-0.126105 1437:0.093837 1438:1.857671 1439:0.595433 1440:1.550019 1441:0.427181 1442:0.253033 1443:-0.293109 1444:0.511816 1445:0.807546 1446:0.244127 1447:0.600934 1448:0.761105 1449:0.985982 1450:-0.134124 1451:0.099244 1452:1.858242 1453:0.596747 1454:1.549751 1455:0.426892 1456:0.253987 1457:-0.293631 1458:0.510697 1459:0.808065 1460:0.244012 1461:0.601126 1462:0.76099 1463:0.98431 1464:-0.142146 1465:0.104535 1466:1.858807 1467:0.598082 1468:1.549482 1469:0.426609 1470:0.254975 1471:-0.294153 1472:0.509565 1473:0.80859 1474:0.243898 1475:0.601313 1476:0.760878 1477:0.982555 1478:-0.150165 1479:0.109706 1480:1.859365 1481:0.599438 1482:1.549212 1483:0.426331 1484:0.255998 1485:-0.294674 1486:0.508419 1487:0.809122 1488:0.243786 1489:0.601497 1490:0.760769 1491:0.980719 1492:-0.158181 1493:0.11476 1494:1.859918 1495:0.600814 1496:1.54894 1497:0.426058 1498:0.257055 1499:-0.295194 1500:0.507259 1501:0.80966 1502:0.243676 1503:0.601677 1504:0.760662 1505:0.978803 1506:-0.166188 1507:0.119694 1508:1.860464 1509:0.602212 1510:1.548667 1511:0.425792 1512:0.258147 1513:-0.295714 1514:0.506086 1515:0.810204 1516:0.243568 1517:0.601852 1518:0.760558 1519:0.97681 1520:-0.174185 1521:0.124509 1522:1.861002 1523:0.603632 1524:1.548392 1525:0.42553 1526:0.259272 1527:-0.296233 1528:0.504899 1529:0.810755 1530:0.243462 1531:0.602024 1532:0.760456 1533:0.974741 1534:-0.182169 1535:0.129204 1536:1.861536 1537:0.605073 1538:1.548115 1539:0.425275 1540:0.260432 1541:-0.296751 1542:0.503697 1543:0.811312 1544:0.243357 1545:0.602192 1546:0.760357 1547:0.972601 1548:-0.190135 1549:0.133778 1550:1.862062 1551:0.606537 1552:1.547837 1553:0.425024 1554:0.261626 1555:-0.297269 1556:0.502482 1557:0.811876 1558:0.243255 1559:0.602355 1560:0.76026 1561:0.970389 1562:-0.198083 1563:0.138234 1564:1.862582 1565:0.608023 1566:1.547557 1567:0.424779 1568:0.262854 1569:-0.297786 1570:0.501252 1571:0.812447 1572:0.243154 1573:0.602515 1574:0.760166 1575:0.968109 1576:-0.206008 1577:0.142568 1578:1.863095 1579:0.609532 1580:1.547276 1581:0.42454 1582:0.264116 1583:-0.298303 1584:0.500008 1585:0.813024 1586:0.243054 1587:0.60267 1588:0.760074 1589:0.965763 1590:-0.213908 1591:0.146783 1592:1.863602 1593:0.611064 1594:1.546993 1595:0.424306 1596:0.265411 1597:-0.298819 1598:0.498749 1599:0.813607 1600:0.242957 1601:0.602822 1602:0.759985 1603:0.963353 1604:-0.221781 1605:0.150876 1606:1.864102 1607:0.612619 1608:1.546708 1609:0.424077 1610:0.26674 1611:-0.299334 1612:0.497476 1613:0.814197 1614:0.242862 1615:0.60297 1616:0.759898 1617:0.960882 1618:-0.229624 1619:0.15485 1620:1.864595 1621:0.614198 1622:1.546422 1623:0.423854 1624:0.268102 1625:-0.299849 1626:0.496188 1627:0.814793 1628:0.242768 1629:0.603113 1630:0.759814 1631:0.958351 1632:-0.237435 1633:0.158706 1634:1.865082 1635:0.615802 1636:1.546135 1637:0.423637 1638:0.269498 1639:-0.300363 1640:0.494885 1641:0.815396 1642:0.242676 1643:0.603253 1644:0.759733 1645:0.955764 1646:-0.245211 1647:0.162442 1648:1.865562 1649:0.61743 1650:1.545846 1651:0.423425 1652:0.270927 1653:-0.300877 1654:0.493567 1655:0.816006 1656:0.242586 1657:0.603388 1658:0.759654 1659:0.953121 1660:-0.25295 1661:0.166059 1662:1.866036 1663:0.619083 1664:1.545556 1665:0.423218 1666:0.272389 1667:-0.30139 1668:0.492233 1669:0.816621 1670:0.242498 1671:0.60352 1672:0.759578 1673:0.950427 1674:-0.260651 1675:0.169559 1676:1.866502 1677:0.620761 1678:1.545264 1679:0.423016 1680:0.273884 1681:-0.301902 1682:0.490885 1683:0.817243 1684:0.242412 1685:0.603648 1686:0.759504 1687:0.947682 1688:-0.268311 1689:0.172942 1690:1.866961 1691:0.622465 1692:1.54497 1693:0.422821 1694:0.275412 
0 18.26300524636469 0 0 0 0 0 0 0 1:-0.262264 2:0.682516 3:0.682194 4:-0.153868 5:-0.166838 6:0.973904 7:0.471038 8:0.871636 9:0.135549 10:1.694125 11:0.374612 12:2.004644 13:1.237567 14:1.885568 15:-0.254013 16:0.684887 17:0.68294 18:0.003874 19:-0.704086 20:0.710104 21:0.330118 22:0.938353 23:0.102551 24:1.69205 25:0.381844 26:1.19992 27:1.03248 28:1.784138 29:-0.256666 30:0.685208 31:0.681624 32:-0.004129 33:-0.747928 34:0.663767 35:0.318467 36:0.942609 37:0.100332 38:1.690611 39:0.381014 40:1.200309 41:1.042758 42:1.798033 43:-0.259031 44:0.685463 45:0.680473 46:-0.011149 47:-0.778238 48:0.62787 49:0.309856 50:0.945644 51:0.098726 52:1.689386 53:0.380236 54:1.204707 55:1.05323 56:1.810179 57:-0.261109 58:0.685652 59:0.679488 60:-0.017518 61:-0.798952 62:0.601139 63:0.30385 64:0.947702 65:0.097651 66:1.688372 67:0.379509 68:1.21227 69:1.063913 70:1.820974 71:-0.262902 72:0.685777 73:0.678669 74:-0.023506 75:-0.812523 76:0.582455 77:0.300156 78:0.94894 79:0.097053 80:1.687568 81:0.378833 82:1.22255 83:1.074824 84:1.830713 85:-0.264412 86:0.685841 87:0.678018 88:-0.029345 89:-0.820422 90:0.571005 91:0.298592 92:0.949449 93:0.096899 94:1.686971 95:0.378207 96:1.235357 97:1.085985 98:1.839629 99:-0.26564 100:0.685844 101:0.677535 102:-0.035242 103:-0.823438 104:0.56631 105:0.299065 106:0.949272 107:0.097172 108:1.686581 109:0.37763 110:1.250704 111:1.09742 112:1.847913 113:-0.266587 114:0.685788 115:0.67722 116:-0.041401 117:-0.821828 118:0.568229 119:0.301561 120:0.94841 121:0.097872 122:1.686395 123:0.377102 124:1.268788 125:1.109156 126:1.85573 127:-0.267255 128:0.685672 129:0.677073 130:-0.04804 131:-0.815361 132:0.576956 133:0.306146 134:0.946821 135:0.099018 136:1.686413 137:0.376623 138:1.290016 139:1.121226 140:1.863228 141:-0.267644 142:0.685498 143:0.677097 144:-0.055409 145:-0.803259 146:0.593046 147:0.312968 148:0.944416 149:0.100642 150:1.686633 151:0.376193 152:1.315075 153:1.133664 154:1.870543 155:-0.267753 156:0.685265 157:0.677289 158:-0.063812 159:-0.784021 160:0.617446 161:0.322268 162:0.94105 163:0.102798 164:1.687056 165:0.375813 166:1.345066 167:1.146511 168:1.877797 169:-0.267583 170:0.684973 171:0.677651 172:-0.07362 173:-0.75506 174:0.651509 175:0.334405 176:0.936499 177:0.105564 178:1.687682 179:0.375482 180:1.381784 181:1.159812 182:1.885083 183:-0.256812 184:0.682906 185:0.683876 186:-0.019561 187:-0.582571 188:0.812544 189:0.357159 190:0.924654 191:0.132108 192:1.722002 193:0.376681 194:1.066783 195:0.899093 196:1.73106 197:-0.254631 198:0.683348 199:0.684251 200:-0.006667 201:-0.593233 202:0.805003 203:0.355047 204:0.926563 205:0.124189 206:1.71378 207:0.378393 208:1.106256 209:0.932917 210:1.738968 211:-0.252952 212:0.683752 213:0.68447 214:0.002865 215:-0.60619 216:0.795314 217:0.352454 218:0.928459 219:0.117219 220:1.706428 221:0.379997 222:1.141923 223:0.964274 224:1.747564 225:-0.25178 226:0.684119 227:0.684535 228:0.00932 229:-0.621202 230:0.783595 231:0.349413 232:0.930346 233:0.111207 234:1.699969 235:0.381417 236:1.173659 237:0.99298 238:1.756768 239:-0.25112 240:0.684451 241:0.684445 242:0.012948 243:-0.638018 244:0.769912 245:0.34596 246:0.932225 247:0.106149 248:1.694423 249:0.382585 250:1.201419 251:1.01891 252:1.766493 253:-0.250972 254:0.684748 255:0.684203 256:0.013973 257:-0.656376 258:0.754305 259:0.342132 260:0.934096 261:0.102033 262:1.689808 263:0.383446 264:1.22521 265:1.04198 266:1.77665 267:-0.25134 268:0.685009 269:0.683806 270:0.012598 271:-0.676003 272:0.736791 273:0.337964 274:0.935955 275:0.098839 276:1.686135 277:0.383955 278:1.245075 279:1.062129 280:1.787145 281:-0.252222 282:0.685234 283:0.683256 284:0.00901 285:-0.696617 286:0.717386 287:0.333495 288:0.937796 289:0.096537 290:1.683416 291:0.384078 292:1.261079 293:1.079301 294:1.797888 295:-0.253617 296:0.685422 297:0.682551 298:0.003389 299:-0.717927 300:0.696111 301:0.328761 302:0.939614 303:0.095091 304:1.681658 305:0.38379 306:1.273287 307:1.093437 308:1.808792 309:-0.271767 310:0.681431 311:0.679555 312:-0.115557 313:-0.543267 314:0.831569 315:0.368022 316:0.912067 317:0.180814 318:1.755643 319:0.372249 320:0.779236 321:0.667745 322:1.643434 323:-0.27249 324:0.681 325:0.679698 326:-0.123934 327:-0.54888 328:0.826663 329:0.365747 330:0.912781 331:0.181825 332:1.761554 333:0.371471 334:0.795615 335:0.681196 336:1.662234 337:-0.272792 338:0.680691 339:0.679886 340:-0.128228 341:-0.555392 342:0.821643 343:0.363563 344:0.913721 345:0.181485 346:1.765572 347:0.370899 348:0.814897 349:0.696821 350:1.679633 351:-0.272674 352:0.680504 353:0.68012 354:-0.1285 355:-0.562722 356:0.816598 357:0.361469 358:0.914881 359:0.179816 360:1.767699 361:0.370478 362:0.837158 363:0.714696 364:1.695545 365:-0.272136 366:0.680439 367:0.680401 368:-0.124897 369:-0.570744 370:0.811574 371:0.359464 372:0.91625 373:0.176839 374:1.767933 375:0.370186 376:0.86251 377:0.734958 378:1.709906 379:-0.271177 380:0.680495 381:0.680727 382:-0.11764 383:-0.5793 384:0.806581 385:0.357545 386:0.917812 387:0.172578 388:1.76626 389:0.370036 390:0.891093 391:0.757803 392:1.722668 393:-0.269795 394:0.680672 395:0.6811 396:-0.107014 397:-0.588209 398:0.801597 399:0.355706 400:0.919546 401:0.167059 402:1.762661 403:0.370073 404:0.92306 405:0.78347 406:1.733807 407:-0.267985 408:0.680969 409:0.681517 410:-0.093355 411:-0.597276 412:0.796584 413:0.35394 414:0.921427 415:0.16031 416:1.75711 417:0.370377 418:0.958559 419:0.812225 420:1.743317 421:-0.258706 422:0.686318 423:0.679734 424:-0.021661 425:-0.471976 426:0.881345 427:0.400806 428:0.904249 429:0.14727 430:1.683815 431:0.388908 432:0.713723 433:0.587906 434:1.480204 435:-0.259406 436:0.686156 437:0.679631 438:-0.018286 439:-0.487555 440:0.872901 441:0.395325 442:0.906339 443:0.149223 444:1.686346 445:0.387658 446:0.718525 447:0.598965 448:1.491775 449:-0.260168 450:0.685944 451:0.679554 452:-0.016873 453:-0.501656 454:0.864903 455:0.390256 456:0.908199 457:0.151245 458:1.689559 459:0.386296 460:0.724181 461:0.609885 462:1.504202 463:-0.260992 464:0.685681 465:0.679503 466:-0.01741 467:-0.514334 468:0.857413 469:0.385592 470:0.909839 471:0.153338 472:1.69345 473:0.384835 474:0.730701 475:0.620664 476:1.517524 477:-0.261879 478:0.685369 479:0.679477 480:-0.019886 481:-0.52564 482:0.850475 483:0.381327 484:0.911268 485:0.1555 486:1.698021 487:0.383293 488:0.738112 489:0.631312 490:1.531783 491:-0.262826 492:0.685007 493:0.679476 494:-0.024294 495:-0.535611 496:0.844115 497:0.377454 498:0.912496 499:0.157733 500:1.70327 501:0.381691 502:0.746455 503:0.641856 504:1.547021 505:-0.263835 506:0.684595 507:0.6795 508:-0.030631 509:-0.544276 510:0.838347 511:0.373968 512:0.91353 513:0.160038 514:1.709196 515:0.38005 516:0.755789 517:0.652333 518:1.563283 519:-0.264903 520:0.684134 521:0.67955 522:-0.038897 523:-0.551652 524:0.833167 525:0.370862 526:0.914376 527:0.162415 528:1.715801 529:0.3784 530:0.766189 531:0.662796 532:1.580613 533:-0.266031 534:0.683623 535:0.679623 536:-0.049096 537:-0.557743 538:0.828561 539:0.368131 540:0.915041 541:0.164865 542:1.723082 543:0.376768 544:0.777753 545:0.673317 546:1.599057 547:-0.255546 548:0.686495 549:0.680751 550:-0.044736 551:-0.313149 552:0.94865 553:0.435426 554:0.890317 555:0.133193 556:1.675003 557:0.39503 558:0.736192 559:0.550612 560:1.412241 561:-0.255672 562:0.686511 563:0.680687 564:-0.050086 565:-0.332484 566:0.941778 567:0.434769 568:0.890395 569:0.134808 570:1.676314 571:0.394576 572:0.724794 573:0.544897 574:1.418468 575:-0.25587 576:0.686507 577:0.680616 578:-0.054232 579:-0.351734 580:0.934528 581:0.433417 582:0.890801 583:0.136468 584:1.677742 585:0.394022 586:0.71538 587:0.541159 588:1.425239 589:-0.25614 590:0.686483 591:0.680539 592:-0.057128 593:-0.370815 594:0.926948 595:0.431384 596:0.891525 597:0.13817 598:1.679288 599:0.39337 600:0.707934 601:0.539419 602:1.432583 603:-0.25648 604:0.686439 605:0.680455 606:-0.058741 607:-0.38965 608:0.919088 609:0.428681 610:0.892556 611:0.139916 612:1.680951 613:0.392621 614:0.702459 615:0.539713 616:1.440525 617:-0.256891 618:0.686375 619:0.680365 620:-0.059047 621:-0.408159 622:0.910999 623:0.425315 624:0.893883 625:0.141704 626:1.682729 627:0.391777 628:0.698965 629:0.54209 630:1.449097 631:-0.257374 632:0.686291 633:0.680267 634:-0.058034 635:-0.426268 636:0.902734 637:0.421295 638:0.895494 639:0.143532 640:1.684622 641:0.390843 642:0.697483 643:0.546621 644:1.458331 645:-0.257926 646:0.686187 647:0.680163 648:-0.055702 649:-0.443902 650:0.894342 651:0.416627 652:0.897375 653:0.145399 654:1.686628 655:0.389818 656:0.698057 657:0.553387 658:1.468261 659:-0.258549 660:0.686063 661:0.680051 662:-0.05206 663:-0.460994 664:0.885875 665:0.411317 666:0.899511 667:0.147303 668:1.688748 669:0.388708 670:0.700748 671:0.562491 672:1.478924 673:-0.255321 674:0.685874 675:0.681461 676:-0.006738 677:-0.316497 678:0.94857 679:0.410446 680:0.904256 681:0.117706 682:1.66736 683:0.394783 684:0.825935 685:0.626043 686:1.413772 687:-0.255515 688:0.685964 689:0.681297 690:-0.005082 691:-0.281565 692:0.959529 693:0.41665 694:0.901078 695:0.120256 696:1.668198 697:0.395202 698:0.82546 699:0.619848 700:1.404168 701:-0.25569 702:0.686047 703:0.681148 704:-0.004383 705:-0.252715 706:0.967531 707:0.42217 708:0.898167 709:0.122756 710:1.669083 711:0.395513 712:0.823505 713:0.613536 714:1.396577 715:-0.255846 716:0.686122 717:0.681013 718:-0.004691 719:-0.230548 720:0.97305 721:0.426924 722:0.895582 723:0.125175 724:1.670017 725:0.395718 726:0.819851 727:0.607086 728:1.391132 729:-0.255985 730:0.68619 731:0.680893 732:-0.006052 733:-0.215544 734:0.976475 735:0.430841 736:0.893377 737:0.127489 738:1.671001 739:0.395817 740:0.814326 741:0.600478 742:1.387925 743:-0.256105 744:0.686249 745:0.680788 746:-0.008505 747:-0.2081 748:0.97807 749:0.433864 750:0.891599 751:0.12967 752:1.672034 753:0.395807 754:0.806814 755:0.593691 756:1.387005 757:-0.256206 758:0.686301 759:0.680698 760:-0.012092 761:-0.208555 762:0.977936 763:0.435954 764:0.890281 765:0.131695 766:1.673119 767:0.395691 768:0.797265 769:0.586705 770:1.388375 771:-0.256289 772:0.686345 773:0.680622 774:-0.016852 775:-0.217206 776:0.97598 777:0.437093 778:0.889447 779:0.133543 780:1.674254 781:0.395468 782:0.785704 783:0.579501 784:1.391991 785:-0.251741 786:0.684046 787:0.684622 788:-0.024499 789:-0.585311 790:0.810439 791:0.365932 792:0.924974 793:0.102551 794:1.666249 795:0.390695 796:0.816269 797:0.67051 798:1.49564 799:-0.252402 800:0.684406 801:0.684019 802:-0.025814 803:-0.583273 804:0.811866 805:0.366277 806:0.924818 807:0.102725 808:1.66529 809:0.390646 810:0.816131 811:0.66788 812:1.495648 813:-0.253005 814:0.684733 815:0.683469 816:-0.026727 817:-0.57802 818:0.815585 819:0.367283 820:0.924373 821:0.103139 822:1.664558 823:0.390673 824:0.815753 825:0.664737 826:1.494387 827:-0.253551 828:0.685025 829:0.682973 830:-0.027233 831:-0.569383 832:0.821621 833:0.368965 834:0.923629 835:0.1038 836:1.664052 837:0.390776 838:0.815171 839:0.661086 840:1.491837 841:-0.25404 842:0.685285 843:0.682531 844:-0.027319 845:-0.557107 846:0.829991 847:0.371346 848:0.922571 849:0.104716 850:1.663771 851:0.390954 852:0.814433 853:0.656938 854:1.487968 855:-0.254473 856:0.685511 857:0.682143 858:-0.026963 859:-0.540838 860:0.840695 861:0.374459 862:0.921176 863:0.1059 864:1.663713 865:0.391208 866:0.8136 867:0.652306 868:1.482732 869:-0.254848 870:0.685704 871:0.681808 872:-0.026132 873:-0.520118 874:0.853694 875:0.378349 876:0.919415 877:0.107369 878:1.663877 879:0.391539 880:0.812754 881:0.64721 882:1.476071 883:-0.255167 884:0.685864 885:0.681528 886:-0.024786 887:-0.494376 888:0.868895 889:0.383069 890:0.917249 891:0.109142 892:1.664264 893:0.391949 894:0.811996 895:0.641673 896:1.46791 897:-0.25543 898:0.685991 899:0.681302 900:-0.022872 901:-0.462924 902:0.886103 903:0.388689 904:0.914628 905:0.111248 906:1.664871 907:0.392438 908:0.811458 909:0.635724 910:1.458156 911:-0.246327 912:0.680896 913:0.689712 914:-0.004772 915:-0.533891 916:0.84554 917:0.374265 918:0.922248 919:0.096871 920:1.679924 921:0.39219 922:0.83975 923:0.68413 924:1.477984 925:-0.246739 926:0.681174 927:0.68929 928:-0.007237 929:-0.540679 930:0.841198 931:0.373796 932:0.92215 933:0.099582 934:1.678005 935:0.392125 936:0.830755 937:0.681841 938:1.478286 939:-0.247192 940:0.681468 941:0.688838 942:-0.009602 943:-0.546615 944:0.837329 945:0.373367 946:0.922069 947:0.101912 948:1.676192 949:0.392058 950:0.823056 951:0.679587 952:1.478652 953:-0.247684 954:0.681776 955:0.688356 956:-0.011866 957:-0.551692 958:0.833964 959:0.37298 960:0.922008 961:0.103865 962:1.674485 963:0.391986 964:0.81662 965:0.677361 966:1.479096 967:-0.248217 968:0.6821 969:0.687843 970:-0.014024 971:-0.555904 972:0.831128 973:0.372634 974:0.921968 975:0.105446 976:1.672885 977:0.391909 978:0.811423 979:0.675156 980:1.479633 981:-0.248789 982:0.682438 983:0.687301 984:-0.016073 985:-0.559245 986:0.828846 987:0.372329 988:0.921952 989:0.106659 990:1.67139 991:0.391826 992:0.807445 993:0.672963 994:1.48027 995:-0.249402 996:0.682792 997:0.686727 998:-0.01801 999:-0.561709 1000:0.827139 1001:0.372066 1002:0.921959 1003:0.107508 1004:1.67 1005:0.391734 1006:0.804675 1007:0.670773 1008:1.481015 1009:-0.250054 1010:0.68316 1011:0.686123 1012:-0.019834 1013:-0.563289 1014:0.826022 1015:0.371843 1016:0.921993 1017:0.107992 1018:1.668716 1019:0.391634 1020:0.803109 1021:0.66858 1022:1.481872 1023:-0.246043 1024:0.677313 1025:0.693332 1026:-0.005154 1027:-0.291229 1028:0.956639 1029:0.425183 1030:0.901445 1031:0.081336 1032:1.693041 1033:0.393711 1034:0.915672 1035:0.635658 1036:1.395839 1037:-0.245601 1038:0.677978 1039:0.692839 1040:-6.9e-005 1041:-0.35312 1042:0.935578 1043:0.409947 1044:0.908666 1045:0.079177 1046:1.692968 1047:0.393379 1048:0.91326 1049:0.653974 1050:1.420762 1051:-0.245259 1052:0.678592 1053:0.692358 1054:0.003889 1055:-0.404981 1056:0.914317 1057:0.397228 1058:0.914415 1059:0.077817 1060:1.692645 1061:0.393075 1062:0.91128 1063:0.670108 1064:1.44212 1065:-0.24502 1066:0.679156 1067:0.691891 1068:0.006787 1069:-0.447916 1070:0.89405 1071:0.386744 1072:0.918951 1073:0.077187 1074:1.692072 1075:0.392801 1076:0.909112 1077:0.683865 1078:1.460069 1079:-0.244881 1080:0.679668 1081:0.691436 1082:0.008696 1083:-0.483016 1084:0.875568 1085:0.378271 1086:0.922467 1087:0.077237 1088:1.691248 1089:0.392556 1090:0.906252 1091:0.695078 1092:1.474751 1093:-0.244845 1094:0.68013 1095:0.690995 1096:0.00968 1097:-0.511254 1098:0.859375 1099:0.37163 1100:0.925104 1101:0.077932 1102:1.690174 1103:0.392342 1104:0.902297 1105:0.703619 1106:1.486295 1107:-0.24491 1108:0.68054 1109:0.690568 1110:0.009783 1111:-0.533444 1112:0.845779 1113:0.366684 1114:0.926964 1115:0.07925 1116:1.688852 1117:0.392161 1118:0.896934 1119:0.709395 1120:1.494815 1121:-0.245078 1122:0.680898 1123:0.690155 1124:0.009031 1125:-0.550218 1126:0.834972 1127:0.363332 1128:0.928116 1129:0.081182 1130:1.68728 1131:0.392014 1132:0.889929 1133:0.712351 1134:1.500408 1135:-0.245347 1136:0.681206 1137:0.689756 1138:0.007426 1139:-0.562033 1140:0.827082 1141:0.361501 1142:0.928604 1143:0.083733 1144:1.685459 1145:0.391903 1146:0.881112 1147:0.712465 1148:1.503155 1149:-0.250661 1150:0.670995 1151:0.697807 1152:-0.024161 1153:0.096391 1154:0.99505 1155:0.506019 1156:0.861021 1157:0.050877 1158:1.68893 1159:0.400788 1160:1.016324 1161:0.56087 1162:1.195773 1163:-0.250294 1164:0.671751 1165:0.697211 1166:-0.030456 1167:0.116848 1168:0.992683 1169:0.520636 1170:0.850991 1171:0.068938 1172:1.689386 1173:0.399128 1174:1.00075 1175:0.548799 1176:1.202226 1177:-0.249908 1178:0.672499 1179:0.696628 1180:-0.035455 1181:0.1258 1182:0.991422 1183:0.529954 1184:0.843831 1185:0.084249 1186:1.689789 1187:0.397645 1188:0.984471 1189:0.540451 1190:1.212759 1191:-0.249505 1192:0.673239 1193:0.696058 1194:-0.039049 1195:0.122428 1196:0.991709 1197:0.534009 1198:0.839946 1199:0.096567 1200:1.690141 1201:0.396339 1202:0.967549 1203:0.535825 1204:1.226869 1205:-0.249083 1206:0.67397 1207:0.695501 1208:-0.04112 1209:0.105915 1210:0.993525 1211:0.532964 1212:0.839501 1213:0.105769 1214:1.690443 1215:0.395208 1216:0.950301 1217:0.534965 1218:1.244101 1219:-0.248642 1220:0.674694 1221:0.694957 1222:-0.041534 1223:0.075492 1224:0.996281 1225:0.527075 1226:0.842428 1227:0.111831 1228:1.690696 1229:0.394251 1230:0.933304 1231:0.537962 1232:1.264083 1233:-0.248183 1234:0.67541 1235:0.694425 1236:-0.040146 1237:0.030592 1238:0.998725 1239:0.516675 1240:0.848447 1241:0.11482 1242:1.6909 1243:0.393469 1244:0.917356 1245:0.544957 1246:1.286535 1247:-0.247706 1248:0.676119 1249:0.693906 1250:-0.036822 1251:-0.02883 1252:0.998906 1253:0.502159 1254:0.85711 1255:0.114884 1256:1.691057 1257:0.392861 1258:0.903423 1259:0.556139 1260:1.311266 1261:-0.263171 1262:0.669855 1263:0.694288 1264:0.055669 1265:-0.102965 1266:0.993126 1267:0.353164 1268:0.927745 1269:-0.120684 1270:1.660871 1271:0.398542 1272:1.163898 1273:0.700171 1274:1.171848 1275:-0.260007 1276:0.668883 1277:0.696413 1278:0.047 1279:-0.116543 1280:0.992073 1281:0.35354 1282:0.929278 1283:-0.107017 1284:1.668162 1285:0.402684 1286:1.147244 1287:0.696788 1288:1.192026 1289:-0.257216 1290:0.668127 1291:0.698173 1292:0.038579 1293:-0.126163 1294:0.991259 1295:0.356119 1296:0.929771 1297:-0.093305 1298:1.674556 1299:0.406153 1300:1.130785 1301:0.69183 1302:1.20909 1303:-0.254788 1304:0.667586 1305:0.69958 1306:0.030392 1307:-0.131666 1308:0.990828 1309:0.360845 1310:0.92924 1311:-0.079395 1312:1.680077 1313:0.408919 1314:1.114405 1315:0.685281 1316:1.223181 1317:-0.252715 1318:0.667259 1319:0.700643 1320:0.022426 1321:-0.132845 1322:0.990883 1323:0.367702 1324:0.92766 1325:-0.065136 1326:1.684744 1327:0.410958 1328:1.098014 1329:0.677126 1330:1.234443 1331:-0.250991 1332:0.667146 1333:0.70137 1334:0.014659 1335:-0.129433 1336:0.99148 1337:0.376713 1338:0.924959 1339:-0.050376 1340:1.688573 1341:0.412251 1342:1.081556 1343:0.667356 1344:1.243018 1345:-0.24961 1346:0.667247 1347:0.701767 1348:0.007072 1349:-0.121091 1350:0.992616 1351:0.387931 1352:0.921025 1353:-0.034955 1354:1.691577 1355:0.412785 1356:1.065001 1357:0.655962 1358:1.249059 1359:-0.248568 1360:0.667562 1361:0.701837 1362:-0.000355 1363:-0.107397 1364:0.994216 1365:0.401444 1366:0.915692 1367:-0.018705 1368:1.693767 1369:0.412551 1370:1.04836 1371:0.642943 1372:1.252726 1373:-0.247864 1374:0.668092 1375:0.701582 1376:-0.007638 1377:-0.087836 1378:0.996106 1379:0.417366 1380:0.908737 1381:-0.001447 1382:1.695148 1383:0.411541 1384:1.031682 1385:0.628304 1386:1.254201 1387:-0.28721 1388:0.677669 1389:0.676961 1390:0.123937 1391:0.107261 1392:0.986476 1393:0.448699 1394:0.840717 1395:-0.303093 1396:1.501954 1397:0.422667 1398:1.328331 1399:0.687272 1400:0.89307 1401:-0.286051 1402:0.677534 1403:0.677586 1404:0.116894 1405:0.075985 1406:0.990233 1407:0.425581 1408:0.865171 1409:-0.265256 1410:1.539098 1411:0.403306 1412:1.303619 1413:0.691056 1414:0.936017 1415:-0.284611 1416:0.677277 1417:0.678449 1418:0.10962 1419:0.0466 1420:0.992881 1421:0.406421 1422:0.883608 1423:-0.232505 1424:1.571157 1425:0.389249 1426:1.280569 1427:0.694013 1428:0.97709 1429:-0.282898 1430:0.676901 1431:0.679539 1432:0.102132 1433:0.019195 1434:0.994586 1435:0.390847 1436:0.897539 1437:-0.204112 1438:1.598611 1439:0.379677 1440:1.258965 1441:0.696144 1442:1.015796 1443:-0.280915 1444:0.676411 1445:0.680849 1446:0.094441 1447:-0.006166 1448:0.995511 1449:0.378489 1450:0.908049 1451:-0.179424 1452:1.621876 1453:0.373848 1454:1.238604 1455:0.697448 1456:1.051822 1457:-0.278659 1458:0.675805 1459:0.682376 1460:0.086553 1461:-0.02943 1462:0.995813 1463:0.369022 1464:0.915913 1465:-0.157879 1466:1.641305 1467:0.371112 1468:1.219293 1469:0.69792 1470:1.084976 1471:-0.276126 1472:0.675082 1473:0.684119 1474:0.078462 1475:-0.050556 1476:0.995634 1477:0.36217 1478:0.921688 1479:-0.139011 1480:1.657191 1481:0.370933 1482:1.200855 1483:0.697555 1484:1.115153 1485:-0.273304 1486:0.674238 1487:0.686081 1488:0.07016 1489:-0.069507 1490:0.995111 1491:0.357713 1492:0.925771 1493:-0.122429 1494:1.669769 1495:0.372886 1496:1.183129 1497:0.696345 1498:1.142301 1499:-0.270182 1500:0.673269 1501:0.688267 1502:0.061626 1503:-0.086244 1504:0.994366 1505:0.355481 1506:0.928444 1507:-0.107816 1508:1.67922 1509:0.376652 1510:1.165962 1511:0.694281 1512:1.166408 1513:-0.254888 1514:0.68096 1515:0.686531 1516:0.178752 1517:0.353858 1518:0.918059 1519:0.635091 1520:0.41507 1521:-0.651442 1522:1.257894 1523:0.600537 1524:1.536623 1525:0.65244 1526:0.6781 1527:-0.266857 1528:0.679414 1529:0.683509 1530:0.171095 1531:0.332794 1532:0.927348 1533:0.631248 1534:0.450334 1535:-0.631447 1536:1.241569 1537:0.612156 1538:1.520885 1539:0.653505 1540:0.680699 1541:-0.277041 1542:0.677992 1543:0.680863 1544:0.163597 1545:0.310418 1546:0.936417 1547:0.62446 1548:0.491896 1549:-0.606702 1550:1.234728 1551:0.61663 1552:1.503039 1553:0.655075 1554:0.686089 1555:-0.285329 1556:0.676754 1557:0.678669 1558:0.156248 1559:0.286649 1560:0.945208 1561:0.614185 1562:0.538383 1563:-0.576992 1564:1.237458 1565:0.613747 1566:1.483194 1567:0.657147 1568:0.695042 1569:-0.291666 1570:0.675745 1571:0.676978 1572:0.14904 1573:0.261404 1574:0.953654 1575:0.600006 1576:0.588105 1577:-0.542334 1578:1.249686 1579:0.603565 1580:1.461479 1581:0.659714 1582:0.708379 1583:-0.296056 1584:0.674996 1585:0.675819 1586:0.141963 1587:0.234599 1588:0.961671 1589:0.581726 1590:0.639149 1591:-0.503074 1592:1.271173 1593:0.586416 1594:1.438042 1595:0.66277 1596:0.726914 1597:-0.298554 1598:0.674519 1599:0.675195 1600:0.135009 1601:0.206152 1602:0.969162 1603:0.559458 1604:0.689554 1605:-0.459915 1606:1.301504 1607:0.562939 1608:1.413046 1609:0.66631 1610:0.751393 1611:-0.299259 1612:0.674313 1613:0.675089 1614:0.128171 1615:0.175984 1616:0.976013 1617:0.533637 1618:0.737517 1619:-0.413885 1620:1.340055 1621:0.53413 1622:1.386678 1623:0.670326 1624:0.782448 1625:-0.298304 1626:0.674362 1627:0.675463 1628:0.121443 1629:0.144024 1630:0.982094 1631:0.504981 1632:0.781588 1633:-0.366217 1634:1.385973 1635:0.501395 1636:1.359131 1637:0.674813 1638:0.82055 1639:-0.295847 1640:0.674639 1641:0.676267 1642:0.114819 1643:0.110213 1644:0.987254 1645:0.474387 1646:0.820798 1647:-0.318193 1648:1.438172 1649:0.466594 1650:1.330616 1651:0.679762 1652:0.865994 1653:-0.29206 1654:0.67511 1655:0.677442 1656:0.108297 1657:0.074504 1658:0.991323 1659:0.442804 1660:0.854682 1661:-0.271003 1662:1.495351 1663:0.432039 1664:1.301348 1665:0.685167 1666:0.918903 1667:-0.287123 1668:0.675739 1669:0.678924 1670:0.101874 1671:0.036875 1672:0.994114 1673:0.411119 1674:0.88322 1675:-0.225617 1676:1.556062 1677:0.400404 1678:1.27155 1679:0.69102 1680:0.979241 1681:-0.173197 1682:0.688356 1683:0.704393 1684:0.221043 1685:0.444261 1686:0.868201 1687:0.625791 1688:0.36123 1689:-0.691302 1690:1.473104 1691:0.46086 1692:1.581623 1693:0.655078 1694:0.688624 
